#{
#    "Notes": "Converted from LANLstar_T01STORM.net",
#    "hhbias": {
#        "DIMENSION": [1],
#        "START_COLUMN": 0
#    },
#    "hhweights": {
#        "DIMENSION": [1],
#        "START_COLUMN": 1
#    },
#    "hobias": {
#        "DIMENSION": [1],
#        "START_COLUMN": 0
#    },
#    "howeights": {
#        "DIMENSION": [20],
#        "VALUES": [-5.2373377700480015,-2.2846822768272324,0.28576960108542104,-0.5527933757212776,-0.5506906755086779,2.0821615011736925,0.030421629703222017,0.6559876000415233,-1.7816239861595085,-0.35881806459769006,2.429926284319854,1.0817136771919402,-1.763792275440162,-0.6266173481231372,0.902283506564235,-0.48731949103519034,29.731254081609464,-0.7141261304668348,6.507397983019427,-3.1268397528290794]
#    },
#    "ihbias": {
#        "DIMENSION": [20],
#        "VALUES": [0.3437577725981362,1.1404541682236817,-2.0722155237286883,0.42985094541690105,-5.284492886179177,-0.8012078650934531,-24.973993412615183,2.6533042020597453,-0.7892857819895751,17.07672644119979,1.1556442177560724,-1.0768190901856525,0.3230147932785998,0.7848770692120353,-1.1230618854133523,2.2176295151228165,9.102914118190247,-0.693822354774446,-8.95996074625224,-0.11173288940368159]
#    },
#    "ihweights": {
#        "DIMENSION": [20],
#        "VALUES": [[0.04828162480200531,-0.07685233452556209,2.928383746776763,1.6794634733754885,0.7037642856270285,3.5073640323365525,-3.125136213924061,-0.6751585509847438,-3.3415782513927073,-0.10641978318512157,-43.85117667525437,0.2525207843858903,-0.04189797050692312,0.03514784193312313,0.012705028553055433],
#            [0.04983002778922201,0.3174813091989802,0.36957286776826226,-0.5901309188266638,-0.2922103799323671,-0.3652467125800437,1.2333310397086175,2.077047385433644,-0.5144651319537391,-0.7049109330075594,0.6247596386690414,-0.6513211010133171,-0.1280009319300037,-0.026052311231667152,0.01621093130479601],
#            [0.048081415573061344,0.10508364440327564,-0.16801824543791813,3.048099894226448,-3.786069374662836,2.097322192171462,-3.7398507570865074,-7.7081696527622405,-0.723867944476634,-0.6264846890253132,-2.6774179513404044,3.029827410673803,-0.04310600823457357,0.06795304689064142,-0.058065307756727136],
#            [-0.09894922921266835,-0.651864429492031,1.0659504199270828,0.48437658698397684,0.3916890643764338,2.1540384732451967,-0.314160652809918,1.1406210944525406,-0.3416192611288598,1.132291585166295,3.1162259176692837,-3.3510450813017068,-0.4857401858353002,-0.3114586797955255,-0.20708761474474363],
#            [-0.06312041344712888,-0.07636126286386948,0.33935701967103366,-0.6019052386960796,-0.12708897071557315,9.653902631452446,-1.55773022158484,-2.975728193701354,0.29861429839089965,-0.3192315317797137,1.8629764041721175,3.5064860649244847,-0.02743771812196564,0.005395726550788559,-0.05077953500071407],
#            [-0.12140204202440438,-0.15346030267523364,0.9312221629184908,-1.088368617313541,-0.982058176704055,0.5666507333708957,-0.04532091269214666,-1.3779304197651099,-0.021097139437579373,0.6637282468582303,0.5519895348612059,0.9916619669990073,-0.11019043285582875,-0.3056452302277699,-0.0570656949553688],
#            [0.7708151451564507,2.837504026802607,4.945023269822589,1.1474042264503497,1.8335751556026358,9.462338890221009,8.267658239342147,-7.226815611561753,-4.1201108639155,-2.239161423691589,6.678434880444155,-9.203059078048915,-11.187276709270138,31.39183766363653,-0.04184007612604749],
#            [-0.02907567508289038,0.07286888641335704,1.134956958649639,0.2642469802331818,0.32123257757117935,-4.731995696363292,22.01366425344856,21.45487099391021,-1.3760556374985102,0.1934342297942627,5.334015397084677,-7.848696297302057,0.09873192248960602,-0.06849824082804888,0.11576789116010684],
#            [-0.06665055685188047,-0.08953974698103305,-0.9223524642053893,-0.7367470519454848,-0.06014538900593191,-5.471693579645065,-0.21531597858071155,1.120291918261971,0.2957622130632767,0.22177151203750856,1.0261305890881849,2.3957115834373974,-0.04264207652592344,-0.09672853615028662,-0.03482224336247591],
#            [0.028200461343533132,0.1665033833555746,7.549224682840356,4.3295982073514505,2.097608788537244,-12.226864598653536,-16.388636624939064,23.626307936194724,-1.2799469457218233,0.3520740021931472,12.02590074812399,-20.188595151557216,0.11317585314163309,0.004241195844420771,0.18978393060343704],
#            [0.6831533371495025,1.0855216068164868,0.9228718474764477,1.1593071325746855,1.402714702643865,2.491979419054009,6.7869689509540105,8.15939687054841,2.0928750909569156,2.9977644633268405,3.7430450391394983,-0.07569565507764961,0.7182410325944781,1.4561761181991055,1.116361921144928],
#            [0.0267782823361723,-0.021064237142518347,0.9350321128408775,-0.6000339921471708,0.5730614172893413,0.8654886116608186,-1.7615892992869249,-3.1508603830175606,0.26275981734720066,-0.5519643638853263,-1.8852402863399091,2.341092580172682,0.14208954450845462,-0.27008866588437663,-0.10283442771852865],
#            [-0.15658895044411938,-0.17300927888355355,0.07192170110862627,-0.7492827213648645,-0.3346363967230534,2.5695217175701917,-1.9870690437866025,-1.4478807594698322,-1.3691197558379988,0.024687661934136854,-0.2795690683679674,-1.0144140579410033,-0.03442332499513531,-0.40149754971742563,-0.09172770457795021],
#            [-0.06303291383496795,-0.30678661648342814,1.3667748101773873,-0.34591719887320327,-0.0480817688076871,-1.3469880747053167,-0.5804981341062171,-2.7766766775488776,0.2905706000495945,1.2608334590590464,-1.4802162730145247,-0.48747820875994563,0.20890382918326117,0.3521868113440815,-0.06996620612695865],
#            [-0.09166155738364641,0.20961321440404845,-0.18268820915865175,0.673937710932988,0.7943023962816216,0.42839494996359917,-1.1773796978588404,-2.569426852824006,-0.4778074902725283,-0.2768475053569675,-1.4587409518446703,1.5819104316686488,-0.37245004963671,-0.14130681117401456,-0.01230064694618047],
#            [-0.20289584286471307,-0.23375559539502086,-0.6550886852204196,0.8510888609793337,-0.35723743951360304,-2.627964694871126,0.5095340022860514,-1.4555059034382707,0.012436123670608548,1.9853632415992213,-1.8732279947657586,-2.028467559522559,0.15148708149442205,-0.5173593856574631,0.08034245989325933],
#            [-0.10635904580647362,-0.7902356269281315,4.6809883660159155,1.9853219308351873,-99.64820235142881,4.618530258789811,-29.583723633622423,5.249612044080714,-2.4910159092741786,-1.0351363650683632,3.8774629817877395,-5.112456012038837,0.17719886996132458,-0.04498750106063468,0.03575732781962602],
#            [-0.2552710987323985,-0.2923225169102144,3.4238869847472033,3.207518405419206,0.13643704318754474,-1.646591559522164,-5.233288622517569,-10.296120284832167,-1.4368588444404873,-0.30144757433666436,-11.559780601481195,0.750145573247315,-0.08375558005762858,-0.11761805068143248,-0.22083979790321795],
#            [0.024552460369404033,-0.018587417484883354,1.9154552373441553,0.9872483602645538,0.6878180911805409,4.377993758589865,-15.387530878793267,-10.38768238310739,-0.6084710170886971,-0.09380300251100547,-8.348351986323419,9.391550512817574,-0.013152959861501282,0.038142005720179076,-0.018804571718591966],
#            [0.03164678594633731,0.055695758506880966,0.8135285354916526,0.4283954478564252,0.11491295036645133,-3.8426986416624156,-0.7441777686659128,-3.015735246110931,0.5644879365813911,-0.18488779354146415,-1.6474637792953792,1.7810631008277968,0.0328382519610406,-0.06657571134368533,0.007196894300192225]
#        ]
#    },
#    "inbias": {
#        "DIMENSION": [15],
#        "VALUES": [-466.04999999999995,0.1480821917808219,0.14998873724342238,0.74525071732057,0.14977021311584576,0.5176197908066779,0.49882863975838676,0.15,0.15,0.06333250629524939,0.1495470291018841,0.14904515273065236,0.0809401685814236,0.5009512010693257,0.49999526969286756]
#    },
#    "inweights": {
#        "DIMENSION": [15],
#        "VALUES": [0.2333333333333333,0.0019178082191780822,0.030435322490476594,0.0017133597649761894,0.010085061952140983,0.009368926952085811,0.007493601508926099,0.006427071917064555,0.0025364381071020367,0.07866744603105921,1.4923302700611336e-05,0.007788396016512524,0.0669140878751568,0.003937274051643736,0.00194448743950611]
#    },
#    "outbias": {
#        "DIMENSION": [1],
#        "START_COLUMN": 1
#    },
#    "outweight": {
#        "DIMENSION": [1],
#        "START_COLUMN": 2
#    },
#    "two_layers": {
#        "DIMENSION": [1],
#        "START_COLUMN": 3
#    }
#}
-0.5365244135551901 -1.051674073881983 14.36247302453046 False
