#{
#    "Notes": "Converted from LANLstar_RAMSCB.net",
#    "hhbias": {
#        "DIMENSION": [20],
#        "VALUES": [-0.5595999675455944,-0.08377850952496166,-0.017249298104858635,0.040880803549610475,0.2089096796163298,-0.22282931966521366,0.21290172577933994,-0.4884720951100349,0.6443445178707571,0.021785689604929152,0.0012352171629907683,-0.11338832282500483,0.05065315508176687,0.09394996468982861,0.9259852914240746,5.339012631082865,-0.11146401727981135,0.1686071773654691,-0.2590407415895381,0.3993229410206328]
#    },
#    "hhweights": {
#        "DIMENSION": [20],
#        "VALUES": [[2.924321575326869,-0.5495834153099031,1.5499603879952,1.1139184728301497,-3.9206290076611383,-3.1492730087259826,1.0153140302282038,-1.2594360914863918,0.8795404110377976,-0.2280851734417329,0.19457465003932523,0.13464207968125302,0.07552978770522384,-18.824919780401096,6.653803318464813,1.2458062353407173,0.39754663282954744,0.2677288945828437,2.21841093044068,-0.48859589405619547,-0.029191574826869036,3.2687361637200554,-0.920309644351334,-4.371729460226141,-16.37809907018653,-0.017702090825110376,-1.0635155622187762,0.1184645848010438,-0.23494230442644318,-0.101561446110357,26.208876805734207,1.1769627769533502,-11.053396474955084,1.7932169969866036,2.1827358782351434,-0.5197912250930654,0.21465409248198927,-1.1946147198670933,-2.0555158559211013,-1.8546760555999635,46.36757676850996,-2.7915715423221794,-1.3516261490739148,0.4958921128206761,0.3233172747155146,0.4748974571034801,0.5312479745094179,-48.20332078305469,-0.6178523853194412,-0.9424120809559977,1.841426492700754,-0.8387630522323211,30.053414106858835,-0.1840400766792632,-1.4729072273994712,1.0620541002876067,-0.7649889286980226,-2.1918289835724996,-0.03931855386859438,0.3267795648358214],
#            [-4.4171622818342,0.12428943587149602,-4.0204323376173035,2.4633124284419567,0.05276120577448716,-2.015176014171101,-1.0072261907236604,0.6096790089788032,-0.2492148805096001,0.18386760210203937,-1.3943662675268236,-0.19640491280405412,-0.6433022869360753,38.462473645296605,-1.601973730492166,1.329482774108546,-1.894040801765138,0.45434646781481525,1.506058512026318,-0.04908324178973833,0.3672162990154905,-4.587557130994062,-0.2308385491971588,-2.7608497551629223,-25.54784292989327,-0.3481121048816168,-2.0630934354018113,-0.11842812488996188,-4.029812901992482,-0.227037305940119,7.4918837807466385,1.3689108531305012,4.881832704341271,0.17952289051876696,2.3226720816044355,0.014240535195678593,0.04759027637433319,1.3223772653305375,1.2293849626459283,0.0023091463048757086,35.207925924326226,0.54203304837541,-0.6178258761448384,-4.5501999194772464,-0.8889945294100454,-0.18834502871605485,0.9191088791211381,-4.7075239991860345,-0.48215206834812074,0.016854478459995367,-5.941510671764395,0.05539813194007344,-3.7205505528313387,0.3532796190232633,-0.35752094383578725,0.0750759361501394,0.46767543207675505,0.04731279363282769,-0.7594549655549083,0.042873178189332686],
#            [8.688643642135348,-0.4745334356652326,-11.964470678253319,-0.2804650106989676,-2.3337333596095,-6.296463420702008,-3.9959935934296955,10.808968379187894,1.4059374420607083,-0.26529233320399453,-2.271806009336787,-0.6903390930387928,-1.2799467187024105,17.117538328019148,3.1572487005888874,0.30281385288656065,10.55767215181402,1.896247634882267,0.8688315196042611,-1.5800555578611202,0.4524633265076199,-1.229908862916618,-0.6076852985853142,7.10825811233388,0.8175213484685226,-0.7851734319118533,-6.950956234402258,-0.9571785230018549,3.0890762952818545,0.2917591874780837,45.36700111390148,-0.5766092392621432,2.9182440216607497,3.2858660231797456,4.195455385281562,-0.8163563953192543,-2.80420178096674,-0.09087568998977417,-1.445139392790451,-4.1502569522857105,79.8642937586583,-3.481594110634398,0.1466183107969861,-11.66610031312444,4.86533864238986,-0.6589917211526664,-0.9754711264539242,-28.331599775570687,0.3974947919090821,0.7248749039409803,-4.4599421774855905,-0.7465864246305085,-100.0,-0.4195505448299267,0.1255523194234562,-0.38349290286306015,0.5248136856962509,-1.2010307449606363,-0.5053965245089563,-0.33527445491600527],
#            [0.9595782989627645,-0.20036286729750566,1.8521181258439774,-0.24515088739810925,1.9515747215930053,-0.5984565172806475,-4.200550798808419,-3.7264317502845694,0.9280824976977929,-0.17828581084443468,0.5651199738801973,-0.4706011257838999,0.9219397565888524,-30.910765281318252,-1.4624025468093067,2.358076673492964,0.8478252282101766,1.0337695861973812,-0.42082467105956556,-0.7679029404835346,-0.8545418371003779,-3.2199153946417725,0.8341103944182813,-3.878783201919895,11.606815291294064,0.43016794192872615,2.5634737646479855,-0.7458223584760441,1.1441804477061186,-3.4412626609386994,-5.585112944762132,-0.3219855284458799,3.804647920675197,-0.7761700672551706,1.4718056875821017,1.1647447389166896,1.8977102892161046,-0.32992118500300427,-2.191742560331485,-2.0515845156052155,16.726751459618093,-1.2644812873637923,-0.021508108918959244,2.340786078688542,6.347512207134252,0.33516297662589084,-0.9277291434253747,0.059928290745752344,0.2471161804941673,-0.19520050206574868,-5.2816941516688765,-0.3644245993021965,-30.664816466198193,-0.20686201452158634,0.3126549281263507,0.12414133545328575,0.14516092168701766,-1.2846728260996123,0.24330393465586214,-0.42237508921680367],
#            [2.352627194506347,0.29266586334058414,3.5420503676395168,0.10741592144955263,-1.1864435887110196,5.256966390579619,2.0735041929356512,-0.5805103303884481,-2.729311198035396,0.14218156670877158,-0.6905671895017153,0.09003794326503835,-0.16856630315219343,-20.411576252664364,-1.7780415609509894,-2.6170238684079212,-0.9715906251893764,0.2353271188986874,-2.443824306180235,0.08380987135585885,-0.09672120816939708,4.401571381485545,-2.3575357694640244,9.068235636108263,-0.755396052230472,-0.4112667617726324,0.6090789589481838,-0.22256421080234567,-2.5551466765445805,0.5601767620618451,-31.259426169109833,-2.374056475926134,-3.4847058294258706,1.7724467781330306,-1.0101275073840499,-0.6360239543560131,-2.1475343414541896,2.383316833265453,4.341013487938768,4.698340431829752,-42.280929244265195,2.6104940379615833,-0.6735711099094785,-0.04366593758626708,-3.4563432873364346,-1.6217285429706223,0.510696313256617,22.17181609641289,0.5091067987040441,-0.33024866116818086,6.54039945052166,0.8982325010677354,-6.436661594681079,-0.1987086616837119,0.2510993772205579,-2.1674890800099615,-0.6005432286662326,0.8183434274993293,-0.17992057486843105,0.12891692181513775],
#            [2.3973648028474988,-0.03749530491451949,-5.809736786067026,3.3960749937545374,-0.6553680037633591,-0.299395808309712,-2.0586841993434573,10.296350454090746,-0.6500016457863357,-0.38443287549379024,-3.915787588106149,-0.418844816736538,0.5990762332743195,-13.444299875972085,-4.649648975962849,2.231371722037876,1.4147984445751014,0.7238113178259844,0.6737942618242367,-1.3787778342167651,-0.4941661043270535,-2.9884228314305714,-1.3668108123587885,0.4280942585760425,16.798615200763457,0.15094167063084582,-11.572048173316988,0.26700066681017565,5.267853911395697,-3.1850195372363492,2.639736740610121,1.6406606674501543,5.7802986219879795,-1.6608394067208019,0.9243228351076987,1.3220906251399893,1.7287788881959223,0.0022585643250847462,-3.675092800269607,-0.09689491260327501,10.353519607849314,-1.5423534828271421,4.912322920458902,1.7416154882273054,3.637670888735779,-0.3384147996001795,0.4644210825223219,0.6605726021949654,0.2818126991420756,-0.3487622029804392,-1.3551594962559355,-0.208115402061953,4.296007352415262,0.15981342814992233,0.23730025029422888,0.009105374549037721,-0.33284100942047506,-0.6674011631914517,-0.17982539432729702,-0.03882130899713581],
#            [0.5434846096400052,0.3006328939385534,-0.7423915873755489,4.985192026627754,6.294387264571309,-5.4837945641508545,-1.3955171693386665,8.107119648202476,3.520769768229796,0.7387854074156908,-3.665410955316591,0.059167188650717996,0.6100729068376006,-37.79719972922967,-5.097984422229186,0.7561687151356574,-0.6897409064782275,2.1752369662175948,-0.20215008979973928,-1.56538249614951,-1.8200121894065724,-5.851579987094691,3.2396138230723563,9.932792430508224,63.71365287906732,0.02032575180365151,0.2447603597261201,0.37293265519810215,2.9397748745078225,-3.483238426217614,-18.091213679966984,-1.378714491183732,13.911396526495135,-5.581816606503464,-0.8100222902494393,-0.3091319879554193,2.7138554437101976,-3.2028146637429153,1.6616039714691844,0.8148970867626174,-11.121038409314957,2.3048810466637515,-2.001960454190305,0.85569390196305,1.4066985745494942,-1.3571450307482003,-0.42535549881955304,31.020803371163787,0.2063389166451401,0.8609805028576598,-11.55759954704986,1.2298192702165025,-5.028791491524956,-0.17710142205068682,0.3346971514596318,-1.0618583148840965,0.5076417759468367,-0.9415256818021139,0.24469240035853673,0.15609731511477648],
#            [-4.97553238497248,-0.24692851094473578,-3.8103155286673767,8.11150108809893,3.6694028774410996,0.0032330803996013474,-12.949850900403689,22.303373935399453,-0.9276869972968307,-1.63166675685945,2.168965753725761,-0.6579135103534931,3.0459252322597656,-100.0,-28.94504023302632,-0.9961016797937514,7.3140023039038065,1.2131022997980434,3.2498318186336963,-1.4431025476571568,-5.255410171419442,-26.04899852887571,1.256866590788194,42.269455745158346,94.79082675061622,1.7989472563610702,27.527093829218195,1.0065409630071538,10.381604145707184,0.43807322327553716,29.52368198552046,-4.817294070595462,67.49937624335641,4.719072999224326,-6.382679102121207,2.130127338049078,6.865413258769312,4.546173329186591,-7.296335049368816,0.10381945055646148,59.35309150917308,2.2933274919305027,-4.958223864837386,-28.0805415640566,3.8886061447996707,0.6128911441344403,-0.2066109734407826,11.413786597120586,0.2273063120652348,-1.1170650680018264,-16.87037520526549,1.7441397755720374,8.989929220279045,-0.7566143118470079,-0.8715184433907003,0.9614488045811489,-0.30945241383720007,2.0125942876354386,3.1694361026617974,1.6793204581401822],
#            [-23.50109449405653,0.1443428766738994,-30.034257769949548,3.6658269143730036,5.451246647950362,-9.250943843157458,-21.545988274262697,-0.12138586622539463,0.8358137671105201,-0.5946220180829381,14.939461756767109,0.056209556791059385,-0.2698286380565497,61.80022002449185,-0.9534718607306996,-1.3691830734464159,2.5812999072500107,-1.4130791144743826,2.205833549706795,5.080451013567865,2.823787916132093,-19.080369825251715,-0.818157728366576,-15.645135798618615,32.75930374165304,-0.9239562655977402,10.148559334451637,1.3142301071594733,3.581858594903443,-3.367375212873776,57.5273161579971,4.034495465615876,16.854693560302305,-0.03285200560574931,7.245069945289366,-2.518869326446526,4.086248272890585,-6.709963068435361,-3.2655659353782513,3.7657920330611723,100.0,-0.16391881137373895,-1.9930950373443015,0.30399011297936906,1.8786925762285331,-3.3585447546410787,-0.35077197507063385,-38.62867031463509,1.883450420730282,-0.014170409571988906,-10.397492720016665,3.8290525367850625,34.155117260679965,0.2787234212244579,0.17095341256137608,-3.201336816725206,-0.2034754425376372,0.8647311014276731,1.1946830674315891,-0.009664372938598504],
#            [1.2223560312283681,-0.00023612371536433965,0.7991306980082961,4.112881630472968,-0.8155351897626346,0.3684232453221753,1.0832152205234677,0.8575697422944272,0.16476948916174503,0.2722568579818187,0.9304527194931663,-0.8190977419367383,-1.5888519596475166,54.81070159346626,1.6846435413088194,-2.2438684338124357,0.8805175616524804,1.240626250380993,-1.5804071238906143,0.7442303384627003,0.9949455312831649,2.3531342414987737,-0.281164323740271,4.53297247765838,2.6223195476229932,-1.1194233662802082,1.3014406325610604,-0.36205085646595725,2.2829850484807457,1.4873099850021987,-7.242422986349722,-1.3229029559123386,8.653455569497318,-0.7686458115045149,-0.02500159841849721,-1.1625548267409016,-2.0384152944522755,-0.6673982802323475,-4.349646477417909,-0.11694145724559458,-6.038616734869304,-0.4502099244883996,-1.2252264108137003,-1.4723831837095283,1.7824502226788312,0.35432992974962496,-0.6169295225275463,-3.54284234484013,0.07721089599219658,0.42917452988940835,3.3643815986899903,-0.8426212816735388,3.653392669904678,-0.19404353738132427,-0.21319767679310095,0.22877230581845837,0.16536983070003608,0.6050189524781002,-0.7177015298881982,-0.38793760239792524],
#            [-0.09216661911769596,0.08611934516933625,-8.042917136066336,0.3445593969868598,1.569325885792974,-0.9999941727861789,-4.62657719736274,15.013779021382948,0.6199933577254898,-0.12737789867077545,2.8582791742354865,0.3886281609977911,0.2739481978287872,21.438168777229105,2.972708265071497,-0.49057973894955115,0.6141753845910247,0.11097667354254201,2.734409329838701,-1.4789366015507062,0.051828518486298436,-3.0661774937081354,-1.2125684055671657,0.28563101497949517,43.545742055959444,-0.31997328088887783,-5.938380614597777,-0.4945764742432721,8.27399335305313,-4.447679129314003,-1.4104128015447461,4.582940488105713,10.603285504120821,-0.3934664381530289,3.134408718682015,0.4614514748780485,1.8811515543241464,-1.7257074492224185,-3.6291886172539733,-2.6176139001202836,-13.106683753663548,-4.427277489422885,0.5019019390914122,0.36082318967502147,2.7984269428812643,-0.05413141992695923,0.5633647483950436,-9.443552075459015,0.39844884497593586,-0.31242424209506175,-9.853532948533923,-1.0850372135205062,-12.37332446039392,-0.23828721112298082,0.07253586007846424,-0.24433349528047163,-1.1720349805612944,0.9346302666402998,-0.16450179770007115,0.36317877898000517],
#            [-1.561029942717752,-0.22653993273742426,-0.7691005246722903,-3.2165919016565576,-0.8329613135350392,0.10455239934215854,-0.2682665982804726,-0.22858222746540668,-0.024372455509320066,-0.0416912579519498,-1.0853506668040551,0.2838533618900663,1.041586003630463,-49.07788104693034,-2.286683091695927,0.7385056097349609,0.9133887892432336,0.04755151866208429,0.6856440710006138,-0.3722730719321933,-0.7886442071670435,-1.2504171041044094,0.009735266261727635,0.9533979232303027,-15.737225824882668,0.6570286394823546,-3.9926962002212103,0.38361995791453585,0.1538444287489825,-0.11254234029748904,-5.810821885345835,0.5450021065407551,-3.2491708430318864,0.4038504216359322,0.39984713987938036,1.1239531669519987,0.38166385079709575,0.4366829535909912,4.05758579760152,-0.9746110422297225,19.741512945072852,-0.6122353392654206,-0.16638859144656093,-0.2923413589296679,-0.17846959982343716,-0.020610001113881893,0.41797489553170913,1.428431620740975,-0.029782658274955125,-0.22222669490601618,-1.7194157478600338,0.3523516958772728,6.958221441333473,0.3202832043725447,0.34210141918842185,-0.12728743380393315,0.1144245346424722,-0.37470398601063293,0.6598447218677427,-0.13378495598606793],
#            [-2.891060650851438,-0.17922777433933884,1.4191558111612852,3.282574267217797,-0.2638218594694391,-1.375804283508394,0.5246426312751362,-1.211999257409066,0.49944357659607813,-0.16429724644989185,0.6492419044305655,-0.2662982189429709,0.964149664441869,-71.76740559067841,-1.7875700346975454,0.37477284100486347,-1.2566799056901552,0.325525640988457,0.12024929460115259,0.3416928178334901,0.230368160350331,0.3898704910626253,-0.17427777863765934,-3.503607399283346,-6.069600476421675,-0.023765330420828897,1.5205268079300802,0.22456789190989196,-7.414588027885531,0.7146181692832073,-25.042035476263173,1.6183315688264335,-0.4304825748446655,0.7705938299506626,0.012045168428635908,-0.07734839402246799,-0.45017684688170284,-0.5320961250508339,2.0735292811864747,-0.49108289210406175,55.83538266634671,-1.144025081594045,-1.0391752576087705,-0.5643418463909317,1.344354452164362,-0.024419134367353174,0.09610829784048011,-9.550331525369437,-0.21216709097337028,-0.5144712292041217,-0.2503262359834879,-0.14421167713348013,24.52612073267488,-0.2976383323015141,-0.0013105135270165635,0.22929212048387326,0.14292418682470204,-0.8924770490127086,0.5475912049038081,-0.32334785892695755],
#            [3.2271622200700776,-0.004850474801164767,2.04062070437443,1.3741306626259375,0.1612310334587105,-1.5570569970088033,4.6404069821670415,-7.725912485307478,0.4676165830718033,-0.26479593695587905,2.2257872609320253,0.09441248647655988,-0.8696394784650909,14.966719157286457,2.0297717050467106,-1.4482079952986406,0.6920827959018451,0.3269225314813213,-0.0911054790698345,-0.23066312445777504,0.6859072285431416,-6.528278612916239,-0.3042720067505668,-3.6027438258818023,-18.689874853226623,-0.20930087993883598,1.8429652264614633,-0.15731196562159924,-4.216647425615807,1.9592811169580813,38.26785861160032,-0.42407179360963987,5.936118055776308,-0.8279794404740675,-0.9503418231919138,-0.8688780320126472,-1.1516093796529963,-0.7524025184539626,-0.4116437133126291,-1.2680130212093506,23.54185996484807,-1.543545238106325,-0.5870319150034673,-0.8799129896165924,0.23487632994859645,0.40161512137392197,-0.3502138274369291,-5.682175381348737,-0.6162036509985708,0.058598608336577734,1.544781705925784,-0.6993770285125189,-19.650414440300523,0.09009344923862271,0.20316088372723257,0.8748666430575079,0.23151232344283257,1.3532840047342498,-0.28531619453833906,0.06843713272530365],
#            [-1.4132873605290168,0.13129042217586967,2.099366332357334,14.200259724450426,-0.8179429837499783,4.247969059797116,-0.5310510768928812,-11.571884492114572,-0.23526094835977274,1.2629395946979278,-3.0449222978278225,0.8890648274783207,-2.40495395514133,86.3007557506631,-6.218881863593298,2.8580649691051874,-9.937080338103085,-0.2590379834459893,-7.596535511111606,2.1279268716690143,3.3490090615776347,-6.989070735798747,-1.4056406886680657,-12.037228053887212,-26.519730647558553,-0.9668046914733996,19.818774862247565,-0.8635023472699044,-18.3735572475476,7.1824029378719745,18.32763766224327,2.6406477015382377,-20.1349387522874,2.5572588961360427,-4.589482462567284,-1.4516483702711704,-2.2226107903149117,-2.0181606135941528,-3.5386025548395725,2.028773254129143,57.12169026969774,-0.1160594228019778,1.9495157173406077,4.933029439176592,-3.28665460044358,0.8080610952863757,0.014085478435203472,-3.480631641527611,0.047405367846633406,0.5123866959525508,1.3990486483934865,0.5347562197532401,-23.66493999095344,0.7306309839415729,-1.2733419622792472,0.6184289310707407,-0.22673926179880752,-2.400407112714869,-0.8623710817453087,2.701914015299353],
#            [17.530838160180586,4.971739972168807,11.403040679669457,-0.7472517497040476,-2.853387475880299,13.013015390295667,-11.644543826153743,-5.334124404124541,-8.418471171930827,14.426697377246603,13.716959336297736,1.0340286979127706,1.5072643277384594,-94.88181137715603,10.033667663761785,9.403340117216521,6.019872040905965,2.9018428160021372,2.864382352653783,-11.95358437431764,8.95984313208988,1.4111968081340702,-18.459159225608033,-5.677701841510016,99.99871255834869,-2.574539417261228,3.790956064629665,-1.1297681531373889,-24.51806958243462,16.615202362998392,21.466659510828297,-6.6791372972193646,-7.017771429985927,-11.848446216460697,10.56989718282112,11.274319702483904,-8.430884498169029,-0.3115180078844253,-5.104714773510015,-1.5241118225021866,10.979188269879277,-23.449439513768123,2.52299260202346,-8.321255909511436,-8.50525763706756,1.6414652276823931,5.787420199318141,-70.27042896567603,-1.2279767861388136,11.430518940604415,-5.433032951264519,-5.162724758624594,-53.893908134769354,5.337833671568892,5.321027080830863,-11.112169997535624,6.501056412595596,-5.919453439264384,-5.955517136317398,-10.812286887939612],
#            [1.0885293657793669,-0.2151932509257525,-5.12310600645359,-6.113593868785296,-1.5363877280522027,-2.9785057762426965,-8.012357112938053,15.696080509607896,1.3119361724836516,-0.386280913204395,-1.581143152216341,-0.14141041329475706,1.3760498253603233,-20.33179599311999,2.0319187633001112,1.0285098233697094,-1.92133877228945,-0.13959561750931712,2.4635476678775423,-1.0627172467016117,-1.562829263109413,-5.574410700263464,2.5753279200012242,6.977575452812072,24.681325540631267,0.4069358613523747,-4.968492766445311,0.5368820198095147,0.726970721309928,-3.1900107839940963,43.357209315240034,2.217238988485782,20.97135620859448,-0.11763080905568013,-0.9949284008209451,1.3114767046026954,1.4398818029431328,-0.6360189807171106,1.4747195129492634,-0.023944331347419176,69.50273978807188,2.24802616096099,-1.8512026928570327,2.056539467192439,0.15101956473982994,-0.9484933801330732,-0.06046373854225909,1.4770299763512114,0.7147010318982272,-0.04820325487805616,-2.2956535718106377,0.6697746625240912,29.606160736509366,0.12482346768705894,0.30113820989642415,-1.2221932127124737,-0.005854403879116131,-2.116262823665605,0.5819702410536375,0.3299488695397918],
#            [-3.504688902961669,0.3941597588446409,-5.722507372848102,1.1861863892580025,1.9156507189118235,2.007505081697974,-0.04330670154359499,7.155176978888668,1.1963971140785223,-0.4915321238318863,-0.2561299405814039,-0.08901691514171434,-0.5517173818599435,1.7494967375646289,4.61213391186963,-2.1338925129389614,0.770764004900184,-0.4663686443182668,-0.6785712538208205,0.9887995107839994,0.237652431894835,0.28630938932482414,0.01919734330862519,-2.9273109994516364,-8.139142672629395,-0.44304814466190673,-2.857387793617694,-0.08515688505965784,5.804197995651603,1.4361438789599785,7.02195196140027,-0.7614517906113147,0.212295317991046,-0.2872170142018189,0.8720547743354986,-1.1943652959013034,-2.189964412434304,-0.015451298329588027,-1.6121038135579069,-2.784089760910752,18.12332269502926,-1.4510705969188733,-0.9675025929277894,3.9869209288193117,1.0168420330237053,0.585726256809176,0.6977836273384479,-15.991838758264398,1.0259856793550544,0.33278534741027443,-6.809565788717918,-0.3889657178941735,12.744331367930108,0.3223250552753753,0.3359203367778203,-0.49213789111500195,0.07084093010329083,0.530640844470497,0.14673529687003653,-0.23293851788910386],
#            [-0.2205116514319377,0.040272792804023363,-1.4371073210452132,1.959041084050027,0.19802153422019858,-3.1812798533134443,-0.6144514518287159,0.10951247798555784,-0.2203093692351431,-0.49356560847370246,-0.9605390258842849,-0.12342889179420308,0.5930584799740851,-32.83836079033892,3.2113280573827687,0.5717681715962339,-0.7792883572216531,0.6086703456099258,0.782878399613362,-0.7128507279784111,-0.6794483026009349,-3.92129151330108,0.43693210449571,1.8729144850802892,4.363203764866578,-0.16410223997179202,-3.1958907115908897,0.2605344258722795,-0.7660996519816095,-0.4951142650362484,21.124001054047685,0.1509117703295726,1.3176942254611408,0.29865956148181255,1.2911324581092765,-0.14493877677388675,1.3773893262910426,0.7130452775358909,-5.703422422581726,0.5468934528776571,42.34068122745684,1.2587584992637082,0.131927201531925,-2.7303697183819158,4.026515599137026,-1.0493607457540146,0.8939367293062862,-4.839421758668976,0.6200317835450614,-0.4194919960807673,-3.940174244459442,-0.4757909716178772,-51.68554251079745,0.022149467918716803,-0.6110506113368661,-0.7144619310468259,-0.251081072361683,-0.496869574776186,0.14371070578823839,-0.1543084665689035],
#            [-1.7546869991642038,0.09903636285244646,-6.273904576613226,-1.7798078047549502,0.4280481298063507,-5.255883061384421,-2.849940820020362,12.922673536738083,-1.025275514486417,-0.18834679245358285,-0.8746222469427525,0.23666152417390435,0.47482628277444067,-15.448453301938267,6.972725130118786,2.2487283771172444,-1.9473755448786527,0.5773778794923834,-0.4903243835642433,-0.37914010573185375,-0.7958472692220602,-0.07322355965823425,0.5008585932519588,2.6423148673644765,35.091989127863485,0.8116051167288113,-7.5255311692206766,-0.033640738241043584,6.076175636522747,-1.0313621538840463,6.379693279774953,-3.395962062134921,4.561900104085122,0.7467926243599202,-0.6975472820442714,1.4595077887115948,1.5579531588840112,0.2001424323583989,-5.79502914559145,0.7051188678965562,21.723785244275888,0.305223284515677,-2.224309005877959,2.2231060956449484,7.313442454794396,-1.446810844893417,0.11804964619232258,-11.694842445857907,0.2364896185236659,0.4820870998329089,-5.630378181670549,-0.2146185055451818,0.3905202133631418,0.1608998837976759,0.4444271503751107,-0.8850664187840571,0.2555847235473116,0.30176317371332945,0.5539942159794747,0.274050824155835]
#        ]
#    },
#    "hobias": {
#        "DIMENSION": [1],
#        "START_COLUMN": 0
#    },
#    "howeights": {
#        "DIMENSION": [20],
#        "VALUES": [-3.2385275343087745,-5.035840004002739,0.9175201177088126,2.6872890754556304,0.8865627097605135,-0.923300537224727,0.907772694038175,0.44214046151369685,28.397482626457695,6.461461842255161,-0.7770203435517615,-1.917160884785352,-1.560250990697432,2.74241254639514,-23.66493279588533,0.15341997427307988,-1.1611255294351313,1.1043380701775405,-1.4214519144966182,1.0146146403157263]
#    },
#    "ihbias": {
#        "DIMENSION": [60],
#        "VALUES": [-1.050123336674309,3.699241411368978,-4.267653781242626,-1.424991720415998,0.6688832725034075,1.4788602406827012,-9.690943519941515,-2.6012494678024844,-9.286210968508028,-4.955380092719712,-3.7822472621043115,-4.138634251801303,1.3969479000501852,-4.050292826922192,1.2468564428636768,1.3422016098561986,-0.7090353041585649,-1.9082015052905046,1.6867902978381935,-1.0238331843445354,-0.936689984110654,7.743532536830698,-3.7252744436487886,-6.871232503712625,-1.441930058332192,0.27828887455188706,0.4540408186842512,12.787945103286905,-3.7301763624046176,-3.7094819762916327,4.406133299858761,-7.588594972029311,2.8139602449062378,-2.382204837971137,-8.8003875601062,0.5369305385341756,0.7511408066465797,-1.0504370184323304,2.8162424190649475,-2.681602506624692,0.08672599303813039,3.3694747377855765,2.644188968152767,-3.9453488747861387,0.14916385452361935,9.484116008059162,6.194971203753091,1.3801277729684989,-5.863721756580053,15.73873473863929,2.6163058826119294,3.7592420115899716,-0.7359976249330072,2.4847139012364643,-3.9565259588271258,-10.524281690592781,2.967254553721633,-1.0205671724759324,-1.9594800961591767,-3.1022860614464816]
#    },
#    "ihweights": {
#        "DIMENSION": [60],
#        "VALUES": [[5.929899258784453,-11.07208090946992,6.290608314282931,0.033499272464927406,-0.15092388464590376,0.014683133909464238,-0.362398054105065,-0.131227916896133,-0.12461649918725724,-0.004569061709570347,0.03167805120840691],
#            [3.5591212537083723,5.768206014888534,-0.2915788178028607,3.1455811890500445,3.0685541953300666,6.166729093277532,3.0405532223249856,1.7143287670821479,6.055501776824858,3.960766840674829,3.6377797833448815],
#            [6.4391063374303865,5.725627226912494,-7.614156098081744,0.06056094291235255,0.49814478965701303,0.32114675933627007,-0.9411128133150118,0.4316331336045638,-0.24772149864115697,-0.015871158156590175,0.014354320782295345],
#            [-4.297650138544664,-2.4483954920068736,9.328976721227384,-0.4575242009340113,-3.756693124832191,0.023705308562288124,-2.096213033584957,-0.9447338508787441,0.05360040888515111,-0.07804938311179511,-0.07479355254762735],
#            [-6.124009074531312,-8.117804688801685,7.970024762999602,0.11132748060464362,1.27274392571311,0.7735517416372729,2.3036138652033906,-0.3276145284021123,0.057678590423183115,0.071031572550421,0.011579606818557095],
#            [1.20239202893701,-3.737623974299214,-8.30237615884748,-0.19436754191223027,0.03359301729799942,-0.286249351961427,1.7048644430257123,-0.20885046939667853,2.8869580982677876,0.06116582116896345,-0.056364685870177754],
#            [4.7660268221538145,8.680655702596331,7.1277479565833355,-0.035902076717300675,-0.5700739423268314,-0.005444340364234457,0.5125086909830947,-0.34727058091233337,0.2295917784223772,-0.04378858761574145,-0.028883484261871997],
#            [2.761800291519429,6.1165806444952935,-9.563356875331998,0.07988448073882158,0.5465665412882524,0.03776773340210836,-0.5567733836262797,0.44432436368157574,0.03635647849992558,0.011855192472572587,0.007924742098035103],
#            [-0.3510319173287001,-4.506197119416184,0.2793320235726544,-0.042541136690373405,0.11271953600805466,0.0400847358384087,-1.4524685712834242,-0.3375974641871053,16.3425656318487,0.16476280883634792,-0.08986960818390233],
#            [13.946204049313838,19.090673813323196,-14.550918339151723,-0.4497038412607253,-5.208783670382074,-1.5733584332035497,-3.996968929626378,0.23207032438527578,29.279920831098604,0.5047075922763999,0.5841866869699871],
#            [4.640815025042676,1.3931569498025316,3.26376214984302,-0.27410251682338743,-1.955572329959664,-1.4065041147561987,1.7065712231935721,-0.6678537918694412,-0.2692287765803196,-0.10878578772256456,0.007444371064354098],
#            [1.2976840067311557,18.19860653247837,-9.097165779532247,0.5498098178741461,1.1560350265013275,1.9986946437129776,34.78802904403606,-2.1936755891409434,-0.15332053466946516,0.7566231279301963,-0.19903082652218893],
#            [-0.8057671810256462,-0.5808783034308708,0.4185719961165667,0.13919674481329086,-1.0014670433988455,0.9075274580213634,-0.14721490937392348,-0.6662783385431422,-0.20354763691805247,-0.09125991696656952,-2.309225375660746],
#            [-0.030055403646838688,-0.07749227907252462,-0.10048871597339634,0.09386120830071122,0.3927902204870371,-0.12943874112099635,0.5215179184504491,-1.7836684005143444,-0.04405268267060079,0.09559089490210865,-3.0726189710210727],
#            [-8.16701873659415,-0.25653320171294686,4.758666332267626,-0.05638841632872387,-2.0185896519570288,-0.9535174893790594,1.480026215041725,-1.6047094435835938,-0.08916817149444757,-0.07939667304472262,-0.04381311973270852],
#            [-0.21237683299615484,0.47999074167920047,1.2378975423415697,-0.3193815819973556,-1.2386733455844545,-1.5949069662355455,1.691262460469287,-0.7649997175583826,-0.16587617647716477,-0.7069272597058185,-0.2987647885114915],
#            [-10.324232204080824,11.000500780030361,-0.3479136610557283,-0.02865771620402212,0.3576522421548754,0.1060419990745703,0.17804429354700446,-0.10018621102081669,0.25084201724358307,-0.05392052283073339,-0.04279067357465179],
#            [-0.10960879184499872,-1.9698090688278311,-2.221463684068152,-0.11636316776964352,1.8168708287756963,-0.9260102671690902,17.332579328452265,0.8391179770390415,-0.19611203884309394,0.7168104042015764,-0.434360503772994],
#            [-5.385551273551918,-1.1614080084632876,8.53197490261204,-0.3171746655823067,-0.7554428843282507,-0.30711014695386984,-0.2855720434971854,-0.1338940673868992,-0.18225316229994354,-0.03989353766269217,0.011693247959960438],
#            [1.584939436034171,1.4115234111445927,-0.6854924839590314,-0.7664173650456594,-0.35150728032599154,-1.1774128776144195,-0.8822635738061269,0.193511427438509,0.03436475948965554,0.11941021350878195,0.12280244341181962],
#            [1.5829929896754384,-0.028400820627736828,-0.1852408560392648,0.10258818700723472,-4.873386271316596,-0.25130498933306394,3.26204674006079,2.30998049009521,0.6861761639479806,0.41470107603305145,-0.1930779249628433],
#            [-6.16313434516804,-2.374906635862777,-10.701281849620091,0.05741146412714278,-0.14741896126080795,-0.1226396828109239,0.8140193980828819,0.08662988894861141,-0.34155429207014143,0.009014248169382736,-0.005465585995242515],
#            [-1.0174727068990694,-5.58058958031762,0.420649488933135,-0.03697809201857186,1.003894282863727,0.21225893783493946,-3.1320727786475273,0.3832014658738222,17.48546365421198,0.22898738973414814,-0.11165556946528679],
#            [-3.172350586819567,5.506451205330289,8.882419621957304,-0.06224298717523429,-0.7433951925192536,-0.35075393077175265,-0.4774918007993849,0.21593902166350504,0.034329120035451924,-0.03987174146977181,-0.005842262664611181],
#            [1.5602515059509456,-4.348715159056553,0.815692743289879,-0.07185997629841868,-0.7981587017347728,-0.037838279401909786,-4.070737233786537,-0.5402167874877537,0.04701073445751268,-0.1345067341601049,0.016391058237187863],
#            [-1.9291877548134118,-1.3778753980950704,-0.26595238224602785,0.22493128773244309,-0.4462079610370899,-0.9456021327974393,7.899530578187261,0.7333651686727534,0.18616823255773532,2.2006696381929,-0.22575460906591607],
#            [-8.548728437784021,5.562536868179544,-2.5168013937406095,0.02739284702604677,-0.15959625398938312,-0.3618587081106371,-1.2830691940351995,-0.054081865225798796,-0.1318477671274052,-0.06087561521160515,0.004216348156920057],
#            [-27.73182879529743,-0.7320102144001339,17.06345656267204,0.5365855717459151,4.8372996396380845,0.030093517838941538,-18.372122301140454,6.278107433621168,2.995405618310877,0.09095471135213498,-0.15895097364630226],
#            [5.278327046625076,-6.4482097040685264,2.4933818176548006,-0.0033861681380309592,-0.046831941192225904,0.1181683853731889,2.338695081904125,0.020074270022852704,-0.20161134287897708,0.04452740570933267,-0.025140508390097054],
#            [3.2002731576768975,5.373191948857839,0.08741794455079689,0.08815406326262179,-1.5965645343986776,0.027780515281678138,0.2539605717626037,-0.7353605617350651,0.005162347371786702,-0.04908154140692429,-0.06264832238663642],
#            [-3.9849255208639147,-4.0875923517834805,-13.676015351710694,-0.8159532464990852,-0.2301931744824065,0.22791360644242023,4.552816851265522,-2.1245520999407397,1.0855349024556467,0.10166672490320346,0.07365686164910319],
#            [2.376180756184409,5.2755350321892704,17.054821956917007,0.036285239614993435,1.5283977058486367,0.9675057449307726,-2.097774527202106,0.8429694503644114,-0.565531067085625,0.08712372808724696,0.07249874077951235],
#            [-4.566320867575685,-3.076432523152537,-3.416420659375115,0.09236761504058896,-0.6175312973654093,-0.0560629131570644,0.7586683722041374,-0.11351199005636824,-0.352655117100921,-0.04126496931893956,-0.03989285218277635],
#            [-14.48109180394827,12.440182825823111,12.990157120537656,-0.14375694933715452,0.23433554928175104,0.21896254845646104,0.17841312532828835,-0.58052639194109,0.20567903327524192,-0.03948357334602691,-0.050433105200546995],
#            [6.26244261280474,13.202477928549103,1.1436940945825806,0.024839307183396768,-0.4514648755705261,0.16510167267091966,-1.1176071140709016,0.33793945004822834,0.7447159244425623,0.059580131143298354,0.01449229039666186],
#            [-1.9164892997801468,-0.4431427399090932,-0.4605863579088921,-0.37635725826767324,0.2398749627762565,1.158743992677185,0.20544414030360744,-0.7883996830367399,-0.7733634692202546,0.09657521624227786,0.7476050107320553],
#            [-0.2360757713418323,-0.3313360135653239,1.0385596933894958,0.13524781756977805,-3.562556446528321,-0.16115488015783175,2.347355483805399,-0.6680560099135147,-0.3511913421114902,0.1669643066826365,0.4836564589771781],
#            [-1.4437732662739495,-2.3985437840725274,0.38492654369478285,0.1877072667074163,-0.651663967582786,-0.4756156586427628,-0.05784509001038865,0.0578475347986742,6.52729623256829,0.14602681245858765,-0.016338689083461005],
#            [-1.7508031283656098,-0.09145323379665507,3.9208800837582025,-0.3844878897193279,-7.422716948799513,-0.7604107246546888,-0.37370689098118975,-2.296203298580862,0.2308309500068768,-0.23005484445880148,0.010203942464568391],
#            [1.1566846964678574,-3.037003900329296,-2.1294774707124464,-0.03801290801006508,0.4976305160731233,0.16407204136906164,-0.6137159266446186,0.30953805245610116,9.193627286227404,0.23976261378509056,-0.05390184118004922],
#            [1.8565784120111062,-13.510994724468315,-2.685894924529882,-0.20006052722313883,-0.06644998811559152,1.1269718669874917,3.267166642327287,-1.3814271352356329,-0.15337725741553634,-0.051160058451078086,-0.04370915863691419],
#            [0.9412435604732422,4.574424716935082,1.4332137677712262,0.02513856539761784,-0.7239560874083719,-0.0913562135477945,1.7078603140459419,-0.3663008639469725,-15.854168108280554,-0.26911731738770683,0.09990088834273238],
#            [-3.8746115569626545,-0.8378965844966579,1.5588732910022471,0.12562815798234464,-1.592848821747362,-3.03687863773232,0.47630202160346563,-1.801802829012908,0.09252308233021544,-0.09871586749341965,-0.0181090779676772],
#            [-6.418968761670708,6.930883749023642,5.553605268586865,-0.049345186603294795,-0.6256646365665123,-0.13639761617880067,0.44561837122485376,0.020272890700494067,0.4078898491499211,-0.01988897444698315,-0.016728643929575345],
#            [0.09270987843280866,3.4655650536324183,1.820950995149172,-0.1369118912251331,-5.163338499858689,-0.3215247131716748,-4.217852049189625,-1.0955794427044727,0.3032268692337923,-0.18065368783215474,-0.029528019738451684],
#            [2.153578729837049,-7.436262858911848,-3.9609375595062306,0.028763897490402448,0.10672726373911329,0.09879139495817156,2.11371188669072,-0.4984513218103149,-15.787827089155712,-0.20363207321789592,-0.03534079086822781],
#            [2.1361737997065866,-4.286197807337593,13.142708600851428,4.2784649852749785,4.627699550149674,1.1363583978999763,6.498589838374282,8.066927982683323,-0.19654735941982052,1.018540552338867,-0.4588409706552829],
#            [0.7032550371239019,-0.2901022747155608,-7.462016919212748,-0.1715858273778244,-0.6403380603507004,-0.2315057320791917,0.29549019681665717,-0.2821849941976573,-0.3164323109228853,-0.04568232822760083,-0.017739024914339662],
#            [-0.019651380333950197,14.49437402043166,-15.27526735191413,-0.011238404283910354,1.3584821376538654,0.08791259216225052,0.8997511430506611,-0.5838936452200205,27.32497909749081,0.3532683234572485,-0.13285513466099924],
#            [0.4390693629094858,-1.9382716008772658,-11.491579941765588,-1.3977894514095914,-0.9595989241773397,-5.36398692374533,-2.1568142339493663,1.2763961935482155,-0.3927601718392768,-0.3115238671484034,-0.3825106212789839],
#            [-1.1059326936978626,-15.2899371372757,2.6675269871891536,-0.07628600541949222,-0.3093427424001957,0.5581673475565155,0.21894498170812438,-0.0482662880244124,0.1506558480650271,-0.04287621102649481,-0.1149818554746414],
#            [9.449056888986709,-2.4787852570361046,-10.020801766644713,0.5232287681290203,1.1819279448370945,-0.7366844314836055,5.075105204685008,-2.377695339356392,-0.6834969542354266,-0.20084579974221586,-0.07410132558807277],
#            [4.655350965761082,0.5177947246406782,-24.214877584654555,-0.5208530888686851,-3.36932815707513,1.5727550098108012,10.163332757752563,-1.5059960726550974,0.7486454442085662,0.2508753789130102,-0.37917940704286235],
#            [10.183695774739693,5.272618797591144,5.681267912038622,2.3504192877400945,2.932851599321357,1.5577693180356482,2.6282520387092787,2.0802259301667894,4.324221873259823,1.835073737302835,0.9663776661385997],
#            [-2.4059204573312356,4.548206814317318,-4.0840881352185265,0.2899995969574744,9.833719410881516,1.0114368122478568,11.454819964694414,1.5567103379569327,0.4187119789430489,0.2218091006694173,-0.08718660902714066],
#            [-1.9737693079752872,16.312976983652334,-4.569229782646329,-0.12256817886388172,0.578508122602351,0.3446287198912752,-0.9166050151378703,-0.5040215237436768,22.042095858444107,0.2756536615395214,-0.09737180686496964],
#            [2.074808517981278,1.5467729419054297,-0.6304153532288111,-0.0568056921948626,-9.92175048823184,-12.885547131606762,28.487760777982757,15.528998421553036,0.6395479848047445,15.874543088284272,-9.790417404800756],
#            [0.8678828020246255,0.8650443968647128,-1.5056227274178535,0.015667536419619807,0.6015314291555138,-0.19069413376955474,-0.39830184717025785,-0.2092291921558826,0.34258319473178345,-0.6240695103481999,-0.3909336873649744],
#            [-1.6155106726137212,-0.44837300792331763,0.49284694096362097,-0.06997486238431636,-0.9122058174014964,-1.785549583090265,24.85158286321173,3.026752471766297,0.034146142396342255,-0.9456883275942712,-0.30589724695532083],
#            [26.240681730985305,46.92254392675835,-40.79504599892594,5.259240314881352,10.874486580374725,7.78982165708792,-82.0100329029983,27.4371669834088,-0.4936172495561611,3.6654301662816704,0.3625852741115053]
#        ]
#    },
#    "inbias": {
#        "DIMENSION": [11],
#        "VALUES": [-233.29999999999998,0.1480714482505236,0.15,0.6649641577426897,0.14893431433792645,0.40663563696565996,0.5409734979847961,0.0625,0.4990720446148904,0.49970066919085177,0.5003356513136079]
#    },
#    "inweights": {
#        "DIMENSION": [11],
#        "VALUES": [0.11666666666666665,0.0019285517494763975,0.03043478260869565,0.003136200716225597,0.015044974030878702,0.012143641835445628,0.010782501537187402,0.008749999999999999,0.05447825667710807,0.0542413353534873,0.13032471893147132]
#    },
#    "outbias": {
#        "DIMENSION": [1],
#        "START_COLUMN": 1
#    },
#    "outweight": {
#        "DIMENSION": [1],
#        "START_COLUMN": 2
#    },
#    "two_layers": {
#        "DIMENSION": [1],
#        "START_COLUMN": 3
#    }
#}
0.5250330296523738 1.5131642857142857 6.023571428571429 True
