#{
#    "Notes": "Converted from LANLstar_OPQuiet.net",
#    "hhbias": {
#        "DIMENSION": [1],
#        "START_COLUMN": 0
#    },
#    "hhweights": {
#        "DIMENSION": [1],
#        "START_COLUMN": 1
#    },
#    "hobias": {
#        "DIMENSION": [1],
#        "START_COLUMN": 0
#    },
#    "howeights": {
#        "DIMENSION": [20],
#        "VALUES": [-0.6542006954740464,-0.8266409377693626,-0.9423576220277794,6.088567109696403,1.6297246607300895,-1.0690594908145938,-0.8288319458647962,-0.7436890256816919,-6.1217365624284525,0.7635852089377078,-0.501306101876704,1.8884817405350105,1.7994642815440078,-0.5586586053878636,1.7251231740004207,-1.3572434928557282,1.359039869282823,-0.7795546841030119,-2.0085584010596755,-1.46086241968313]
#    },
#    "ihbias": {
#        "DIMENSION": [20],
#        "VALUES": [3.0814723726765973,-6.3412548494015955,1.1163731939568682,-4.093002407314744,5.625890397872084,0.5790241878930389,0.6321475746065818,1.1066330173695542,-16.514011847465866,1.7578495526287399,0.11665280971950298,-0.6900526349854131,-0.07834900173323396,2.4868273467188904,-0.446295485511962,0.572621749525651,-1.8496814914580602,2.5331672125356763,0.490607548899071,0.9894417115231929]
#    },
#    "ihweights": {
#        "DIMENSION": [20],
#        "VALUES": [[-0.5487171759239531,-0.012531420358061167,-2.000844979169671,0.5515199906440905,-0.31013025002480843,-3.510064091929662,1.585913885813338,0.20878107913285274,0.5156911946939462,1.0722913916174046,-0.025566035910210033,-1.8146697789656108,0.03416344104368884],
#            [0.8660863862001686,-0.2270869134500619,4.7292419074512555,2.34750894132002,0.8262307740410634,6.301722509897497,0.7450702462081934,-0.055850184789600146,0.0582783712818181,-0.10238580825714602,0.18665483050915807,-0.10364440495573148,0.009697370781157037],
#            [0.2557585457502763,-0.08267511680858898,0.2657457524288758,-0.016051706990702328,-0.4360874743071356,0.037864240101123964,-0.4821764804693367,-0.292049604021107,-0.16105924761824164,-0.4861943965614881,0.012924628096643926,-3.4218071688723444,-0.053229332628186805],
#            [-6.04677057276599,1.1998408457905634,17.482243213743025,7.854656093020275,-100.0,0.6602874776217842,-0.023856086964806136,0.6466487990163359,0.05923963981447113,1.2152980721274889,-0.24048224122379644,-0.057481995617397676,0.215292798544931],
#            [-1.3289345082960498,0.5133270377706523,-4.02387075145106,-1.9902038165471092,-0.1877763698860159,-5.225803225738122,0.4888640552306606,0.5646558180128208,0.6329735247042534,1.3874757758015936,-0.08136717127734375,0.5211397872110957,0.05785590804763843],
#            [0.017848918278057894,0.046155840341439124,-0.22259766632319136,0.5452711394608475,-0.12502738649456,-1.1746487920567035,0.5265544683212302,-0.36020603911557497,-0.2910269076937802,0.013925623102722023,-0.09031457436399139,-1.1918393800503015,0.0700598039609433],
#            [-0.4541771280477236,0.3510346345733718,-2.1701299565618877,1.2029033435682086,1.1373313926950241,-1.5644907525361966,-0.04619827092049639,0.5622837264775055,0.5415786220527612,0.7287708755404083,0.01812826800423577,0.42993562778668004,0.10870006992263188],
#            [-1.0856374476215873,0.15223712733325165,-1.731109066597409,-1.001004225120422,0.6778703776844863,-1.503138550726873,1.1538877374522227,0.3528930767012467,0.40730432917900705,0.6338450105274768,0.17389392542655746,1.7179875424462663,0.024988220906640584],
#            [-5.766434174778942,1.1639420241804326,17.705076762894407,8.073862355578502,-15.465484479511812,-0.36085077046885766,-0.1067641678228146,0.6295258407029973,-0.015152076283393446,1.32149273600954,-0.24170196531122257,-0.022287499756182237,0.19998611886200643],
#            [-0.37908731757296205,-0.07616974454409162,-3.1406080429944256,-1.7378422028450407,-0.930887976378739,12.12516622633711,-1.3281225679006374,-0.2977854514226661,-0.6541795104225829,-0.4216744543019211,-0.017725527622294717,-0.45837947808098206,-0.035942877137088776],
#            [0.34814317875033585,0.2803460130186632,-1.5180440756115527,-0.862164411526321,2.170562078295986,0.08413562840771201,-0.08601146111119952,0.04862170624376704,0.034489150155633745,-0.6479805018934383,-0.4597055122969184,1.3013299147303812,-0.038449795146621356],
#            [0.012292209281202225,0.1445420251180598,-0.16821414884071145,0.12421688991223023,0.03155685628091378,1.38005678307637,-0.21920366633668187,-0.16088825850532776,-0.17739658803305255,-0.3730377020492164,-0.1187362680289907,1.2623144845123428,-0.10162063998333534],
#            [-0.07969221589116343,0.11839087528202287,0.376801503581966,-0.646291990164689,0.062302478081253436,0.8915618009926893,0.6075295982317085,-0.1748126451596517,0.2969267321364783,-0.4228907644014235,0.02617425760632825,0.5684598655584062,0.06344815362134928],
#            [-0.42325117275317486,0.26773462947015686,-1.7031358288775733,-1.050361605807227,-1.087916827223915,-4.723752698444312,0.33265476179981074,0.24715856191584892,0.4221774393579474,1.002763843060431,-0.17464478670269898,3.8905147306258763,0.06859446461814415],
#            [-0.09042779146236793,-0.11933800467443291,0.00595845919418983,1.011283902036024,0.5748825489446818,0.8237356534099497,0.263774665581382,0.08203009140439549,-0.302646260732697,0.27342921673129483,0.1662044042372046,-0.2153377549903522,0.003517334901662317],
#            [-0.014948624714797765,-0.023848212626976086,0.7882075736162952,-0.929424631812927,-0.3295131856281277,-1.3432534528466455,0.07795752262839148,-0.09469598161681969,-0.5700036202739348,-0.41737049801288784,0.12133707079773799,0.7655692890022346,-0.09239240560470185],
#            [0.5794735256047332,-0.2813977346669013,0.20396754700029887,1.5687533522888548,-0.8604233844134535,2.028267417835043,-0.10213393662773379,-0.36605902624556097,-0.5523081164333311,-0.8068341154042289,0.02677049805456645,0.1365931430924231,-0.04987375923164787],
#            [-0.539372619732298,0.7121879490386445,-1.3774976952991629,-1.9384189606264417,-0.8426126975114017,-1.9178161129834341,1.014498913334689,0.5994015209445297,0.6556474356303963,1.0081752234908945,-0.3067519228266433,-0.6690831913838321,0.0066985050632434396],
#            [0.07876705104905248,-0.2499698098819806,-0.1588557305512101,0.5596106410390552,-0.2078152914280772,-1.2760700493716963,-0.9422687754249963,-0.4025721542919793,-0.285444401438041,-0.6253701667056778,0.16491979411667113,1.1816764112889788,-0.01702981700629441],
#            [-0.1045500451641795,0.04169233940719797,-0.7060470378584276,0.25419637113881977,-0.33755632924089957,-1.451524536557469,0.10428500088982295,-0.07775532308519399,-0.12925565044078907,-0.49245230191097555,-0.09179689224904557,1.3379046409307158,-0.06269911073336168]
#        ]
#    },
#    "inbias": {
#        "DIMENSION": [13],
#        "VALUES": [-466.04999999999995,0.1480821917808219,0.14998873724342238,0.7505468820386326,0.14927428665195033,-0.06282846364384917,0.5847692789579072,0.06335176602749294,0.14952099628759308,0.14882274467170017,0.08098000882996469,0.5000986971171353,0.49999526969286756]
#    },
#    "inweights": {
#        "DIMENSION": [13],
#        "VALUES": [0.2333333333333333,0.0019178082191780822,0.030435322490476594,0.0016329473919920916,0.007257133372356914,0.0008298947456181897,0.009192781456448888,0.07866504335052295,1.5733592922696807e-05,0.0077908672199675415,0.0668754854946255,0.003927709925122284,0.00194448743950611]
#    },
#    "outbias": {
#        "DIMENSION": [1],
#        "START_COLUMN": 1
#    },
#    "outweight": {
#        "DIMENSION": [1],
#        "START_COLUMN": 2
#    },
#    "two_layers": {
#        "DIMENSION": [1],
#        "START_COLUMN": 3
#    }
#}
0.20225028506794732 -0.8933165811991708 13.308565766131704 False
