#{
#    "Notes": "Converted from LANLstar_T01QUIET.net",
#    "hhbias": {
#        "DIMENSION": [1],
#        "START_COLUMN": 0
#    },
#    "hhweights": {
#        "DIMENSION": [1],
#        "START_COLUMN": 1
#    },
#    "hobias": {
#        "DIMENSION": [1],
#        "START_COLUMN": 0
#    },
#    "howeights": {
#        "DIMENSION": [20],
#        "VALUES": [-0.4638268674429495,-0.5630830788552098,0.7017423162580417,-0.367819316023331,0.7783982714231039,2.472158003417566,-0.6251170402641295,-0.020814855119139657,-0.6300709523237976,-0.19940069469910346,-0.47276916646322154,0.7937992116579815,-2.2696729904619657,0.5935864166756556,-0.4713539040353273,-0.28878973585526296,-0.48201477120131103,-0.634213550080473,-0.601236502207945,-0.8927099433782152]
#    },
#    "ihbias": {
#        "DIMENSION": [20],
#        "VALUES": [1.2359748485453967,0.45684372035540605,-1.0406377333391994,1.2334279667116588,-0.720622645431092,-9.399490973195968,-0.009427837744575856,-25.011849723274015,-0.35970841185867547,0.4559092420127665,0.7538279728178643,0.0029116758553929417,-5.038512208403639,0.24427050522930968,0.9097120711407216,0.3172013713784364,10.576363816217597,2.3208956209665326,0.8440787031957055,-5.800406005149047]
#    },
#    "ihweights": {
#        "DIMENSION": [20],
#        "VALUES": [[0.016365029535005137,0.16744508855201728,-3.371422553601729,3.550323219796788,0.6108179018015631,-2.4578236826448534,0.0673473746622185,0.2462072381260687,-0.0802043965622151,0.020880327554543634,-0.9449527183587811,0.8250771870590581,0.08870987907635956,0.07147151518092301,0.03728108239969712],
#            [-0.012476601043148324,0.012390913087765397,-0.9624181053109723,-2.2053739582563967,-0.7277178925667238,1.815243605606503,0.33662546024635803,-0.09375486758170797,-0.5558577379507246,-0.009818915897551968,0.4086734319920609,-0.9265741629260902,-0.006292449316056607,-0.06395418133335197,-0.051295044552815056],
#            [-0.020485922109886954,-0.07309428883252328,-1.5073868167377047,-0.5807165100530484,-0.22980987717113344,16.221911890718925,-0.35449730905780114,-0.27843052020266057,-0.35881354190341685,-0.029479190476154698,-0.09653665430621661,0.13458758354330988,-0.06746629089760672,-0.040494670195528014,0.013585971796287639],
#            [-0.002877138058526031,-0.09408752637485834,4.388056405737835,-2.2107432808818657,-0.14795948517149965,-2.7392144483687204,0.38588770148013324,0.19594741363189858,0.02072861268687891,0.06755351701853075,-0.11323547612073358,-1.4000668913308392,0.01584507805995725,0.06889042847902226,0.0708689032260141],
#            [0.013825483902005687,0.04257053944556129,0.15912065356772878,-0.5438186861272641,0.6227111926985509,1.7872370026391742,0.3546894545699197,-0.012218895793312541,-0.8660609584515884,0.037237945214845136,1.0901453597416528,0.22275691772257822,-0.009570228550226169,0.005064753690557423,0.07307720478582984],
#            [-0.009188833458786858,-0.1558987025520235,3.0189355560300757,1.5045497892466506,-0.3398848426166676,4.661430636408595,-0.9047682489342174,-0.24199729306505427,0.21343488760260856,0.04145173089055718,-0.0185130955303518,2.077671951300297,0.035065186996502545,0.06403757115271753,0.0402007682228611],
#            [-0.02600727529308365,-0.11499697477499521,2.6120089178981654,1.332672163603754,0.9251010596649539,-5.1994510131241976,-0.036531076900407244,-0.39995659389431726,-1.0830532470214116,-0.04516473263719643,0.028406543197364492,0.570525351354273,-0.043347464999789496,-0.02012972455410889,0.0742779566518558],
#            [0.11258477178717437,0.9781724281889889,22.323922192314114,1.0669002309422924,100.0,-3.5980265948665777,0.2619670838927281,-1.9280996305830653,-0.7440144464976849,0.21651455606125472,5.575546091048007,0.5886404748602821,0.07592941286101587,-0.20534391487417894,-0.16890904351320726],
#            [0.018889843249557333,0.12212875516729896,1.0846306125904712,0.8113412145519364,-0.05815354030818175,-4.2972886812427555,0.05600082220093611,-0.30516503809584616,0.7552577141727561,0.013020873440735957,0.6935612657848883,1.5736290868442262,0.1022199008440071,0.024119628947416472,-0.011443999660322238],
#            [0.08818732790219258,0.2673547949903336,-3.8566240358379376,1.243071685673178,-0.7199764385403962,-8.432022673999773,1.2619266186355174,0.9204191036927983,1.1990194479178218,0.07161566835402315,-1.1218524091938342,1.4143576695320568,0.2952464371075115,0.2104600273865163,0.020618655503811426],
#            [0.006035809453335971,-0.1862269073379972,0.7246113644237373,-0.6085331438244379,-0.8108989428333528,-2.552300401610604,-0.5391588012139901,-0.12779506617875735,0.7495498847895814,-0.07595915062628963,0.9207963825502821,-0.07892666889226826,-0.07538184235370124,-0.02504334025687297,-2.5976195781866837e-05],
#            [0.0334908443092739,-0.2817355178706957,2.8546589493343157,0.6236727538039941,-0.10063737140108585,3.3043723855663574,-0.32730598060312355,0.2681118016764066,-0.03871193510110898,0.02694092644101437,0.1069810147209942,-2.551310890115842,-0.08832450568511671,0.014618052371109923,0.085811812259104],
#            [-0.09653875686424805,-0.39661795687175133,-2.550232462713235,-0.08195572759262086,-53.768898536426505,13.224945102209773,-1.4479849652292658,0.3134425187371631,-1.3811500208430327,0.012830519867427961,1.9930096530170693,0.8166304092053976,-0.059769031750221906,0.005319341457791897,0.011197392078984937],
#            [0.007186475888438048,0.14417665172515734,-0.31828558891891323,0.857893919077598,0.04097805009491624,3.2112131307665908,0.4086098160494601,0.9089747808069428,-0.31197892867255683,-0.0029185099823577734,-0.9754899977025843,-0.8754551197556821,0.19502607167225766,0.12082445225791638,-0.003340345359195779],
#            [0.02115364126053781,0.07434890674974434,-1.03478879998335,0.4355058492716301,-0.23445682806887808,-1.1485052358898735,1.172750849389799,0.6823210746760577,-0.8159916204198385,0.008817981369180387,-0.13709847059487218,-0.7812775809187289,-0.06040217095969507,-0.01942085275059309,-0.06958289842933509],
#            [-0.051691196676162614,0.1345261420759762,0.17219533062517425,-0.5124135482277514,5.055939734333961,-1.0457538531484325,-0.5601737761468085,0.13040919723086064,-1.8158463415951995,0.020886638732305382,-0.20333891206577118,-0.22886790703698237,-0.051768053744757785,-0.069241318989843,-0.053440351708959624],
#            [-0.04180314112504783,-0.1756246926116643,3.9093713410202047,0.7692463869504771,-0.5008121356685316,-10.572932193976484,0.43562012962285396,0.9065774486218376,0.0173843275861939,-0.02441841447542646,0.9865059189294971,-4.888700498878973,0.00042191316269405685,0.007079781265434941,0.12436005659031842],
#            [0.015864531359054294,0.12756280275405033,-0.6735521192050905,-0.32728762848187476,-1.2858322584513635,-0.5282874410227766,-0.1197748581589427,0.8639685775908786,0.09232520935437512,0.07720186294144453,-0.7351604364604469,-1.6125586963121965,0.331012922959976,0.14195069409709285,0.05365479487775954],
#            [0.029952429249826124,-0.42257478851470065,2.1424831684039485,0.6377757016610893,0.23605275213064197,1.3213880323108198,-0.8234577435663344,-0.08245298030880811,-0.37408559541647113,0.01906212536010578,0.6066538478761703,-2.7000168235507083,-0.33522195877462513,-0.037225275239206206,0.1516898197114306],
#            [-0.00887864552862513,-0.23785370067267864,6.094208825963801,2.7956402473566757,-15.0159579821876,2.1248690483139105,-0.6877303815412285,0.8852962335523021,-0.3751456476015468,0.1238198820297767,-6.160693076941176,-0.32961285384529376,-0.06844507590190622,-0.007380661115929155,0.1207401015737242]
#        ]
#    },
#    "inbias": {
#        "DIMENSION": [15],
#        "VALUES": [-279.57,0.1480821917808219,0.14998873724342238,0.65,0.07217894365999271,0.5,0.5,0.15,0.15,0.06333299444000902,0.149550608045071,0.14884223331020827,0.0809401685814236,0.5028097290700834,0.49999526969286756]
#    },
#    "inweights": {
#        "DIMENSION": [15],
#        "VALUES": [0.13999999999999999,0.0019178082191780822,0.030435322490476594,0.01,0.15564211268001457,0.06999999999999999,0.06999999999999999,0.0744969597696927,0.07002075624189777,0.07866690032574263,1.472093305565939e-05,0.007790650679294323,0.0669140878751568,0.0039581246258812396,0.00194448743950611]
#    },
#    "outbias": {
#        "DIMENSION": [1],
#        "START_COLUMN": 1
#    },
#    "outweight": {
#        "DIMENSION": [1],
#        "START_COLUMN": 2
#    },
#    "two_layers": {
#        "DIMENSION": [1],
#        "START_COLUMN": 3
#    }
#}
0.3933971463082029 -0.9926198812953784 13.968773947672101 False
