#{
#    "Notes": "Converted from LANLstar_T89.net",
#    "hhbias": {
#        "DIMENSION": [1],
#        "START_COLUMN": 0
#    },
#    "hhweights": {
#        "DIMENSION": [1],
#        "START_COLUMN": 1
#    },
#    "hobias": {
#        "DIMENSION": [1],
#        "START_COLUMN": 0
#    },
#    "howeights": {
#        "DIMENSION": [20],
#        "VALUES": [1.1562380191026307,1.218257254840929,-1.0215471608143676,0.5876192313060519,-1.7071167263852958,0.8763968142665788,-0.2764825016924683,-1.978830729922861,-1.12315867073576,1.3329032387376145,-0.674163100012489,0.6129844759282083,-0.9819670956553009,-1.2258364980054846,2.3201022012527575,1.081350256448621,1.631363987613817,-2.210393288641773,-2.292691986442568,-0.34712120710168276]
#    },
#    "ihbias": {
#        "DIMENSION": [20],
#        "VALUES": [0.02355035594966032,-0.2947164740789655,0.2751488105156483,1.0852465917235485,-0.04121140810387314,-0.2269713044965795,3.6325173073577375,0.6813992754652167,0.5223708414027894,-0.650554650376989,1.8380178607573034,0.7130565170184231,-0.6580974337900354,-0.15509675807180073,-0.40532895059778734,-1.3985106127384894,0.3750472734671616,-0.17763921912739244,0.05691346012148055,-0.5701885260741621]
#    },
#    "ihweights": {
#        "DIMENSION": [20],
#        "VALUES": [[-0.12652143960298015,-0.11800225246397084,0.08816659833623168,2.460755209067444,-1.3385672823012218,-5.426553892411085,-0.15751559108047888,-0.25689949886828045,-1.157582984140984,0.5132883647811153,-0.06548498846039998,-0.0660435525558388,0.0335938055059101],
#            [0.3659870602181795,-0.4873288427065697,-0.12728414348626255,-0.28934368834554114,0.1184296896861734,0.1839202402736307,-0.24871790163377133,0.47957421895235997,1.6054793096660427,-0.2341761367019936,0.2062211322683709,0.4003547983193748,-0.1347679642788696],
#            [0.12192426608072399,-0.37068875900084486,0.492931660593067,0.5028417152328702,2.12047548244376,-1.2066330159865224,0.06317300341791623,-0.6108219000121673,0.90742905909271,2.3399802131371694,-0.010781700505720986,-0.11021427725033399,-0.13200224797264423],
#            [-0.08593794188690615,0.004970373033822911,3.4591131242567617,2.4681996438080125,0.32201493494964534,-7.4473019431369565,0.24157686124466413,0.14133356758902665,0.4400277994380236,2.9617705392082505,-0.08444071533584058,-0.0518953696792264,0.04771658285203072],
#            [-0.021655987700415668,-0.06723596419577844,0.3063450713627905,1.0716712359212486,0.04807129313633438,-1.486308283505838,-0.12537542686431224,-0.09950710429450389,0.4423850245165826,-0.8305508706297787,-0.14913968721096585,-0.31731602430696493,-0.12553534458733653],
#            [0.05065772272734124,-0.4078490903153058,-0.2322886504277649,0.5389712656236286,-0.02132684549685713,0.955022035099585,0.20094750207684456,0.11006496364797916,-1.6866630686639046,-4.478334316726037,-0.38985810097413376,-0.023619590939222807,-0.04222041535947917],
#            [0.01819465892868306,0.34357873944697315,2.143736721198135,1.0798697645082473,0.8154531133656069,-8.122776688318984,0.022061782807184224,0.8006673559661953,3.6018415061596607,-7.0593717280154,-0.09295344791885464,0.22683204010757024,0.0992310462540721],
#            [-0.014001233345526621,0.04026849025487773,-1.1840547242642585,0.004693398200448812,-0.5303327410550532,-8.862598769127741,-0.17861218969575907,0.039288893095788126,0.5014498407536584,0.9791045780120321,0.026843617366188077,0.027933841902768312,0.029018099705606783],
#            [-0.018853289399800924,1.227739436520896,-0.15578678320141331,-0.15267528047460988,-0.4746676473253229,-1.1499933067984127,-0.41836749289904107,0.40029234749858184,0.9585407203527718,2.3922789092431533,-0.395898728087241,0.011281243368608914,-0.07895940516371092],
#            [-0.3109308241172495,0.054515018960014046,-0.20342310589541476,0.28939876434418854,0.17970661437086702,0.8400190236467162,-0.549707878009714,0.23336092423287808,1.012957224090147,0.48189623048531516,0.33339615616118135,-0.04678288864378972,-0.12724618375008365],
#            [-0.01690906928001931,0.4661137654799757,-2.2268142533232975,-0.81618548137302,0.013288521307404343,-1.2434752005056549,0.6204007372752451,0.41109246213903716,-1.7704576514443844,-5.991679972395908,-0.16278445077312056,0.16420128602721631,0.21166179583398184],
#            [-0.1260676626837088,-0.4405749568390199,5.9198460592408155,2.7127351746312236,-100.0,10.775620142127075,0.11551317267571813,0.47707528561829843,1.8316105795421627,-5.687840350020977,-0.08766354388515134,-0.003553525634511591,0.07906449644869495],
#            [-0.01180395874467287,-1.1487556793388043,0.4339370556665113,0.14639404366810777,-0.1817217108801482,0.8474415042373623,-0.09325243795204537,0.05872535992997785,0.5884534633700266,2.6153361331051865,0.4381347889788141,-0.42117079717364747,-0.16311110052005942],
#            [-0.06874322041749169,-0.5468230065551386,0.3184987486688457,0.06181498040052421,0.08124411211388716,-0.20976285537213363,-0.29980300967070195,0.3719725262585015,0.041740033849119604,0.7663719576506095,-0.22757538062912622,0.4271295691189404,0.08976385371033305],
#            [-0.08021863690367734,0.16972376328402303,0.1306265508561213,0.29994576683980295,0.03642524919577573,1.064351355656748,-0.2293492972481749,0.42665525118701225,-0.7050891189836066,1.3884710021678788,0.019526643894915832,0.11642342872761663,0.25615697612630095],
#            [-0.06009607627540649,1.4747630737498967,-0.0064035545996823425,0.6356353479102267,0.7536636651907154,1.3917033801648735,-0.2830736696163836,-0.5388073729415055,-2.1353115492671897,-2.868590777695682,0.08031645898401489,-0.09044280436651952,0.024141152469789113],
#            [0.04349041936004771,-0.19904502513171676,-0.10898913595852333,-0.7006391151254581,0.26122949718303806,1.245123845501174,0.05707376521643669,0.022045189890928362,0.6442881770921944,0.4603485942062002,-0.19876707338234134,-0.3529093735639451,-0.04238553251719372],
#            [-0.05043748044814433,-0.09516836701323265,1.3232634848897673,1.1475124049749386,-0.1518817777722426,-2.6490345264303583,-0.19949269031442363,-0.1335131645636981,-1.5401967690887162,-3.433616909660137,-0.06843810651818688,0.02910664483214851,0.04983117120103571],
#            [-0.0332597027678139,0.5896877419575273,-0.3148547374824272,-0.13204757147159493,-0.08833860654469124,-0.912208330580252,-0.1946001182287474,0.3265179866420769,-0.19505463185078187,1.5918008333121882,0.19311609103413338,0.03848461918622778,0.15572156575404097],
#            [-0.0031007835266721787,-0.16178327445674548,1.0209338925380431,0.11757479341904789,0.43530692972951124,-0.5468844996957134,-0.4471807633994342,0.36235415719615716,-2.824948483795782,-0.48133941061278845,1.1494508691298433,0.44220056332667546,0.02593676783611785]
#        ]
#    },
#    "inbias": {
#        "DIMENSION": [13],
#        "VALUES": [-466.04999999999995,0.1480821917808219,0.14998873724342238,0.15,0.14977021311584576,0.5261764780499503,0.5044709557724112,0.06330558528034468,0.14957639904592102,0.14534669379283222,0.08090509691359395,0.5007491595100682,0.49999526969286756]
#    },
#    "inweights": {
#        "DIMENSION": [13],
#        "VALUES": [0.2333333333333333,0.0019178082191780822,0.030435322490476594,0.07777777777777778,0.010085061952140983,0.008108648446189345,0.007373200836822768,0.07866959097677033,1.390635784576259e-05,0.007829490051272063,0.06694806983854819,0.003921384201938253,0.00194448743950611]
#    },
#    "outbias": {
#        "DIMENSION": [1],
#        "START_COLUMN": 1
#    },
#    "outweight": {
#        "DIMENSION": [1],
#        "START_COLUMN": 2
#    },
#    "two_layers": {
#        "DIMENSION": [1],
#        "START_COLUMN": 3
#    }
#}
0.23738548701839618 -0.7732729530190117 12.502537681877996 False
