#{
#    "Notes": "Converted from LANLstar_T96.net",
#    "hhbias": {
#        "DIMENSION": [1],
#        "START_COLUMN": 0
#    },
#    "hhweights": {
#        "DIMENSION": [1],
#        "START_COLUMN": 1
#    },
#    "hobias": {
#        "DIMENSION": [1],
#        "START_COLUMN": 0
#    },
#    "howeights": {
#        "DIMENSION": [20],
#        "VALUES": [-1.5474938480851785,-1.6523600849668127,1.4084882895929807,1.455924363630985,-0.8121814793187083,-0.3657466638242552,2.236381292890904,-0.8092044430690476,-0.6824746733342064,-1.6985170431364267,-0.6512164523308941,1.7746146995637737,-2.2717634722986784,1.0386410582332675,-1.5966625707669295,1.4259535610274554,-0.3605608458424117,-0.9750019534827453,-0.28838601970297306,0.6737318163184602]
#    },
#    "ihbias": {
#        "DIMENSION": [20],
#        "VALUES": [-0.3909288413657981,-7.760304279395813,-0.36677273669130156,5.1381479757527675,-0.11922558662326917,-3.2414533365961944,-0.46772260700943735,0.4795922069912392,2.4921647695044378,9.58380470465982,-2.074384802825765,-10.566667646351462,-0.15815190788417785,-1.7808345000403076,-0.12769881420622553,-0.7083540597403017,-1.3793905573936593,-4.936658403823447,2.6730949673419335,-4.4434725239646]
#    },
#    "ihweights": {
#        "DIMENSION": [20],
#        "VALUES": [[0.0028687918648328844,-0.1727368774125326,0.7856544082810186,0.20912159899355512,-0.006163051454267651,-2.7858370229501825,-0.3271717533969765,-0.06876553540518582,0.5773029541582976,0.3237419125477484,0.007867975779168394,-0.021881606541118537,0.10593574181793769],
#            [0.04512845218600136,-0.08471464055463164,3.400338602224372,1.754671953380596,0.9335031435364284,5.1539340522027315,1.3946908775758404,-5.544963108818661,1.5442962912129286,-0.34577805397771083,-0.08064726644815756,-0.14691779046471917,-0.12939586096068356],
#            [0.15025738532562546,0.26811374667616267,-1.0253473901861487,0.04944668788821458,-0.1640512247626956,1.933323941023677,-0.29703381207990154,0.9327481033139415,0.5757941304927519,0.1272826914600482,0.1365234827500122,0.16452441370575713,0.16170925600096653],
#            [0.028234208939963416,0.10806576964658159,-1.9686615576071063,-1.2730608868722657,-0.8172274578772966,-5.4158964251806445,-0.7328105665663579,0.3732376668856583,14.793313322336543,1.4889142895744052,-0.048869215314398064,-0.014728483737244905,0.03463839003053563],
#            [-0.07534847768346067,-0.3807943452592856,1.3061576238809551,0.03204924527558835,-0.13827569931711664,-2.628811933696382,-0.15059458874070905,0.3404367875105026,0.4952819733727783,-0.4390039511592565,0.002660282121349713,-0.14417151726765753,-0.02621284974619224],
#            [0.3952243451645289,1.8089777473587698,-2.2573046197139304,1.544966954561031,1.7450702987911875,0.6248122926899876,1.6426748227214076,1.2251413913854843,-1.799088888410669,3.709250377643373,0.08402218940565974,0.6992072414964118,0.29450580332997167],
#            [-0.05431830450341105,0.25719576039454817,-0.5697615614817167,-0.6047162168669142,-0.320882742875259,0.4934254141663339,0.09010462875163584,-0.6461892748446559,-0.54848144480357,1.3917352210139833,-0.12829883437088332,-0.06574802534500074,-0.23857093101113208],
#            [-0.02784143950669485,-0.27437393277335637,0.3049918846071964,0.32043427069197017,0.002404329635300869,-0.6677905766913361,-1.1255588612184158,2.7522584136862718,0.3860301304600966,-0.948069647236876,-0.24283596433609334,-0.4465998316226018,-0.43929711047993375],
#            [0.0120885011736114,0.13214184150577715,-0.5980232004221404,-0.3367627994874884,-0.32176517964507595,-0.9304551067392536,1.0809019443589039,-4.582925782095999,-0.7989067575944283,-0.21456155863983384,0.05490073345725278,0.22164782877988495,0.18255119945362538],
#            [0.019238559447195592,0.25393630956893865,-0.2469204967435175,-0.07640552853672881,-0.13815993181537706,-5.740754716789906,-0.7591932384921719,0.3318042749980388,10.38733965110221,-6.482010214452827,-0.13787734917368377,-0.05755132613373959,0.021087407854798183],
#            [-0.12562460025886418,-0.28951651250920085,-3.3489408801105367,-3.938221382254486,-1.5405496750754457,7.818246588478194,0.5783459577465929,-0.22524627171617712,2.9960091682691385,-0.7181422054239106,-0.0652531724672075,-0.16927451313604042,-0.1364304662329117],
#            [0.00028519994550493756,-0.07468909802198281,5.178443134712545,2.4789227597852412,1.5844382123082985,6.0362408486296415,1.855717161299374,-2.7363025946587762,1.9203038337671507,-1.2639920500375081,-0.16291389707419038,-0.06530809661723884,-0.09449797730017875],
#            [0.05298800733866067,0.2667875678583902,-2.115414354992351,-0.3335719565067857,-0.27323693975246605,-4.36380248558203,0.13683423553977556,-0.11996559809393818,-1.0810045376154482,2.4622712111074367,0.027143476069545387,0.08675546914032435,0.029932842430329],
#            [-0.06777782737459256,-0.9817477860852998,0.10604870422358845,0.3049429547058005,0.4640483526488426,1.796459081899178,-0.9500974829412291,-0.07714538629060722,1.7495671253073644,1.3264537990221277,-0.04006274977542593,-0.16333703748623393,-0.11780481294167287],
#            [-0.06264986103172315,-0.10776624545501441,0.27902028864133976,0.1178105094793219,0.021833865513329127,-1.503005138960944,-0.13291676385529405,-0.1540610680241275,0.2830342479742982,-0.07712321794633906,-0.08365067778578127,-0.1072051492896263,-0.2517826317435199],
#            [-0.0008038304805783011,-0.0658177730042223,0.10188446101047868,0.5311544526199645,0.23154968883453653,-0.06113179168476421,0.30067160745587557,-0.7436945533289279,-1.5231097919842673,0.8800158376859839,-0.017704904618941184,-0.1152796843148953,0.039906277246646235],
#            [-0.15027678197807262,-0.5820823112347596,0.23950692063513368,-0.3904970895420019,-0.4708332072437024,5.502794451586784,-7.2448378017379325,-1.6420065019878498,0.3826951603296745,0.5676065128055332,-0.028703507167522062,-0.1679979128475796,-0.03503910962518797],
#            [0.003051523621345766,-0.0031242084895481055,0.855842910023523,0.4011185431576653,0.16091331519442417,6.932711296971676,0.2994106612190759,-0.18973911699428866,0.9258902839699098,1.5608017163648795,0.016089458114052504,-0.006028658350420409,0.01137347386548155],
#            [0.023232876740273443,-0.1793499102728925,2.9643507481418703,-0.8853645250848998,3.8747746755210164,-3.9748164714977183,-0.8755470074869456,-0.37658750935606106,-2.021693058239589,-1.1548037580720998,0.04039580142083629,0.03679508850814939,-0.02356231559927781],
#            [-0.06688960686531402,-0.1172116059338317,1.124125398564807,-3.066903043689212,0.001262366010871223,6.861648574854592,0.9050886440543632,0.14253746319435942,3.1599738794089847,-0.8579654550116648,-0.048635687913565755,-0.1044773047775172,-0.011062172196378358]
#        ]
#    },
#    "inbias": {
#        "DIMENSION": [13],
#        "VALUES": [-349.5,0.1480821917808219,0.14998873724342238,0.7333333333333333,0.11312456656109532,0.5000115534970176,0.4998966349008195,0.06333330201171262,0.14955513327732284,0.14799331210189318,0.08098000882996469,0.5001422515830304,0.49999526969286756]
#    },
#    "inweights": {
#        "DIMENSION": [13],
#        "VALUES": [0.175,0.0019178082191780822,0.030435322490476594,0.005833333333333333,0.07375086687780937,0.03500115534970176,0.035022154287193935,0.0786671520036551,1.4550733023208528e-05,0.007800083147851936,0.0668754854946255,0.003928198556783551,0.00194448743950611]
#    },
#    "outbias": {
#        "DIMENSION": [1],
#        "START_COLUMN": 1
#    },
#    "outweight": {
#        "DIMENSION": [1],
#        "START_COLUMN": 2
#    },
#    "two_layers": {
#        "DIMENSION": [1],
#        "START_COLUMN": 3
#    }
#}
0.09905093707062486 -0.9634158084410502 13.774261932595483 False
