#{
#    "Notes": "Converted from LANLstar_OPDyn.net",
#    "hhbias": {
#        "DIMENSION": [1],
#        "START_COLUMN": 0
#    },
#    "hhweights": {
#        "DIMENSION": [20],
#        "START_COLUMN": 1
#    },
#    "hobias": {
#        "DIMENSION": [1],
#        "VALUES": [0.5896538529528346]
#    },
#    "howeights": {
#        "DIMENSION": [1],
#        "START_COLUMN": 21
#    },
#    "ihbias": {
#        "DIMENSION": [1],
#        "START_COLUMN": 22
#    },
#    "ihweights": {
#        "DIMENSION": [13],
#        "START_COLUMN": 23
#    },
#    "inbias": {
#        "DIMENSION": [13],
#        "VALUES": [-225.3370645512895,0.1480821917808219,0.1499812256812591,0.7332121170918802,0.07206534028807611,-0.8999999999999998,0.569980268620235,0.06087416704723357,0.1495691935882836,0.14701047971414974,0.08062510122874132,0.4989038013898017,0.49999672290300234]
#    },
#    "inweights": {
#        "DIMENSION": [13],
#        "VALUES": [0.11285638866430907,0.0019178082191780822,0.030436098009036256,0.005839394145405992,0.015586931942384778,0.0034999999999999996,0.011279609690410699,0.07891269713628041,1.421050379406575e-05,0.007811037126944404,0.06690350556557545,0.003907137512648478,0.001944479366047069]
#    },
#    "outbias": {
#        "DIMENSION": [1],
#        "VALUES": [-3.8258567162522943]
#    },
#    "outweight": {
#        "DIMENSION": [1],
#        "VALUES": [29.051883027611144]
#    },
#    "two_layers": {
#        "DIMENSION": [1],
#        "VALUES": [true]
#    }
#}
0.043557001568524815 -1.1560506123749663 -0.9330830582503549 6.236578000393956 0.7853406424407745 -0.977594222952118 0.3348063530669839 2.117218927174695 -0.10616679642609965 2.6337639402378694 0.48006447519474893 0.5072605761693963 -0.7439141678129705 1.8242758318964492 0.007363213762823523 1.0553845786890537 -0.6844884113019806 -1.9695256082083081 1.1115374723948437 -1.7233275882668577 0.734333029420442 -0.6002217445131429 -0.565437629910941 -0.369007830585826 0.12519565277521552 0.07321177576298157 -0.22319187687035916 0.2273054179333588 1.7759171037093382 -0.10956084989877665 0.2946587311924295 0.025046293080785077 0.6454023665553308 0.00830331107547271 -0.019213904997648155 -0.11916350927674675
0.27196868971362803 1.0761956623332694 0.8578651389759618 -10.571908068499145 -0.028983702173791013 -0.12769399118277983 -0.21654492469527128 0.218652842410245 0.20325805952337142 0.6091490658616117 0.12076487344860432 0.1916919692608605 0.46985379858772314 -0.4023311661215184 -0.1416565792231631 -0.019263563094375307 0.25949400849525744 85.48412864338253 -0.1752586611573607 0.1292038005962406 0.20668328754279147 0.3654038952039706 -1.3774187535397664 0.06791941565999178 -0.6021207353196014 -0.1585755273107595 -0.723310540805747 0.9163963886909889 1.2232206286725409 0.09531076968129977 -0.3222985832353987 0.6225971225804829 0.7504329500467307 -0.22851526345918607 0.06095580643914807 0.14390531373876048
2.5470025678044603 2.3910644023396372 2.6605106518031882 -6.657708802630527 -0.744966244203752 1.1048040846325724 0.9418173197160188 3.5433819563219573 4.381521564531809 1.5451336007201713 1.031613121477589 6.560835817711555 1.9099879591469553 -1.5262014423728636 1.8041924411503003 -0.7206732440219842 2.6153958821841594 0.8332620191645234 0.7264983667535934 2.6945794268066288 1.6292224601748413 0.28488385487769197 -0.15906440058615612 -0.0008585283497691922 -0.031248684493047026 -0.42578511908179667 -0.3786775596219196 -0.2322103700331359 -8.937856602071786 0.13071799160580513 -0.1844195227890428 -0.40347000845943753 1.5410103421814825 0.013776340434388292 0.025517307168268066 -0.017673200363999556
0.33979025118486816 -1.12963482132927 -1.7153028749877803 26.5312007256931 0.7473948664558739 -0.3941785535510183 1.1779008028658258 2.2668910823738 -0.7730729459022279 1.7790552071930799 0.1433470488864569 0.2863021819252392 -0.2849777634585411 3.601070246422243 -0.057209274332436416 -1.1993181060204365 0.022689196832615867 -2.255590336242695 -0.09998298141915188 -1.179775477957856 1.565165131028903 -0.6007523363813496 0.8477089243961095 -0.8788243242384992 -0.20984083974685155 -0.08359398525350466 -0.10991228159402983 1.1459667803718356 -1.2661671183772165 0.20690758371546694 0.8546418852135076 0.9713957989031713 -0.20812044826175147 -0.028316056954730502 -0.0022922254600629293 0.07403650226286645
-2.883658376038939 -3.3953153158768137 -13.249282493647375 99.97670576554437 -13.657954727486821 -5.688872142028733 26.44325087244368 3.8841117011227286 66.90721903131875 -64.95060725143146 -13.519022007688756 64.76317190479747 0.651910543275947 -75.33454906153266 11.44320335697602 40.760089281619436 -3.5782994296616986 -77.25811519728617 65.2480119307148 1.998100167482134 12.4892829348331 -1.5226950352107491 -4.797285663037274 -0.09110389746291021 0.9252978568032992 -0.7310601326061275 4.521162965865511 0.15077905942168054 2.158532813190343 0.14024458634790804 0.34934354857236816 2.893121416317835 2.1712947715513455 0.04793467329650511 -0.00757436536435692 -0.025250489630203068
-0.050589738066632806 -2.007634845819762 -0.5510305633112266 34.75199361672073 -2.139999866902102 -3.816797624130857 16.57418722157815 5.033546201925885 13.745390399503792 -9.371319028874789 -3.018469136207857 8.604971121690348 -2.1772460796745943 -11.979255777019352 4.5988562852364625 22.23723816796727 -1.4211658560283047 -20.274927443837278 0.6042425753986215 -0.7402449943921875 0.5711862510435903 -0.1827714016705187 0.538860799893702 0.8823887895639457 0.3782371114639215 1.0043091057350728 -0.7600501047205858 5.494000436405684 -2.565383756005786 -0.12325046759994242 -0.1392303322330537 -1.1010434625140917 -0.5653490632186141 -0.05439104591435479 0.010475840675952532 0.04433136676832858
0.7158772731733112 2.233964529087398 4.328037559494145 7.321613766016006 -4.026303444760691 -0.7222660773496721 -3.1773158229159715 1.811523078527295 3.8350949342279126 -5.633199410644242 -2.660520283206534 3.9860639995837444 3.278194672441379 4.834653581235118 0.9884932387507119 7.720756882193753 1.5292967890098503 -8.88807609214713 2.1438007451877574 -1.7546778281866335 -1.8701348807555271 0.37764936725350284 -0.11289318870283077 -0.06877941758234692 -0.41508825539369265 -0.30661831218806085 -0.6094363702016007 -0.3971460929340539 -0.7316592122636073 0.10674393643171319 0.7471702473996916 2.3501854486890963 -0.6850695967035212 -0.102151245825358 -0.0006871481457371796 -0.022632306176284207
0.2679806907592233 -0.07225848267837562 -1.5044819681735555 7.404465313896043 0.09883755490295579 -0.13806732030992747 -0.8398891743172652 0.6567055669932366 -0.7855604504644254 -0.7992373015228151 0.2640229533634604 0.09908915532370155 -0.5501954747496308 1.2845887424078641 -0.07590003888771098 -1.6878190594916433 -0.2937297132157379 -100.0 -0.7530032231709447 -0.31815738193503057 0.9310842539714024 -0.15265332051434508 -1.8335406795927989 0.7264390108031795 1.3137602243226785 1.5184541728327414 -1.511073250059488 6.59765124376903 -1.0901995505359883 -0.19886260827486013 -0.4748788094856903 -0.07475316793939923 0.2488789243372948 0.11503698508461115 -0.018788466114359893 -0.1993741903949161
-0.4504123019304517 3.374467844253634 23.117391199084402 -100.0 61.302983844774815 -2.7469659012194154 -27.156448080437173 -35.129023265116246 66.80575539070348 -24.51145742436719 0.5818150185603475 68.12851393238728 -60.27887467608585 -5.356144999182595 -13.312307263063133 -32.43359544638187 -0.5294023090919167 24.282784665128716 32.9034580058208 5.472188699589652 12.989011399922113 -0.09546690531335479 2.782350264641105 0.11204523679126414 -0.0565851108770135 -1.104652786077235 -0.4760105536404004 -2.317476701667919 -1.9819150857375054 0.2862955459587298 -0.7682721680560819 -2.0417608501423743 0.4230345013028318 0.11579182807074304 0.0660560847946148 -0.060869179167937326
-0.5017364064201559 -1.2838640284291836 -0.7575486948176623 -0.558932170441497 0.1710365019583407 -1.1062921539081532 0.3529324398441452 -0.34432005162208396 0.4398295295201973 -1.4518499466109545 0.5262713164590097 0.5942932283009553 -0.3463073985708632 0.34631466168838715 0.14165878629779582 0.4418266696286934 -0.7668311942850193 -18.52871901075603 0.42439584642428413 -0.1831852371278213 1.4408256236921988 -0.36290451323444106 -7.638652753332233 -0.23468881348791548 1.3186403918363758 4.927075106914824 8.218109196568541 5.169338215126782 1.6566322865897158 -0.443794962557188 0.16530494778332866 6.156554045443244 -0.8583912374745482 -0.19858391391255997 0.0584266801921278 -0.11942444535316137
0.4219617708117492 -1.1682434314226833 -1.2593826864925233 26.550430627378603 0.8111752146501924 -1.4815254416674215 3.628769331370907 2.3126790755819897 -1.1350416546162825 2.4590835690135036 0.44911639721330576 -1.019490248962253 -0.220728486604986 6.961160955916307 0.3010837901403406 1.6587381398779293 -0.7004510215516065 -8.610488593914559 -2.0356053814182773 -0.9280973397443182 1.8983528512806578 -0.5059969467861339 1.8676271355558296 0.20547431022561458 -1.730743940762088 -8.114422304500984 -1.2300109465955342 3.235137671552115 4.79052436018284 0.6620365814648949 -0.27542197530665274 -0.5664513619575685 -0.685237876362158 -0.10585680858705493 0.09811889686835393 0.15155193484409082
-1.3128848974593144 13.02873741764807 30.579034747666523 -14.792319658396464 -20.186703215035077 -14.213180409036738 -73.7227449546742 12.45910805313451 10.08074570897701 14.372530519955232 -7.454378973787295 31.04197749184366 9.700151547837047 -11.083491754314057 -55.50874910987096 -17.133311331304423 -0.7670479571814629 -99.9901344737922 -90.8864915551664 -42.50512949417678 16.041857413960116 43.19723552887143 -1.028708248509318 0.3766035859238401 1.0017454750379005 1.5186929938990879 -2.2844551511574585 -0.2331095102297627 1.1164896895288312 0.21638868694833926 0.6819702179241108 1.8868091432556557 0.3174915721275185 0.09774976574273206 0.013465713678154754 0.05233322346496303
-0.06935853044839146 0.7568890270314277 1.1797609479199942 -0.6156296323026453 0.16459806126547247 0.3051929805656125 -0.29808446476904843 0.6130381447980482 0.06964147811795254 0.15520409858064108 -0.30766778385734406 -0.01194143449882185 0.5240203536137104 -0.947676036233759 0.01214431939634299 0.01849542149594453 0.6064211691441136 82.78098572924722 0.8152261621227586 0.15159867184951262 0.26033733060207476 0.6785268605361849 0.5875001251746405 0.07316596974964863 0.230422507729203 0.16909797975130825 -0.025801696713868186 -0.9108476230904028 -1.6801165923786145 -0.20428758719993526 0.0619978873851864 0.021976571796894016 -1.0956587627662244 -0.05192012052679304 -0.01541651904191371 0.04405796340209222
-0.4951432311283272 -6.866523659406814 -6.837464830220638 -59.746985591736845 -39.81732338755155 -1.8401890677438728 8.622807272478198 28.80627557444963 15.766438321370426 -20.7275092665773 -4.834086542711889 10.48516914775143 6.130628073408701 68.2065599367098 10.205704011458506 9.832721502940995 -0.7046636611484095 8.915100175906236 28.51612651995402 11.072461840837024 -7.7779561896194265 0.2692219508467044 8.338720985373824 -22.34304704541496 -2.3371678076746 -6.87368201322536 1.4148923653805963 34.09986199478306 7.786173383871138 0.66405322229317 0.3135623637561011 0.46679483247345716 0.28973750596961323 -0.23073369175494823 0.09987961625223983 -0.0468254313458663
-4.229160335814083 -6.694186957208107 3.0371462986320963 -99.52897488732 11.839641044707303 9.297823393261295 -9.267612972417718 -6.404684455312955 2.887799704391468 6.035694419585233 0.05706755104530152 -0.11935003656140672 -3.3793200114009285 12.366914204545662 -2.610089628347583 -21.62198062969008 -3.5495196435669443 -15.645309369942003 2.8691154306492868 -1.4873649343582196 -0.5322932557824955 -0.20920857928476522 0.8960609014025465 0.3382024650183055 0.5689325702162077 -10.234416812829833 1.4213215128013006 -4.861446384718369 3.8691532717298567 -0.3778429595772413 -0.4355512599964164 -3.155719121693327 0.9058047036873426 0.12456299140320361 -0.018610334497216215 0.08671052270831565
0.0680604740759727 -0.24995202382285128 -0.1056859506561329 -21.56233480403787 -0.6617339558350815 -0.9921671241485845 0.06366179852410071 0.9930852927550973 0.04461295143799505 -0.6786608983402461 0.29718733940614356 0.1302462447500698 -0.25593682249338345 -0.7119811783061791 -0.014509047864182955 0.9740405881593288 0.38973398034505735 1.7421354794142054 -0.5181258817826231 -0.15694584233297793 1.6488260892166238 0.4148028607306823 2.2423385914907294 1.4707147949038517 3.115938826143837 3.7006645215323983 1.3328093655838187 5.223503402493595 2.6815983154033556 3.3000602725718737 3.428296455455726 4.737380114921355 3.020850208225998 2.3120279982661964 2.658477919104961 2.4900767097115617
0.11823641521492456 -0.6745047587046683 -0.42622789521666715 8.490564052508368 -0.21899645903002357 -0.14862548381059376 -0.17837345773174199 0.5192997568185229 -0.1777702972517356 -0.13551031596755955 -0.37342069304872555 0.3807882900748676 -0.20358641637681857 0.6818323952834032 0.1432353748397107 -0.5779456710593182 0.2664250610682295 8.33595495945516 -0.4086439477152429 -0.06419131809880793 0.2890669422814387 -0.2509079191088798 -42.265610197797656 -60.469595715283674 -64.1756974160114 37.54693254672759 29.015710926256567 -87.63454204878572 20.680965994953144 -6.0714355490540095 26.23999235288414 31.09610849325888 11.270581455448541 -25.519435527516386 4.191709657188894 2.5937526474365993
-18.813438234907842 -18.566252530810722 30.064667750680314 37.0694828047106 -17.06443625457979 -16.41974244892546 -17.41898986347577 53.26135800912696 23.263519267585103 33.961809196150455 -9.695231653805052 7.8665736487727305 3.4135831766867843 91.69506107109234 3.137399192571609 59.15485917709007 -18.706395614802375 -11.52653984917811 21.973224508961547 25.545806735466442 11.340099017011312 0.03508781585510109 -0.968770992050611 -0.22613744639032426 -0.24610243345737984 3.6336409460390575 1.990501515348305 7.159343896755119 -6.047641061950715 -0.21769140027721903 -0.14405786763114856 -0.9062290216273898 0.6364242969107597 0.09393534578201422 -0.03443425338698544 0.06489698866892335
-0.3375628216711253 -0.382927325308343 -0.2272935403761835 -0.1485640228882338 0.2834487497029877 0.0084647168452494 0.4629932433642124 0.9461491617478838 0.023710278816359676 0.028346355949129223 0.020065600995805823 -0.4463289047920564 0.020484255104677097 0.5053784091818556 -0.12904092738630207 0.49809108711933975 -0.33491036236835026 56.870823661418456 -0.14193000680663254 -0.12821225693274513 0.6569982831567331 -0.5743157841689592 -1.3548388989692899 -0.07307908310233255 -0.32496248460452176 0.5825657276339749 0.5397680684734149 0.8572570970741081 0.6033049903863675 -0.22801218656626898 0.33221038353301574 -3.7199173523618554 0.7515913547262207 0.05080301811577842 0.012296380865444247 0.01618784003730935
-3.1570756968074294 -2.924593343117321 20.94736008166883 -78.03025244436238 -0.24343322912856194 -27.174774701607323 5.327183712043423 11.724904275274033 45.68956727347337 -27.5231965264313 -11.26894605910516 26.598955823160942 -0.05092785867124856 -42.4240636607242 20.577523194482442 54.50403614338266 -3.2855858189391483 1.7588889400443182 53.34332998351368 4.900514457397587 14.890248609001342 0.36187742878081147 1.6180375449095064 -0.27933641248804625 -0.01682074600442081 1.5469926533610294 0.20259272877650897 3.0751279723882976 0.22414092458640172 -0.5366459751863001 0.5969436851103069 0.8258395021144073 -3.6746427381569893 0.006205140717770114 -0.027994614020731376 -0.0031769860033148706
