#{
#    "Notes": "Converted from LANLstar_T05.net",
#    "hhbias": {
#        "DIMENSION": [1],
#        "START_COLUMN": 0
#    },
#    "hhweights": {
#        "DIMENSION": [1],
#        "START_COLUMN": 1
#    },
#    "hobias": {
#        "DIMENSION": [1],
#        "START_COLUMN": 0
#    },
#    "howeights": {
#        "DIMENSION": [20],
#        "VALUES": [0.7362517274510464,0.8028412057178845,0.27556495235365375,0.6649529877591385,-0.36236473259660495,-0.38583995975375934,-2.189382243584797,0.4697303748069222,6.47497065238829,0.6984750108339992,-0.7351518566829895,-0.5291001049277869,0.9548019797735605,-0.48736169783319777,-1.166253616583081,0.9925107646207857,-0.6999764172849755,0.9167301010682398,-0.8910995270142916,-0.7805997012056447]
#    },
#    "ihbias": {
#        "DIMENSION": [20],
#        "VALUES": [2.5200211331881177,-0.3779676096534153,-3.0479942420402972,-10.642543924113102,0.46350730428328013,1.24390044392467,0.9072793601742315,-3.4059458777133518,-3.8327774872098437,0.23369181075295256,-0.0015824768812753819,0.3531838558626537,-0.46580790443651165,0.2574400665567622,-0.13947418903840422,-0.4719475056214679,-0.3689869452950664,-0.4409982928536885,0.4335207571698764,4.114760364234346]
#    },
#    "ihweights": {
#        "DIMENSION": [20],
#        "VALUES": [[0.03604150718625536,0.40421411715528055,-4.1331497559985095,-2.775351047235284,2.3703643137392807,-7.466386405595078,10.195164555840181,-0.05476479498544076,5.356391128870797,-4.2437653144531025,-1.2128499926735117,0.085231385341197,1.813269279820851,-0.6434688799742897,86.50571558140552,-9.727477296436387,0.1458455679808735,-0.07028012627677242,-0.05421773972296147],
#            [0.022318480846107207,0.2649823086992581,1.2027724033744862,-0.988489779713089,0.12240606312956055,0.1957359029032124,1.526716444557359,-3.050047298348247,0.19208840853915854,0.20053528190593348,-2.991195200798931,-4.625524019960264,0.6419275366850232,0.17194046384120698,0.3666239273303909,1.1407623157189806,-0.01967039502883483,-0.03493870557168672,-0.057481647778597836],
#            [-0.027488108579170934,0.21226828793477318,-2.9814423374624854,-0.35509632552356174,0.335161871429199,38.69484635292471,0.0628384811279316,1.385644112161558,1.962180916581304,-2.3073140903356033,2.0765857824250835,-12.817021825384861,0.3460873613060736,-0.05661931095299418,0.42761115239836517,-2.2177476565836836,0.006295534441060321,0.010163334420794434,-0.06571759516981704],
#            [-0.006209061428816647,0.27303149066179305,12.976227621262584,4.502352222643491,-100.0,-2.64129098294376,-5.6743801756908265,-6.965505207952866,14.20438522124154,7.38307129080914,-1.1801925064872816,9.536196210208198,4.07618933751716,-0.3142791423254316,5.279515497658676,13.048609799180696,0.04672185377206452,0.08111949899160145,-0.17893970060441622],
#            [0.09620424186391126,-0.27846947974106123,-2.7348280854313254,-0.14911766901208828,-1.2268578687219995,-5.289772727856867,-0.6901672154334184,-1.3616284564543024,4.466151734120378,6.667161717016003,-2.730627480845126,-0.26559995310703804,1.5772090837385906,0.07902744175169374,11.9485725498615,1.190922342334897,-0.05581672427063257,-0.1778819038774167,-0.06334898977078919],
#            [0.042337536406687255,0.17067918205536725,0.47725513439513684,0.5300635372908753,0.22824116200364722,0.8911885574179129,-0.00285968708800607,1.1509666379878503,0.9822948116031084,17.182721856400118,2.922056152122021,6.29778954098639,-1.2902778748682717,-0.07138779625623909,-4.987407788197939,-8.096167636471565,0.14083040674461406,0.2818860375025904,0.005017532986731812],
#            [0.02049954263947252,0.06573244118151639,-0.03234520011019027,-0.003136539382960041,-0.9897941117107656,-1.8261224981768267,0.0688411747983134,0.37129404582680314,0.5958722722558232,0.33715350515322445,0.46250483875714055,0.31964609292314217,-0.29663775981026325,0.18039744973708552,0.5782292705552522,-0.18590964761498777,0.010457404057267743,0.01713738738056782,0.03386427895047508],
#            [-0.05584157275172101,-0.013511225606205123,1.8283705110399933,0.28768036284912074,0.7731313129760404,14.769799887569176,0.926408361501161,-1.5641879692439478,3.136756054729786,1.781902829110515,-1.2405170261150693,-2.5335222673602855,-0.8577134216906992,-0.15306523366276623,0.7745713721944865,-1.221321863115143,-0.041446812558907475,0.09023217191966172,0.02980049816215312],
#            [-0.061068719920931075,-0.19214548443244547,1.949887831901144,1.1513650555112003,0.5833651941791056,4.812466162296734,-3.2945671682932436,-1.5682714204171884,-24.552421666732585,-0.3003554968881668,9.470392478440015,-38.92571843141507,4.0242739797969165,-0.06938787421494334,1.3492963766136177,2.5168438938121507,-0.05360960024035993,0.05965866103009828,0.07882477441359212],
#            [-0.10071326284320695,-0.16349813202268168,1.4783570777327568,0.022571347746219998,0.015972500154804593,-4.4792709268777955,2.5957940008040317,1.4880634065681908,2.0905502450686346,4.720933593520739,4.978100534681676,4.635954787320204,0.05862183921317389,-0.16719546405284827,-3.4266401070105754,-0.07134074417957827,-0.08807204258063188,-0.008259799288335893,0.05582511918921175],
#            [0.06778619253324311,0.054798347632041555,-0.778625750207434,-0.7339316937751369,-0.3600105564657293,-3.00369671753029,2.6803984576308264,-2.606450616908582,1.5464887131569462,-10.340467128281402,-1.5127398581766056,-16.23587293453396,2.293527197460594,0.06210252478023376,2.7490034126323764,5.325234385372268,-0.03476216793360298,-0.06155886321702874,-0.1228822435993362],
#            [-0.12828635926812748,-0.20852508684864848,0.47003436995710635,0.14052605523962197,4.75332344379193,0.6321516546327061,-0.8198647595416874,0.8824236746805645,-2.533733738450631,-0.8048050704018077,-1.8706113635032002,0.44303227864150263,-1.1156113399954337,-0.5578117684245122,-1.8524117566692564,-0.5768762733884527,-0.0866595557739038,-0.03663507882028101,-0.10168310119049705],
#            [-0.005489875374560385,-0.06548186552502595,-0.4403424431901795,1.213636799535218,0.1829442045918329,1.2560841280500894,0.43928538698523023,-3.513554441524679,-1.8567164361559763,-0.627369675229773,-4.229936298609967,-5.887880481840754,0.6239262872338223,-0.17312686108948108,2.848133931320626,0.7538741409404441,0.034101801527643055,0.1019296504254706,0.018934177209376443],
#            [-0.12737269469991147,-0.4219023154130701,0.029189601559358062,0.2764043628269305,0.3598921279776914,-3.153694808945519,-1.7573606772760062,-0.3768761520167943,8.830039383693236,19.944633603801766,5.775479215478847,15.320062552882385,-0.18489855390837814,-0.12150273323945433,-9.198056179130685,-3.7864539323017374,-0.09156013036816138,0.16442986832846382,0.32945422913960404],
#            [-0.060361949539624996,-0.11253296755399866,-1.0430594827367607,0.6803693179945657,0.12445307571190135,0.030592062711511332,-2.937099283922273,-4.792695334781246,-0.2827284741900184,0.9654468777488814,-3.827050646204195,-1.1359997273108378,-0.22574004233107164,-0.10838605435770805,-3.607507530534202,0.16872370483731097,-0.06928832102184544,0.17440522901565322,0.1463581048493385],
#            [0.04137941572257415,-0.0627335696772609,-1.1188267865321146,0.6618095617282403,-0.09980670000324071,-1.9197230931288625,3.1025719845421937,-0.4755810337729074,1.436929924841577,1.7599998026681818,0.8516868821486535,-2.1813623917888907,1.5641016492520234,0.43480791308394895,6.373053415279836,0.5198049669306362,-0.009126827501549629,0.03714375205025187,0.09577411132498222],
#            [-0.08625090014795156,0.16831726311201586,2.7327009773802895,1.7628409096523328,0.6251806261166614,-2.6544340320179627,-9.481794658755675,-3.8631355678114176,-5.312656478502946,0.15585047659317086,-2.0549554530308893,-8.086539890552194,0.31814172332289836,-1.2140863509184212,9.733238897348825,-0.4194253862364371,0.10319305959229341,0.07503789090676712,0.031837714521020834],
#            [0.045438079678033726,0.005695426299115385,-1.4835948230136708,-0.19082983712484627,-0.3200854388652082,5.073259688110999,-0.20450926293497645,2.788250491048809,0.9303975225637404,-0.8063318244355654,2.020630053402793,6.150983947845772,-1.9846861995396048,-0.1344637631863267,-3.7664138734184514,-1.8561206467792326,0.029567315649985382,0.03190295455547285,-0.012340241152429364],
#            [-0.02610870244958586,0.1653043913103821,3.601938441464922,1.892578508546436,0.7067929527915203,-3.527582316394695,-0.7861146617455935,1.1981785655677732,6.419524625827747,4.044619306134262,2.9719638586068617,9.072058633790805,-0.6717461083267163,0.09437558935287056,-2.9237348086884514,-1.5120411398183102,0.03269761432800664,-0.0772066909362218,0.014954603485340914],
#            [0.01824281484979095,0.35479379435450237,10.8750800614493,4.349698926335213,-100.0,-6.515577648792378,-1.9360339994017195,2.887486670111403,-0.9547935335187389,1.9665685106677648,-1.4034695560962853,8.623337479300059,0.9320836775729029,0.03738411994704522,-10.028264364287265,5.229171893176282,0.0949787407088225,0.022359822332790366,-0.12962827562748055]
#        ]
#    },
#    "inbias": {
#        "DIMENSION": [19],
#        "VALUES": [-349.5,0.1480821917808219,0.14998873724342238,0.7455899697252842,0.14977021311584576,0.5176197908066779,0.49882863975838676,0.15,0.15,0.14966369937231783,0.15,0.15,0.15,0.06330703187438022,0.14953228874649385,0.14825807416400402,0.0808838452362476,0.5001422515830304,0.49999526969286756]
#    },
#    "inweights": {
#        "DIMENSION": [19],
#        "VALUES": [0.175,0.0019178082191780822,0.030435322490476594,0.0017143362634557296,0.010085061952140983,0.009368926952085811,0.007493601508926099,0.06608305621483589,0.09615556825372455,0.03719749732480338,0.01782888917965832,0.04131987073690519,0.005418586996920074,0.07866959354895392,1.526699626595731e-05,0.0077971413438286084,0.06696866120948318,0.003928198556783551,0.00194448743950611]
#    },
#    "outbias": {
#        "DIMENSION": [1],
#        "START_COLUMN": 1
#    },
#    "outweight": {
#        "DIMENSION": [1],
#        "START_COLUMN": 2
#    },
#    "two_layers": {
#        "DIMENSION": [1],
#        "START_COLUMN": 3
#    }
#}
-0.941510340337148 -1.0194145288659306 14.145651409325934 False
