#{
#    "Notes": "Converted from Lmax_T89.net",
#    "hhbias": {
#        "DIMENSION": [20],
#        "VALUES": [0.058697423590197695,0.25302887623755416,0.4692053565211054,-0.4559649742766039,16.78814258257892,0.7168872444705018,0.6994235415040173,0.1762682436117742,-0.739670920849409,5.166765736742574,0.9057180113459881,5.163716002434593,-0.9761136098394984,-1.0371806762617286,-0.40160875270750923,-0.4855399197139358,1.3333081370701863,-0.08866372403019028,-1.7205601320090667,0.12650067811205407]
#    },
#    "hhweights": {
#        "DIMENSION": [20],
#        "VALUES": [[-1.4109158329507419,-0.14078324886292282,0.4403797120497997,1.3142163458528229,-0.8306755781848709,-1.4211939329437455,-0.2656348663944978,-0.8606087418425233,1.4234724306882156,1.0958399713999323,0.26667807196367804,-0.4866579714086024,-0.03710419649515467,-0.5455185498470974,0.26819676175161145,-1.4191392333987036,0.9652039509607478,-0.37832463385835113,-0.8957493176141952,1.4279718459460589,0.6983386625401864,2.7701355069609073,1.2114294978074471,-1.1707265022783384,-1.8722356488375644,1.8767501700483282,0.1518442553748702,0.14504531450635236,-0.2871466542677311,-3.8259228059552246,-0.22107293385746107,0.14739042589394175,1.551829803669027,-1.2490463678415333,-0.7332250007761741,-0.3113680770378119,0.8599570707008629,0.30457919816653806,0.42671781669186404,1.0496613695140218],
#            [-0.08593283004974607,1.6132475742342163,0.915155994220589,-0.2692714376402985,1.5376773419389655,1.5957026810057438,3.4936559784930856,2.127865839534151,0.45624056920717526,0.3670917540695479,0.6540301969319773,0.5867155860417843,0.42658120639382346,0.40687855968208975,0.002145527249169627,1.0757169597430882,1.0280997998077714,0.21338740548944332,1.0909299341543641,0.9721044998575725,0.472196302966116,1.0958252252090581,-0.7913339549837339,1.5044461215185854,1.8019640344961878,0.48346242755705193,0.1218469675422662,1.0481385389423956,1.9980416629968554,1.4572980400010977,1.0073353849803992,0.4011823341185983,-1.2730294758499587,-0.26825330761618404,1.4763652448714095,0.7298317480401025,0.606992987289423,0.404437580615472,-0.24608384677791312,0.4816777397587295],
#            [-0.31589096138246864,-0.5525540983564569,60.062373382704,-17.80530299505288,-16.63596021092456,2.4539398530701124,-1.846692173131127,4.416230620656473,-4.257643123717281,4.284045069563893,-3.188293141492703,31.213543932100663,-12.243216011852908,-0.12452538624938354,-0.7822622329394874,-0.24225026493408125,-0.03477600201895204,-100.0,-17.337386634430743,3.9900834204815023,10.138372251126173,26.612529216668978,-5.740971933689724,4.385530883746995,2.0449047631890833,-3.7679094115880822,0.47583803896005067,0.9059742632583433,29.80041948049373,2.108434660541119,1.5594576233540725,-0.0026127316132029356,-21.141553309618576,-0.15225200694594343,3.8945759593345937,-3.6394080007742837,-4.473671641369405,-0.31069441617763716,-1.6361823139056795,3.2898270287945564],
#            [0.0871517908883279,-2.0522858266473194,-0.7393428981737526,4.779598668580267,2.989321551230378,-0.8056189200842631,-9.30155088795944,-0.26123057366021013,1.1982497302804755,4.372151144940419,-0.7035505252809932,0.3850958193803749,-1.7345991970591592,1.103228856269911,0.35118574388855434,-5.840838926027678,8.408756976695548,-1.8824169172360028,3.4005465981627334,-3.633989630487946,1.3773192451703073,0.4878877683891922,9.517141133493988,1.4714545505960535,-0.6828831354871461,-2.27457243289068,0.063372360183248,-0.4332042644408951,-0.921667632485741,-5.529270588834763,-0.436306346487947,-0.28631719551317186,3.7100168882108875,0.327026506976947,-1.6722566355359612,0.4005781760322922,2.796275111746088,0.5267563842657583,-1.6999388798506696,0.2658600324525063],
#            [-95.65422256626972,-6.65303088388088,-15.496402974009857,-73.44942466362811,88.81509456099012,16.21038706703909,23.698921559229557,25.93855850339834,100.0,82.53629891404198,25.087338681469866,11.755282951349532,-100.0,-64.03578470154359,-70.8576716960162,100.0,-46.15966618255669,29.938274067685928,50.69850109602556,60.03568267797538,-40.83289844377931,68.96087089434687,100.0,62.04299644915109,-22.75185912417334,29.689336465638334,17.422551698854413,-46.95017050586067,15.118566775764064,-62.04847011135616,17.347463654039547,5.566651766601656,-70.77969727626376,44.70848257391909,3.5384407304755476,19.58388695566901,100.0,-11.785808542592637,59.8463732822897,17.1680318161758],
#            [19.41250784677548,-0.932850720024222,1.547794416558752,-3.866337113953476,8.3505037116199,-0.3081373299791344,8.599297246028046,-1.648944845723911,-3.6637226667113665,-11.182621366771787,1.550802837590738,-3.691727970790034,-9.609706329295348,-1.1130626876795275,-8.812959535011888,3.630129631935406,-9.774219440269713,100.0,-8.827722051524386,-2.8269644862553083,1.4354021121790765,3.1914465755018093,12.88420268488101,1.3910183615579208,-0.0753056055056463,17.923108700007827,0.5456718142934949,2.5424443862228454,-0.9116251239383637,0.9608705562346633,0.26083733523509406,0.5160380223969651,-6.956123601153036,-1.1027434052046652,2.2458918272594173,1.5100477731969675,10.573017340244906,0.10060902086756285,5.614487171951728,0.520897487703708],
#            [0.05328983102287539,1.329730434737859,1.0742529920852153,-0.34913632643771875,0.6565858126329361,1.5626529813641366,0.8556583244113354,1.3918390083912255,0.40450124863449866,0.3699950729208896,0.6203457682183633,1.0145397333458257,0.1758528291991435,-0.3647281819096412,0.8616404354673735,0.6309709619132006,0.997536505527526,0.10204786943058249,0.6889931874589141,0.5631746905535014,0.21226541277269642,0.7046971729057545,-0.8800498538044954,1.2345526394600874,1.6093415397775561,0.6588036868145454,0.7138297785366752,0.6120834224468347,1.0628141295017752,0.6860369650294119,0.7360935640852034,0.7406367094087348,-0.34833153127136446,0.340845279023471,0.7867293744972812,0.9098251182556422,0.41179801118870973,1.1598356125499087,0.018909102032642025,0.9397649868983976],
#            [100.0,-6.562653883604182,-79.12812885259557,100.0,100.0,-4.782121636564084,-31.902931944726383,-6.243374125502198,57.5860175656906,100.0,93.69495829403458,-18.031967660887886,-12.717896235986178,47.07270706060193,100.0,100.0,-44.26621389266263,100.0,90.45306800976219,-14.079769488205244,5.2602140717934835,62.94332095579268,-100.0,-50.696951233497444,7.971898386737947,10.30217529185464,0.9377420108775123,-20.712957349931017,-22.172410605559637,-36.35656269190565,0.38083151383943137,10.278443114803503,45.361228069923655,34.530442807849155,-19.300247874407724,34.561759540989726,71.651043003455,-34.12517721808272,99.12794149738914,0.7637700772663322],
#            [0.10050932247069827,-1.8013561649770007,5.44692878614572,6.425514541153166,-5.592089080601169,-1.2683514860048328,6.237061399610151,-1.0720084450394054,-5.278892076410398,5.166889259312094,-2.1194971686367405,-5.275490667684783,-6.209568219540064,-1.8652761526392225,-0.42793457224998865,-100.0,0.3061753239829065,2.159417986315762,5.923408683729464,6.348132750805524,3.1336089662678166,5.730011475198086,22.10415145689919,-0.25306673727330276,-1.585796878754139,-1.0091969807066097,-0.2985453767678235,-1.0882566271885175,-1.4880992390985897,-2.3421388267828096,-0.818023972030771,-0.29526344137736954,-6.7297273999136795,1.3276398164514516,-1.2717803282331965,-7.624797548169038,-0.07869585576807483,0.3641120909487083,-0.5664072783974298,0.14268947844920465],
#            [100.0,-21.54874274356814,-100.0,-58.31963065649419,79.19530235493126,8.941119700090498,18.384977809728966,-3.331947063100994,-73.30548871109376,81.72651778353506,43.94580694354092,-2.128530023775075,54.767585787122805,-55.03252255281046,31.023797018445904,-18.30734195329884,-12.782023014325045,93.64068853238211,100.0,-68.22282926377828,-15.41875760868898,28.314545363552014,100.0,-0.07684923966932498,-3.6036103118790486,-72.87840740209398,5.525893392269075,-26.46974256800405,3.3086765320578784,58.23844184511704,5.42066590316744,-26.878346740219534,96.59595428396716,13.573124469562444,8.36484420437928,15.62120347228545,35.97326916408258,25.863999661673958,81.80077833953887,4.9721159281103215],
#            [-2.2777150569993436,4.224259086326406,11.52825766228974,-15.13059524747257,-24.58173762781471,2.8034253546000762,-12.141840714600455,2.3815267521945587,-8.945599234692642,-2.8310688925427767,5.44159251357681,4.526333431493474,-10.051352513018601,-12.313302258425523,-1.3833791630117602,6.409962337946692,-0.4704823484615468,10.192311504988066,-33.35041620658089,20.8530195645186,-5.8316711356247035,-15.619348553501784,39.38412471648699,4.931189209741957,0.8942564803315749,-2.069099354510273,1.4090372154571456,-4.242734463475465,-0.9416129712679111,-6.930537298393951,-1.4527071772698896,0.17182415900887651,-3.4959087006601512,5.003253469669749,6.567459179493319,12.77878742295703,-4.47786089752865,2.099376635302633,0.2235850629763522,-5.210448063172928],
#            [-3.754511980419854,4.196902939004101,47.388122278283404,-52.43577854429229,21.12651314915405,11.23183657184406,8.84376010041385,25.148522329843377,-8.288293331529436,-0.6824601758752549,-6.93876841879484,79.05132424818193,0.697335504795059,32.368051831826776,4.2434034690533675,1.4560378096127926,-4.436815117641473,-100.0,5.368649439870231,-17.6811021050667,50.22201107291282,38.01029146039118,-70.2875457768235,12.556921287557971,7.818990148682563,-6.20801949579426,5.045285719225026,7.0179079448637935,74.07945689746711,-81.43270638759438,4.442809624115865,-0.7265458941250833,-23.61841615166742,2.988478194463369,23.67173277339249,-11.745494587097022,-5.458501304667477,5.191230551798058,-0.7970001129838212,-54.33773155912155],
#            [21.885533470488376,0.4065256870660948,-53.192715370184985,-6.431369967294452,-16.401968272319813,1.4515686368782663,12.438762597358872,16.240480033513105,-2.9951479428538526,9.643261301759177,13.97904163519979,22.325695416467187,4.841251135937115,43.88257248526919,11.669736995668352,-4.039597022909771,-0.46832714425101796,-21.633098411975716,49.52122527101963,-2.916198788513522,24.136394485544592,-29.95771553454867,-62.42525315153487,7.890538171987414,-3.040017646356209,8.588734659596446,-1.2815594795444372,-0.6376372787091399,3.8914128809546282,23.97346957481464,7.016403257502889,-0.6620446267881015,2.27874429127507,-20.096965015119924,-12.994327874982423,-12.028201718254453,-6.64303541870241,-1.7553826950703086,7.436714933105394,2.096894245468164],
#            [-3.546480020105733,-1.19299484850875,-6.962110326069346,-1.802094549726541,-6.170657225473466,-2.898115834697732,1.3233866274728616,-1.6845723410998776,0.5419538954212394,-7.573905533471496,-1.2556367273585276,-2.4883513578942265,-0.2268048300361483,-2.211924498267547,-2.521553572195005,-21.233217830043014,-5.980161174985963,-2.9661489738481848,-6.901531825602469,-1.6877010386425553,0.2790431567029888,-6.310007813254562,-0.9310496274988894,-2.3896647403557862,-2.6195937320794247,0.04585239067397086,-0.5147300565256274,-3.080073274950862,-4.599531383872538,-0.4229698397989716,-0.7137482854427895,-1.3663320700870518,-6.19670988112895,-2.1984915575184374,-1.5956150439099936,-18.542913254962347,-0.26416572035428637,-0.8020513698875027,-1.431992106678141,-1.158986984367315],
#            [1.2617291320416957,2.0750100528662703,-5.053303463162667,3.4403682189469915,8.29070322696928,-0.2872304410733791,-5.37486067876895,-0.005911765141643212,-0.14860814888141854,-0.22713167572842075,1.6062545780078243,-5.210787875682174,2.9932016950456597,1.5636567371258687,1.8565133402699254,80.52738614645133,-3.2629830760416723,-2.763316583146992,-3.8866991200722594,-12.827976710683103,3.279744540956256,14.95446380340811,-11.797456579369015,-1.464427063020401,-0.49354322517908505,-0.038224567658631796,0.729012055053653,0.3893486369028308,0.2331480435708564,0.7023320558944433,0.3912133972242123,0.36409647739946827,9.163431693525073,-1.7142031084526004,0.9224469027925395,1.2884663859790184,1.1709726953080297,0.19424698995708234,0.4854518658899912,-3.3599362852456136],
#            [2.062059735138557,2.293063012125414,-10.137637686632033,-10.329878811758311,25.785408176909808,-1.692822528114443,-6.601762243831412,-3.596032363716633,-3.060628819126589,4.963401822477569,4.73549191460623,24.81377375798857,-6.607703428338577,6.430683366828155,5.559185797119141,1.2351124733705174,0.9545534526892623,2.0989918289340976,-3.5512797592446472,-14.072652666467173,-3.8910795601107955,-27.951743285165833,10.370986473680563,3.703383651007071,-1.9666652247242578,1.7942722451562205,-0.28267720301143434,0.7511920939630424,-2.8428394671782513,-3.4970932167759097,-0.5305800647756844,2.908214218059672,14.647227858684154,2.524016978386364,-1.1779066085952514,8.651174173433763,3.425822719300637,5.060693142997969,0.5131007681976862,-0.41882479287016666],
#            [0.6213349776492275,1.3205531387836877,1.2407959491614455,-0.004659707011949237,0.8673869105456884,1.374628730779266,0.7067974371078998,1.1068478259844032,1.8617129722143295,-0.31269148149314474,-0.24861145246698677,1.2943130165983119,-0.43996664199537583,0.7525114693965989,0.007577686179917868,0.24525444700228258,1.2489418935368102,0.45064188981850645,0.8829605562422845,1.4062274876858307,1.229295352041291,1.3428682672437715,0.09280623855425721,1.619219175963439,2.130019824307748,-0.011703020828177082,1.2214914548111058,1.5337650333685644,1.424250753254339,1.0958370868717,1.0317203534159685,1.1470212530546298,-0.11322763873074176,0.4793524360000085,1.7464561639053109,0.41770484597929475,0.20399518135846167,-0.26531524731110034,0.15467997769861452,1.4509837274976403],
#            [-2.460349600390196,1.414307646178426,-5.8035361367936735,1.865515434590066,3.7261248101333555,0.7260799308307916,-4.801666031639755,1.140162832163698,-6.002886151456485,7.351039219107538,-1.3923678971180549,1.6728334725336444,0.3548241269738581,4.7217320087113555,-2.5220289182419497,-1.8754072478829085,5.597765625916328,1.9931158098746788,0.011687041938380117,0.09391627619907071,2.4250743779943336,3.7083286123422563,-19.18398226636984,0.34273879098942384,1.3027700417103445,-3.9399735662658744,-0.9961389426954719,0.06428856013252852,-0.08059015236032475,-1.4428702375033786,-0.08014859170346807,-0.49047127281531344,3.5448804274111927,-0.2618554664190044,0.4488078097412834,0.8747472584294104,-2.2173349692389803,-0.924140549709944,0.12363375370402134,-0.3200869973643837],
#            [1.5532818613484525,-5.754916954945054,-1.541876793714217,5.564219274272706,-16.546473587714978,-7.455748498301003,26.018263078370406,-6.340079294100537,26.267100378258217,15.047168786821791,4.730420130252236,10.205439148146777,48.92849967913,-3.0671805756907426,-10.31955351449683,-5.115088852863844,-8.841361938573323,1.121152585959588,-17.031664541585624,51.11013803567225,14.564176362841422,-1.5924449697304202,-46.391418881871495,-2.2424265076917234,-3.956802495052889,-11.033486095231613,-1.119172343288356,-18.21487017195434,6.212505363207983,-10.085643192392899,-0.36702451514468615,0.8131615601847861,19.99950130423118,11.592424294027557,-6.969561180192193,-9.341871443578956,16.674090738440576,0.13752431785225366,-2.1991003502062045,-1.4561569987317442],
#            [-13.428966267729967,2.612410344285023,4.135894639814188,-25.284205553983956,10.452612753402878,1.6926098445083242,-0.15653642191543182,4.611543514412733,7.048526255449524,12.352697591869278,-6.008610100403947,34.54298448442144,-10.36553352101468,15.212747006127653,-1.0023198972029712,3.162237442925617,-3.42573136716956,54.62530265436977,-9.487803232504486,0.5094671644334661,21.05229248101535,24.449040812897458,-35.80574733872305,3.845442112295392,0.36486804595977795,-7.665179206702026,0.5580910220239514,-1.230338089738549,9.013566491534156,100.0,-6.0114613429313275,-0.6988950398096706,-26.92859197290401,5.3313857870582915,8.40263468763586,-6.162148311023649,-18.368308234209287,0.47505652805464516,-14.62540990496459,-24.51494763566261]
#        ]
#    },
#    "hobias": {
#        "DIMENSION": [1],
#        "START_COLUMN": 0
#    },
#    "howeights": {
#        "DIMENSION": [20],
#        "VALUES": [-3.576266862501707,-0.16427916250224106,-0.5647740318387406,1.4320619026255867,0.40580578722009003,0.8345692476237426,-0.024308225692216263,0.388036984109279,1.2252348371568946,0.5949133497572877,-1.6016535567707946,-0.45382681259885543,-0.26683240050932033,-6.599591965744119,0.9310558301922721,0.45379186622922735,-0.15131270287937928,-1.173037136998932,0.49142056160162767,-0.4083001145789266]
#    },
#    "ihbias": {
#        "DIMENSION": [40],
#        "VALUES": [-0.9668110145413661,8.002452085177646,-2.752730844075702,1.0977545544357608,0.47792026473504123,1.3211892942442043,-3.707775862165467,-1.5393897822041984,-2.187877831926902,-14.985432855230876,0.6273685733824711,-0.7936469214887578,5.4061153572251515,-6.125527369928772,3.031465185765972,14.152076787262475,-1.3723886276360102,7.173487536838789,0.9600393635031392,-1.4939045356850675,-2.782322176218095,-0.22074668738159337,0.16579650316177408,-0.3188465452097433,-2.715114195601673,0.36914522873341027,5.3238794337342386,9.65463537285957,-0.9413690978805997,-11.959617537884187,-0.9411442848562634,8.79204730651862,1.1458558550803357,-4.340682700083539,-1.7556344966382094,1.0191121052075571,1.3312917354997116,38.858665493862084,0.9859942926890849,-11.401671104481952]
#    },
#    "ihweights": {
#        "DIMENSION": [40],
#        "VALUES": [[0.10429683681265842,-0.8244462223457049,-0.318482016196534,0.3333347631574258,-3.8655247658634426,-3.431224385656486,5.436516354853934,-0.06353002870323517],
#            [0.05509352263177019,4.0181838834668815,-0.43850524446972283,-2.320145264653403,0.1550737538723183,-10.467991887833206,-0.08457072638042665,-0.1441665074033399],
#            [0.028898384248383955,-0.7049179514028925,-0.002376465765729848,0.03864825595102361,7.30251147398283,2.049109324300973,-0.4640722866562493,0.052645241875738505],
#            [0.007427059084388199,0.6271561146389654,0.11626505996901278,0.23626640038364013,-7.661461412171458,2.256964982573859,-1.1161267356168956,0.027351897658438772],
#            [-0.061641953818850036,-0.4768671396550142,0.07487695663666016,-1.050942910013112,-0.9855693360951243,1.3905585800137417,-5.031838565264064,0.0807010756624341],
#            [1.803869578945937,4.179132079583436,1.7025831144557229,7.593760903158107,-0.604978516133771,12.710602156782288,2.57709223279048,0.40656130545481517],
#            [0.024505942626185984,-0.10272482600865993,-0.4557336327035266,-0.38557566131484033,-1.991483323233474,-1.792015799566488,13.631013757835287,-0.07211664369864758],
#            [0.12661068229008304,0.9923107796661859,0.31007269571990237,0.56651535591581,4.052447591636827,1.235389049272789,-0.8037329450726837,0.03460728479474441],
#            [0.11327363777818916,0.608648690251409,-0.15232289068840266,-0.9232246262606423,5.319755580980875,-9.406394585920172,1.0341774644854393,-0.020229902001550965],
#            [0.16296212494650036,1.4463300367159584,-0.6380401406357223,0.010585122695054915,3.3153608648384645,-5.851500137640667,19.893203485378468,-0.025155321902075728],
#            [-0.1519437360556548,-0.10235094005341833,0.7424035424162412,0.37507352710426944,-4.2342544230808,0.4156491627792805,1.0015638650468826,0.012408523895538696],
#            [0.03684557751684068,0.638447386316231,0.2869913717064492,0.27828986834971264,9.406576720413812,-0.4259616217643986,-5.148099298870418,-0.006242005691401642],
#            [0.0005754043956736442,0.3670187833095129,0.12771384020041787,0.7222209692222198,-1.8740217323005477,1.1547860262697764,-11.029362406069747,0.049970078401003336],
#            [-0.06708806159097805,0.2302926866652869,1.22651459403258,-0.7900756990185529,24.947958147354765,-3.9401137860792272,-8.872450322863635,-0.01470918723443341],
#            [0.09251775960506314,0.039617255506999904,-1.71573173386905,-1.476518955608378,-13.137861715610843,-0.5524161396209533,9.618496641714943,0.06157841859635287],
#            [0.0996708004738878,-0.8724022942300517,1.3237531200545927,-1.429265441311133,1.2248657042059063,-14.568739053203018,-33.47456294220342,-0.18641775777807743],
#            [0.07144165594053378,-0.247154331004112,-0.2933454198304838,-0.5120747189465122,0.07142720264722015,-8.668239505596109,13.521344211928628,-0.011553261930587736],
#            [0.017692819024332597,-0.12302129928624661,0.007298079930130375,0.2766060379100301,-25.822909297574085,-0.0048267819759830405,0.3795344309429163,0.0070055602132449825],
#            [-0.05119688217054263,-0.01589650613169258,0.6622322894464268,-0.1511930449703037,-2.8335150879248845,0.5936323441253424,-4.1830967979113725,-0.02440040154591226],
#            [-0.06278121051999286,-0.060100022518525587,0.2819892043315985,-0.6859780823745013,0.5909776109044385,3.9409514214857153,-4.785713799113528,0.05745154564040675],
#            [0.04492118388248245,-1.4029056375502458,-0.42019988049171997,-0.2554468567450222,4.655144719407942,2.790442326225594,2.4170886732173313,0.04908968465312343],
#            [0.008541890226102772,0.46995943492972636,0.10331034414567677,0.13701287657392425,3.9428729046737345,-1.9887358525824066,-0.934947399056852,-0.026097041489733006],
#            [-0.0029419700107090356,0.32725069298575826,0.3674132345168197,-0.3136440877644677,1.1420824887392786,-1.7149964252866368,-4.712471314835732,-0.013969316240063322],
#            [-0.07186514688437246,0.9088016559828787,-0.0041311421207466635,-1.6200467483860825,0.1811009674355842,2.7021147362012403,-2.325613204762184,0.15920191426967026],
#            [0.09062244386784571,-2.726207046015043,-1.1362819286367314,0.7394301127972488,5.2099205770844685,2.7406751168523944,6.808077917400455,0.019966153476778544],
#            [0.018928639195344564,0.36055560112333596,-0.6210102635910463,0.25000350729787824,-10.147570659241355,3.5154729772600293,1.990957543336619,-0.014154037771719636],
#            [3.2477974127110287,3.6781159110589474,3.0407292277165947,4.175330043883167,6.793513520641141,2.5272714046193094,3.729666950377638,3.400740634208098],
#            [-0.31230170299059595,13.446235062984687,-1.8609342442637522,0.522336219543751,-11.13728596031924,-10.255390271597205,1.9234223593608115,-0.25929397796684683],
#            [-0.0870935815237919,0.19543499361033964,-0.09109516033709632,0.9981026984262162,7.051190045208205,-0.6953040710502125,-0.4071222859219801,-0.06353928628748774],
#            [0.006426193396484448,0.9025013872519468,0.15134284694003905,-0.30862844223520675,13.887001191370368,4.516041966751564,0.2577500594167686,0.05500981391659051],
#            [100.0,25.2704908004106,-28.70690129936046,-21.72864313469099,100.0,11.131292626954046,100.0,96.2170609764336],
#            [-1.1922868208379547,-6.698537417857503,6.0388996253857945,8.54792252280827,-5.229619867090998,42.05871725326741,-55.263386841955,1.7758661678980665],
#            [4.210502649300592e-05,-0.6161845582115535,0.20527472469662997,-0.7330916853460988,-2.244187932141748,1.214271294884527,-2.5317242117443546,0.03790735425324029],
#            [0.005562268892489614,-0.24308282658053743,-0.40256039282973194,0.7744548823801599,-4.914347758489198,4.225008286188925,12.001244857580081,0.00014639446015198774],
#            [-0.08328278097907853,0.7934003143901629,0.8138285199775728,-1.376468904636182,4.084773701618764,-1.0444909257131167,2.487674861283238,-0.015923791661274212],
#            [0.06344557735371736,0.3452557215907998,-0.3137227509571184,1.1399530360203745,-3.105601210125864,0.05422673711638296,-0.37399756415867835,-0.0729411417255247],
#            [0.03234605103970629,1.7640878499223425,-0.3151918233561155,0.7926750327763423,-9.05050596622368,-0.3837046389286236,1.7419970271782197,-0.09301711084641814],
#            [0.024924271408666272,26.223549461470714,-14.741626952313386,8.331031989730642,-84.20848237176548,-11.085056307688824,39.603745634500875,2.723270482254532],
#            [0.1823971445362273,-0.14553619913885385,0.4371013938387213,-1.5180914465177424,-2.0184506574554266,-4.459113480189179,0.6904855091767762,0.1649341623644431],
#            [-0.06683104202734065,-0.38321990841578013,0.103672671230222,0.9328556050078487,69.90377345949938,-0.059927525950079975,-1.668553935714566,0.001210907202444403]
#        ]
#    },
#    "inbias": {
#        "DIMENSION": [8],
#        "VALUES": [-232.94999999999996,0.1480821917808219,0.1499801725792742,0.15,0.14967742626374878,0.5126778584105744,0.562251177209798,0.14999594117001167]
#    },
#    "inweights": {
#        "DIMENSION": [8],
#        "VALUES": [0.11666666666666665,0.0019178082191780822,0.030437922391570393,0.07777777777777778,0.010752458115377216,0.008439660627948604,0.006910098368476977,0.007777831951432167]
#    },
#    "outbias": {
#        "DIMENSION": [1],
#        "START_COLUMN": 1
#    },
#    "outweight": {
#        "DIMENSION": [1],
#        "START_COLUMN": 2
#    },
#    "two_layers": {
#        "DIMENSION": [1],
#        "START_COLUMN": 3
#    }
#}
0.09124547166301814 4.157202496236008 6.5348940377747216 True
