#{
#    "Notes": "Converted from Lmax_T96.net",
#    "hhbias": {
#        "DIMENSION": [20],
#        "VALUES": [-0.3204647982900437,-0.2703293951265848,0.08664819058225752,0.3243862977761967,-0.39278713316294267,0.2653320500029092,-0.04547864510988704,16.930227535458577,-1.7078494064026228,0.11618938604015669,-0.31410587376515703,-5.00554181079039,-0.3619983767576356,5.915760734914944,21.733642655508707,-0.37045938101871206,-3.270305641771594,-0.4521221776005396,0.8226787725781325,-1.2397430778850584]
#    },
#    "hhweights": {
#        "DIMENSION": [20],
#        "VALUES": [[7.442038531761631,4.514487339444737,1.3957104541243266,-0.8280642915960873,-3.7490500782510443,-2.605468351468205,-2.022884708173667,0.9696102775744975,1.5030531794744926,0.8578716490770516,-2.637846576251794,-6.737013198876668,0.43626614452455265,-1.6101595328242926,-0.5457624339865844,-0.5861166527100964,2.0475605888405517,-0.3519297056143766,-0.7779789796318891,-0.03325864940180786,1.3698140909614374,0.8778637513821042,-4.618852809495494,-1.9306222718924608,-2.0522366231370026,1.7063060160567558,6.7826823205055256,-7.239752520321574,-2.9727057483927415,0.856355211299831],
#            [-2.082112526124432,0.4730843681843645,0.278935139504829,-0.13620928334671392,-0.8008408922199481,0.325934640375786,0.25392141576846694,3.587656196882717,-0.952822388155457,0.3111658249568075,0.7071188746922877,2.478389158031811,-1.0582134227937763,-0.09400749928943851,-0.8231984544826959,-0.5035533603644102,-0.37229545973152406,-0.17168774068921935,1.0803909705524197,0.5826036851227385,-0.9403568034114194,1.291480633812759,-0.37899002245932767,-16.023673654718028,0.678458802917125,0.26656993306619026,-0.8297026382130406,-1.8443329938717457,-0.12705657179289329,0.32355243810091494],
#            [-4.7597103302035055,2.5090648532474473,0.012316147566142016,3.684327794940338,10.011240664344166,1.1718890164127271,3.223702210884558,4.079787049240976,-1.0901826537761539,9.088285574078988,1.3744458230164498,10.669218217677294,8.105459722167987,-1.157660912001197,-1.7541538036854476,-4.51807490198524,-0.5872592853710448,0.5757641077956448,-2.2652312640868635,-4.084662418983081,-11.891868161574006,-1.6902842844962365,19.74895650237418,-6.332143378230801,2.626212736402172,-1.3374637409727408,-6.9183468608503995,1.9974613452365706,4.3358526805846775,-1.0766734077106739],
#            [-1.8177159405534136,-1.0537706189739477,-1.3271513162834603,0.15911263144142596,-0.37564982571778405,-0.8427984291471919,-0.8473983606248708,0.12769392716541134,-1.1024996687280206,3.8345574102804063,0.07790844451729605,-0.01514187264844953,0.2742249177252597,1.7918432590511137,1.6766906288121972,1.8882672172089332,0.6523857345191162,0.812667290611033,-2.8462511873113296,1.1251180016513258,1.8236855434388972,-0.6106954142918068,-0.687052636046728,7.744277571384493,-0.38179653086447796,-0.17464506201399602,1.8708845033349606,-0.892297555858825,0.4253649881875713,-1.1816359803768173],
#            [0.626635092322827,4.325826990413758,-1.5744125055370177,5.767460137387403,-7.052667239918805,-1.3350531060457285,8.950489702842948,12.572259903775828,3.3709940564040695,8.65973202909779,-1.42296145839278,-11.886318435029962,0.5612667925052199,0.5595408256451334,2.7242865353742807,-1.2013720350117016,-3.6729119673348944,0.0007263134548468198,-4.450972683874096,0.1648926079132049,0.21252083807420377,0.5928777824821697,-24.327992544189126,-32.085948426199835,-3.9015617321439837,-1.9544363073998956,-36.20097819555124,-50.292294269365975,-0.625949653107874,-1.3320748206803261],
#            [-0.11842726585114377,-1.728705177161583,-0.7477606092756871,-3.5579535942284224,-1.9630734259404294,-1.951405407559583,0.7957851508834842,6.247221252505848,2.781807960718467,7.115842965756855,-1.525600135985024,-1.1881856844581655,-2.0543597198590375,-1.1221708331162836,-1.4666969127722806,2.1183346256725275,-1.7955025639315565,-3.5886666270636094,2.1604310480360867,-0.143034477504795,-0.09438732443439728,0.8902099180726538,-1.3223038501696642,-4.036147346921566,-3.6952825399490976,3.3342554918860614,3.0389424940509926,7.669933808183458,-1.1570035050156404,0.7462935765508789],
#            [5.718651102209887,0.5276778609458483,-0.5881185414894029,1.2249719297908221,1.482345541171194,-1.1185370436201916,-0.4782396543586437,3.635084769926375,-0.25719483058612536,-1.5560522446360736,-1.7919927820826274,-1.5860469690428658,1.2103381496079924,2.221303908059953,1.529910431027728,0.1947553945894561,-1.0164548166044614,0.12456527222699026,-1.999137748950222,1.3088608322302635,1.4176572719034346,-0.6837701176120328,2.194575049585333,-0.31227899840025636,0.9402941228292092,-0.06979844071451301,-3.432155860026567,1.8126697240420913,0.17639614694483963,-0.8109919270999308],
#            [-60.601750175964796,-0.7275983228816666,23.58410285982826,-52.94477093817671,-13.914775125412234,60.746737877775324,-21.324712697611254,-17.67529221073146,-12.936500450397363,-100.0,8.738391747191553,100.0,34.92297717611371,-35.57159996753928,-6.716809548808805,82.03631649421071,-75.25608396587563,12.911108925852085,-3.628529102067208,96.00374563204132,-3.1084724315980456,39.822539314840846,100.0,51.882851339269656,100.0,-13.94873953734686,100.0,100.0,42.68829251814481,-73.19733932615321],
#            [15.696303389653146,1.875707227574693,5.116467112365724,19.345806202521413,-50.04415999723321,9.347276864097221,-12.669477598920869,-7.5888251685605965,2.68018957035012,-92.39024584588255,16.961840080183638,26.171127371692666,15.662769439427837,11.162641206101705,-2.3690333425243026,21.687803450556814,-2.343196749860862,-55.48196356529691,4.159387082064527,-0.12247304821422975,-7.224915831633681,2.103942722518712,-73.65723609686405,1.052398164675504,13.831439920556704,27.708392759827948,-13.26028773964842,-90.25996743628114,6.58892844610619,-13.17914804032484],
#            [4.520672940166061,1.5155607071995585,-0.945187792900716,-2.037146136429835,-2.5334266281519633,-2.1833305508458434,-1.601689942721755,3.987284478107198,1.5114901049831277,-2.1778556154761963,-0.8876595407886557,-9.607299281532026,2.290186566352758,1.8201434803845724,2.077832369211471,-0.9362878210298183,-0.033814291636387626,1.1428774165196536,-2.3194439236436315,0.5114465018664258,1.4467554740418729,-1.2948664996098556,-0.005743716430892283,-12.519630960721868,-1.1322830367637402,1.404241294449652,1.3887753303488108,0.7646661163998928,-1.1087179033026366,-0.3587151241511367],
#            [3.8921523646479597,3.20290484193664,-0.5308959445787823,0.3504359295586299,2.290957332645675,-5.588472920392759,-4.374939739126237,-4.097346164046059,0.012548351543790274,17.848131410180642,0.6438593161541741,4.880608273167737,7.155649297314335,2.6429152763139188,-0.08209140383586959,4.046307498815161,-0.050601588945378154,-0.49206015785753004,-5.623449317902943,0.3744090143888178,1.5977409404968828,-1.3968406274111014,-3.187115923426957,6.499717361406781,0.05334320865692259,0.6248863099701298,-0.4248168777263087,-1.0598931507086204,-1.667517256796867,-0.20283988456616478],
#            [13.22829979355587,8.388714711688607,0.8631555750432864,10.877003763082255,16.28852440376623,-8.328508625992335,7.386654422263336,-11.575145779291187,-2.596721845211616,16.414409119311618,-6.492077975332794,31.24588359330857,29.91302669841226,-17.16838234345377,-10.218239634619682,1.14465335447748,2.170652136320029,12.708820708995084,-14.328022163611587,-13.585495426214964,-13.188442525782513,1.8203616884086509,19.094828805350495,16.320296418210045,3.1628457037017723,4.137340518404664,-9.64118186111434,-1.4725146039982806,3.143658951511726,-0.5176179213964],
#            [-19.134272872018375,-0.4199053385596666,0.8428791928287644,-1.6959336744458264,-3.3085124696686576,-0.16689549719818153,-0.8368009300966348,0.4840446389585461,-0.8557626035024589,0.818076621658565,1.4511102693411835,-0.49541040445627277,-1.2521902721045597,0.8500069123969322,-0.338371697501831,0.27820373625323097,0.003393218086262639,-1.0513901607922644,2.858793538049033,1.316161546935237,-1.1498301019085575,0.09837308845171426,2.5126385644003086,-7.738783692307233,-0.4837984243059983,-0.5035392502362918,2.1329519104633055,1.8515725300560912,1.1793477948220223,0.4924799680999418],
#            [-3.678198040665203,-2.3546354425231835,-5.940679629759986,-12.746743704958192,-5.049807882159577,8.624389527490015,-4.177912801282848,-2.5442206704508474,-3.2880079433787026,35.742311427817,-19.443716439180434,-11.701244123839395,-10.098177278953106,1.0654092925466263,-2.8923009874732597,-13.111713930193512,0.8286359925237947,0.7244213228085666,21.454767101969054,10.154874669322774,20.861152414923644,-1.6977796604052322,19.038590622237262,32.39998976913115,-10.881394137277296,0.7400335522773434,14.121300508842365,45.63241577044221,2.4644086795428115,9.893118295904436],
#            [-100.0,88.91800831264133,-26.98791791695858,12.858423413699457,65.17776094823466,76.97927276606329,98.8212433824678,-100.0,-34.04036114080902,-100.0,-37.34685954907627,76.72710776629434,-100.0,5.9351667952560305,29.545232235056762,-89.40405422827939,-3.040755222241047,-24.111051677567712,-47.40914316139769,-1.2993674980533574,5.886436957067171,18.806709827672766,25.446948170475892,17.046561913158605,1.5857368589462641,-21.533119334135474,-12.929568750811683,-100.0,94.16066145252425,41.232203082576056],
#            [2.3840884212377915,2.412302977942457,-0.2057378489759165,3.6913430232519286,-21.57052377870846,1.6527991504594761,2.425019593729035,10.343787160180403,3.043015960252377,9.499224482429796,-1.0353079314776523,-13.956764935055006,2.624305038009773,-1.0052604226274413,-3.1734702910702928,0.4024541847955561,-1.445403005639467,-0.28029046261779805,0.7419874458213627,1.539578650786211,-2.439479039822935,0.019179556117249995,-23.297528257438994,-22.510312743346987,3.394049056678656,-2.7735361556437703,9.185985951504541,-44.111442515215,1.0706933132264589,-0.9443485152504884],
#            [9.156564180576806,1.6447659865929536,-4.755714000268427,19.212291649475382,-20.344266191492064,-16.373435497303635,17.643376800323047,5.090274961987781,2.45704982678123,47.79266392375466,-1.6320344450817075,-49.86279715775859,-3.8794494191003697,0.8775712937339469,-3.4693555893545835,-12.209185972307608,-54.61696365805172,-18.144512244482048,-1.4013408522696393,-5.063852315827488,-2.864910380697106,-8.560376137055016,-27.943793675058664,-17.94305336603034,5.943025449364941,11.309379791893383,26.706738913998723,-41.04620277422538,-3.8128473502411926,-0.6665219315975612],
#            [-3.693856098541199,1.9923507079995555,-1.2094192838772173,-4.590924370759251,-4.1506684466581785,-1.6908108626953688,-0.940387986063219,2.837921219203544,2.593237547957503,-5.387531157497303,-1.1105598297819603,-13.001204220446763,-0.6875325928220247,0.8559874414075146,-0.18736751189298634,-2.9660046344776156,-0.8458853473879291,-3.2606224560686985,-1.4332225517323554,-0.29673650719660566,-0.694908656290943,-1.1704076151971248,9.972105924906952,-1.0804373133140124,4.70338436498347,1.965312041451819,8.79179316394146,1.850803987958805,-1.3391385284772328,-0.7317243256533712],
#            [-2.77431262756762,-10.967450509690696,-9.318882364248914,2.923954640139793,39.17232844563175,22.417883563180084,1.8324634972701117,-20.258768698239287,-3.374047459290503,-60.99058025713317,1.0213243582427989,-21.118937155740056,2.946286568161153,-0.03873370630612728,39.41395134701743,20.349844118565453,-8.804127447522827,0.5720366448053696,-10.929171732651248,1.5685909638045357,-14.534273005383957,0.8566236381516327,24.894742622540626,39.858614242564045,-11.81743835488606,7.67185177284912,100.0,49.99012277751626,-4.961693139117613,23.919420380247157],
#            [16.529100735687546,-15.374886614344055,2.8870201363247308,-24.815450080606695,-18.31574281505048,11.554720462935446,-12.56371309737685,29.294848904237963,-9.478633519283752,33.085279252408455,8.748101343460535,59.37883242488813,-57.946265558135124,-10.2607218002015,-1.9295281461549365,48.63436642516316,-12.1407691108251,-51.10236424177567,8.709691818624691,62.922155677124195,3.698229558145618,24.21105181211601,-87.9182573208823,-100.0,23.678766906684316,-10.091083559429507,-15.75427891927986,3.0363877038169935,42.733389922044225,3.6848009892888145]
#        ]
#    },
#    "hobias": {
#        "DIMENSION": [1],
#        "START_COLUMN": 0
#    },
#    "howeights": {
#        "DIMENSION": [20],
#        "VALUES": [0.5121504476992639,0.8142151323005131,0.4519585462519707,-1.1025807125048837,-0.6132422264403381,1.1008284335790923,-1.164513832467807,-0.12570492475163642,0.629594336806563,-1.5131023728200628,-1.4003831398949693,0.2982670372985008,1.0529283545444974,0.5858917048124149,0.4609845682711566,1.811753860850294,1.2299019371335884,-0.8098363443765254,0.7643255851625058,0.5979447872523451]
#    },
#    "ihbias": {
#        "DIMENSION": [30],
#        "VALUES": [2.3413896752338674,-2.9419875021657957,-0.8131546950686146,9.56482079528082,1.766277271640251,-0.9575834792853946,0.6494281187999094,0.3640188492931236,2.3558704047203767,-0.8264124584670124,14.510305618105612,-0.6606897691949931,0.20694455467261688,1.0656120728762815,0.607887723424301,-0.3940129562613001,-2.3548191896923227,-1.2095866902856167,-0.6255218784343084,0.6536041324173186,-0.09219170809456001,-0.34667218763918645,-0.34323284575125657,2.088893301824062,7.687414338821149,1.7960590518103308,6.667849632443547,0.2688320359014514,1.1614963650348566,0.19769366724825174]
#    },
#    "ihweights": {
#        "DIMENSION": [30],
#        "VALUES": [[-0.028433609584666297,-2.388121017473528,-7.424866503556517,-1.5367354111324527,0.923892329850168,0.9463178924570721,0.12305340108617847,-0.0763007795207433],
#            [0.0035335744022362355,5.1532582302752505,0.5491871335407966,8.884320434023394,-2.005120848306867,-0.6011621449076899,0.6482080070130791,0.16922001443335813],
#            [-0.04379700143454521,-3.783721807368947,6.7431067259017805,-1.5624931764615315,1.8820567753650232,-0.3535537341409001,-0.05690128966566858,0.01706334392441534],
#            [-0.05905205277168703,-2.819647107318195,0.0750324352856192,-0.047764294449895446,-0.8078648511226446,-9.07106444732187,-1.0841172997401145,-0.11833191948032178],
#            [-0.03641433192711161,-2.19037235326033,1.6506534801832915,0.5235592607303902,-0.3970727450735541,-4.326303454342213,-2.829707962422544,-0.009738733454262561],
#            [0.014704743737832215,1.0037451805838011,-2.293567054967139,-2.596680231984214,0.5666111152410216,0.5215366661760208,0.5113132058718671,0.05372655488685116],
#            [0.06147269932144542,-0.5132094757407303,-2.88166309588664,-0.08558249100893975,1.0526560004506391,0.7542577982374713,0.1810812118163118,-0.03473470499692823],
#            [0.0021478396129017718,1.0591158548749036,2.003818416590226,-12.463449050047668,-1.5748231577972567,0.6917424483266015,-0.359447604938884,0.17630980276404565],
#            [0.2647756949002956,-10.239364270502042,-0.8417196438043468,24.92553179595271,-3.233983073702446,1.04226789738421,-0.3286590381234142,-0.1879697277258513],
#            [-0.028984112174458912,-0.6526392779426222,-0.8273408120211042,0.8646685096053961,-1.3900997902458503,-0.44048833614939986,1.4241218352465022,0.029117657126819706],
#            [0.0017423430427718637,-0.11862355498112725,-24.970213965178427,-0.04658743813382441,-0.3924203683298973,-0.28295248837012,0.029605553308361614,-0.060955731669888547],
#            [0.09014859463323362,-0.2571805970021295,-0.590292522101997,-0.43524167734269065,-0.046612847053883084,2.301612107421102,-1.5916411861964515,-0.13675555871052],
#            [0.017211145834494578,-2.3849234312963636,1.6304352439869223,0.6463753895424562,-2.125824687397917,0.15702234654454084,-0.7692479141313,0.06891259596534544],
#            [-0.11644665249157758,-1.329484324760502,-0.24344340068866918,1.7316092754333947,-0.7966479523373936,0.9677899005759463,0.18703989745251398,0.33605446574893205],
#            [0.01239143321165227,-0.46440756060795996,0.11763413685586942,0.1641579200504012,-0.6862508831633797,1.4477093195159625,-1.7495886024894305,0.053289270335422606],
#            [-0.11991435953209434,0.5847947129256705,-0.44525872644618225,2.715273874234062,-1.7016966098514912,-0.8962322333690556,1.7221695317516426,0.19022014966267017],
#            [-0.0724519840688363,-4.107319271890695,-8.655668914925645,2.1805730526054314,-1.1953435858358696,-0.2663953266962422,18.202636229700143,0.19650964711797164],
#            [-0.04975355536030948,-0.5320420373255397,-0.8565477009220371,-0.8119625204741292,0.5870669320091343,1.8713435726643528,9.198224794361606,-0.08337824867165275],
#            [-0.04617406500074149,0.839716997441124,-0.05041353345877818,-0.7759647156805212,0.7182420630210311,-0.8869426855214385,1.1868162325503573,-0.007162732763267838],
#            [0.3078457753831066,-0.7528362469683851,1.198118699892685,0.1034492920090901,-0.8905145379726279,-0.4729824078836354,1.668674128146735,-0.8026103134549902],
#            [-0.0667558289622285,-0.5813356439826046,2.317568653335372,1.0692132063172175,-1.0684054262701237,0.14641534212806323,-0.09322409274464713,0.2550167227441086],
#            [-0.21528793104780217,2.0610085519769865,-1.5965203988550503,1.507443674230439,-0.7090695898461736,0.1748743968739734,0.3022579633065517,0.7836186048144426],
#            [-0.03643917141938982,-2.0319808086958884,-2.494420153333858,0.5310387206928368,-0.3893895424500829,1.4134534946387578,0.419988223332659,0.063365359750502],
#            [0.050359079592642485,0.026670328604567316,0.6177030602243154,-17.11803802893295,-3.4902848324172884,0.7062525663773797,-0.16723804169516918,0.15096122238736126],
#            [0.0626629838913859,-0.8656369615161511,0.4670000015293517,1.1266584126142463,-1.5390869285320403,6.405577776880156,-17.057068043520637,0.10176933235310547],
#            [0.05043797452709696,1.44841228241764,1.7547113784716444,0.31079305386048567,-0.9587319497115061,13.338326326813654,-12.682889653829127,0.01207296132484742],
#            [-0.006187897697551302,-0.7667098155737119,-0.01859361277717699,-0.08651631672768928,-0.1592081864171601,-1.9126740539131566,-14.584434839923974,0.047472054410692556],
#            [0.03571041860211897,1.493904028459749,-1.1347581414255066,-0.35463030311156357,0.7037678507992297,-1.935634472537747,-4.457279423798805,-0.025475898447402813],
#            [-0.1477977516764314,-6.376220635021985,-0.745008641243672,2.4813216562780194,1.809435091689792,0.043916637994836624,1.1023222915288158,0.48349447506933335],
#            [-0.08833848764240822,-3.2514512161505444,4.953685627065893,2.031996397590071,-0.39369017135033446,0.5543053186168069,-0.09885574416527478,0.16887335617416666]
#        ]
#    },
#    "inbias": {
#        "DIMENSION": [8],
#        "VALUES": [-232.94999999999996,0.1480821917808219,0.1499801725792742,0.7333333333333333,0.11314360822669003,0.4942031043352314,0.5011739775882998,0.14999594117001167]
#    },
#    "inweights": {
#        "DIMENSION": [8],
#        "VALUES": [0.11666666666666665,0.0019178082191780822,0.030437922391570393,0.005833333333333333,0.0737127835466199,0.033884825865963156,0.034893842171696415,0.007777831951432167]
#    },
#    "outbias": {
#        "DIMENSION": [1],
#        "START_COLUMN": 1
#    },
#    "outweight": {
#        "DIMENSION": [1],
#        "START_COLUMN": 2
#    },
#    "two_layers": {
#        "DIMENSION": [1],
#        "START_COLUMN": 3
#    }
#}
-0.09472656493129179 2.4782616505442006 10.497774521054822 True
