#{
#    "Notes": "Converted from Lmax_T05.net",
#    "hhbias": {
#        "DIMENSION": [20],
#        "VALUES": [0.5178539553140427,1.2131334534622653,-4.680083566466077,0.15054504020916556,0.3715795200400218,0.030993661326416143,-0.05500623901085204,-0.11147277263108665,-0.40997271881096675,-0.1389149685439722,-0.3519428492503798,-0.02561139175067247,-0.11131086955492636,-0.17406489407986384,-0.11545588177081613,1.172963166981917,-0.08762565190343433,0.01434499507960366,-0.44560224212373684,0.3182749435120343]
#    },
#    "hhweights": {
#        "DIMENSION": [20],
#        "VALUES": [[0.7105178239411944,-15.409735238748452,0.013699861288955667,1.6692731860938836,-7.227203774232084,0.1470583953192672,-3.760067773357427,-2.1030688155720565,0.8389291574390673,0.9204110353600029,1.0935302192247502,0.06456671806754138,3.6178233850293404,0.09087150349386984,18.67225563448225,0.07199087020686408,-7.211051887974125,0.04226420371142928,1.0893075414915632,0.6783985706192147,0.11377465804166485,-0.13374827659812694,0.8443884447806626,-0.21174925123437666,0.6567426251431361,0.13652551032010452,1.2500801393421663,9.899747043284721,0.3070541704970779,-1.0322030913653126],
#            [0.3754053817992928,-1.3885794070447643,-1.1392716728749834,0.19251894628103017,24.130852291080945,3.174768509222914,0.7976248531127836,-0.40309744077181264,-1.4105918910642088,-2.1951244581479203,3.70923735330183,-2.486841567286385,-10.142204363151535,-1.7209521904118563,2.664622412639026,-0.7054705000520389,-1.5253020943600388,-0.9418208447956213,0.5631887211564274,0.998299830141637,-1.90227528412604,-1.6269812018431953,2.4575963312453357,-4.6956171099023845,1.6971695588399134,3.9784737945890645,4.535420071952289,11.615792006730603,8.46795543291907,1.221267712994633],
#            [-9.483929709903881,-37.66826750931041,-0.12455559367357955,36.53300977357511,57.462458902666555,12.682389177792325,52.813609025633525,-58.37808191703815,-61.577071615471944,-15.735689821374264,-16.29543629260064,-77.96969904671045,4.266579399465636,21.462062205548868,18.367165417400795,26.201442703876733,100.0,100.0,45.114772772434804,0.16687671038011254,0.7675122539424574,100.0,11.908975542823907,-68.31970566422821,29.003047966740965,-25.493486444807484,2.5005347316984126,8.147976307347509,-52.264958303617206,-1.259577869888613],
#            [20.94773698387566,-3.5074571406067143,2.99086207144993,-9.087737277655622,83.71059312454634,-0.8185853486649688,-4.0443208123151475,-11.212782727278253,0.05573947031606492,-8.264433031175532,0.33735801322018955,-2.5409382013520188,46.30134966425123,3.783968050131249,-4.862922452789962,6.8573106344730155,0.24939254405676983,-2.1518091344812174,-1.6561377395768537,0.26466926332753954,1.655068456720249,-5.121133922788594,-1.2073399172568229,-2.4751186925913755,-3.360653224881767,2.3671682749268506,-0.02809226580453693,-3.7013121003186273,0.4983795449601787,-11.178929604939453],
#            [0.18582572886133938,-2.225512544920956,2.025181887970101,-0.3506033195395296,-0.8224845137309937,-1.8421725016429704,-0.18663086854967706,-3.3999243657240616,0.45301261075782767,0.44646600808658266,-0.14519943469566246,-0.552914030582583,-4.788968416984745,0.030743103628489133,2.35348192129542,0.7520609220616847,1.386386031616699,0.2718734493933801,0.08965881439208308,-0.06481717736349346,0.10653414541439424,-0.19477599182038227,0.5525790406873473,-1.0885467213708193,0.34892917677577184,-0.06410269707070272,-0.22131044237803138,2.2132700373756014,-0.5083372065379965,-0.4276164911551047],
#            [0.04627920948328187,5.321762436463957,4.194404053909072,2.654175709449679,67.8944367424796,-2.6691495039610134,-4.943676715987643,-2.379614616978275,0.23475260425010197,-0.8878207156297637,1.1144785202289125,0.5149465728596891,22.853824036027305,0.5913689979449946,-11.185914472712016,0.4182928350238182,-1.8528671976018842,-1.2871912749974195,1.2443179036978058,0.7004876228542398,1.0888301428261982,-0.6337217096539007,0.22680038188720913,-2.645361808876849,0.20581919321872041,-0.571669140273948,0.437227977271124,4.828009359146956,2.122864003527023,-0.2982012946636683],
#            [0.9636270462884816,-1.3527181086168523,0.17393998880978415,0.3029328132803758,18.819451163873804,-0.47860092436811985,-2.5645331535797653,0.7157784910420889,-0.4156277223770948,0.4193791279014183,0.3624129556924397,0.23530598094744182,-3.411389600523192,-0.6739903174815227,-1.5921266468861703,-0.49599406154256975,-0.5590174112969037,0.6355627521343123,0.30197888258132904,-0.09444041189190523,0.3818838322904645,0.6918706935471084,-0.04161753450897694,-0.38595660325100006,0.14542597481120673,0.5132982382533924,-0.40733334935319726,-1.789094407934953,0.7894110050834563,0.23785633732370665],
#            [-1.2077815350602488,0.5987156931383355,-2.4762530565024656,-1.5244034372871211,-94.01519200382292,-0.13406312442252022,1.075916708756339,4.020086315370066,0.10314499307883278,-0.29924914965018334,-1.246727679328238,-0.06714577059828275,2.0693666685841787,0.3185852776263647,1.883648835854102,0.017197468712231344,6.088919767426716,-0.3151829919559268,0.5619999712092207,-0.2319983367653726,0.7722132589549475,0.9810059619653491,-0.20585987550315812,1.9121636185005704,-0.38862351673952467,-1.2947980470437583,-1.9946618723745333,-11.046973151999754,-0.4909543277920818,-1.844352877481481],
#            [-1.2219000736878343,-1.173431307443867,-0.88617662625451,-1.7076242829086339,-66.4427827104307,-1.6435928768729582,3.7084159349421384,8.356590006920964,-1.399302034223292,0.0060693435819535,-1.2532731484641628,-0.4978940214046209,10.591875351273211,-0.682839740694498,2.9056610234313234,-0.9464686558572846,0.5721564307906757,-2.0494435564898206,-1.0983320451249943,-0.8517406083557527,0.3052304807537204,1.1495181928119456,-0.7464562278017597,0.4701500591247727,-0.4143693558974136,-0.24613482639290643,-1.7521180844477446,-6.695720591865402,1.1567164047774035,1.5484111555022444],
#            [0.48149437621008456,-0.6215383073245719,-0.8723002087899899,0.29229406655835155,-15.66894163211038,2.1975595572048836,1.6860813013437175,-0.24789743783268345,-0.15804422711984012,-0.5565226157573482,-0.5338603811905451,-0.4987916803376121,2.1443761944371103,-0.1527474011451656,0.15065234360911553,-0.48520171925037736,0.8248485329186735,0.020987883922719032,0.06630428188326863,-0.32735254015731996,0.626485050847917,1.2693911227525176,-0.2916728570685971,1.248457562088536,-0.012083635832593911,0.2296563324548786,-0.11428704269467244,0.42056795414110737,-0.9812730545364354,-0.38700032116200556],
#            [0.9947434545505174,0.05739334516434987,-1.3206631589998747,-3.487457141654361,-84.63503558176222,-0.6671432160696247,-1.5741976861412585,3.0375475679734607,-1.290092133901747,3.054597464271589,-0.4015630087869545,-1.7358630290482118,1.882799091746451,-3.2594495679256488,10.914562753603537,-3.2255189617783167,6.30679749057303,0.27888134343473714,-2.491146391255534,-0.5032509700590403,-5.939064655593515,6.672572230476738,0.3255639765625951,-0.19294781370248248,0.13112923768474372,2.8369182398697417,-0.1494465656911189,-85.11318322822368,-0.7251701617119044,4.266234699858649],
#            [0.2274249081891825,1.6710680700516307,-0.4515951573758034,0.4397945190646595,-11.05744479549474,0.41521755674735256,0.5199284684598812,0.12215156812994074,0.015991397901105778,0.6871870302324595,-0.07417097710263322,0.15672325187708003,-1.3169646080213946,-0.411838184473354,1.4706536139633861,-0.29082284483465404,1.1320570395489675,0.1277636858926992,-0.4575444901871606,-0.5557623273544886,0.6757798327392749,-0.1828612110033498,0.5070642959874613,-0.8501601866555489,0.26286765944226265,0.2744292673177044,-0.10283243699040436,-1.3327802128447148,-0.023780163440328777,0.5846336108497288],
#            [0.44657147883441495,-1.9391297695693366,-0.9812722310095606,0.10043269186725638,-4.451105913244615,0.4439945718876741,0.5420151815552672,0.24385133161096573,-0.13109098928283158,0.8511083038894649,-0.7741912208321798,-0.689184582735144,-3.0068518079256297,-0.5130525375708126,-0.4039957361698626,-0.5627938656789643,0.1805411454815561,0.22533533115740217,-0.02551005236512595,-0.017353191381622793,0.5584834048595316,-0.388188130893845,-0.3179350922943529,0.3066185412760129,0.07003377967776327,0.17487821091659234,-0.2738123871948103,-1.66418990828699,0.9217870178719125,0.10223249531734264],
#            [0.26014885951573735,-0.6181820627037609,-1.2235827954564449,0.16263649882651157,35.50287424845697,0.09009663663646655,-1.4377580149012545,-0.12816831137295548,1.5005793720821532,-1.0334999600772727,0.8269969746907906,0.6922259822515905,-2.173476574722789,0.7744905170980629,-6.82813344276408,0.7826212407297284,-1.6218948822044283,0.23778864964345997,0.3277007469159471,0.17397391411619187,0.010361650753885069,-0.2059524786014111,-0.003987810898670118,-0.4710331509497177,-0.03524337954898576,0.4123737456099539,0.5643407064000309,-8.03284217586701,0.2023067005103025,-0.05934286221779109],
#            [0.12272700381726334,-5.393584423015017,0.10224682398172164,0.7167911701351039,1.518964668855283,-0.07589876819208025,-3.0129104333887367,-0.8466912674533101,0.23969579546893066,-1.378239786415595,0.6512801600370748,0.5232406867317776,1.7577150858381887,1.2031467366811681,7.690189576801673,1.1908187533905663,-3.9934211443710046,0.245797781733453,1.088039344750063,0.7521481027575979,-0.3866447603730663,-0.36662513226077764,-0.6451137019366262,-0.054890794192162466,-0.5352824697756133,0.06371926512812136,0.3455142030522241,10.542822557757423,0.4712523193991079,-0.8629282141979823],
#            [0.9173070098522581,10.381326396615433,9.40185681489366,-7.806093837650267,4.762811609565532,-12.593067999114638,-15.775892232022862,4.5080107982983915,-5.208549172866036,-10.148014832323222,3.007397662998973,-8.171158793713515,-57.977242361704526,8.291242779549021,46.378788266860525,2.512036327871126,7.760265382563975,-2.900097309201415,1.7294836439579953,-0.4142086271578331,-32.42857971609291,0.6487235743446375,2.603328169902426,0.1702634161242117,2.821987717468172,-2.617594185530159,6.745904206894238,96.35296746535262,0.777781340733259,5.062693430917108],
#            [-0.1955275080084369,1.7695681342422325,0.14102013621073645,1.0985696162017484,3.5696942904889757,0.6603189795924111,-0.44724289004090473,-0.17801894338423294,0.9749466046546427,-0.6127557948037967,0.4581226980050576,0.6576849239409973,0.6772250490809115,0.08355725929810198,-2.7666148170375013,-0.04063336727684304,-0.4537481602234204,0.4178430981109414,0.3045834317021384,0.35644047367590687,-0.1023540385740292,0.9255114743563951,-0.34903341998569787,-1.0646862759350297,-0.08889607485735879,-0.36085090772332273,0.10069455507856542,-4.642047516208956,-0.20965845698823551,-0.06600127774853772],
#            [0.08118911155272052,1.2367358836461022,0.0388102760122986,-0.07848562550303483,2.7307783275300266,-0.251534558403039,0.41469311530916214,0.07948745105471715,-0.13542546416006143,0.6906511450599259,-0.09255784830062165,0.1997164334820029,-1.7262691579294478,-0.4466843511139986,-0.2523312128635646,-0.4071857307426706,0.16776848779698894,0.01171722943801115,0.07751707141607958,-0.4213746184662902,0.36026490951360435,0.3645988359350845,-0.02926848488087277,0.3905569847563097,0.6105502153786116,-0.09024114072292558,-0.5129379394660023,-0.8900478823201678,0.025027222556810353,0.1065412224703257],
#            [0.3505171470510405,-1.583518013362821,0.118478505429819,0.017964280379231375,28.531663542521795,0.27194811437776495,-2.713991745835258,-1.8797967692967905,1.0428060509495063,-1.691709203874953,0.03296410421549615,0.5189249344015365,-2.996706055333945,0.297664640253212,1.994694393640362,0.4716872323645248,-3.4927228949148903,-0.47798830975854567,0.7099176442092999,0.16935048338593678,0.13241825920362316,-0.17549890621751937,-0.36322848592103163,0.2742143029977757,-0.07176491151074615,0.26079646613161966,-0.03618437218500331,0.8377703034921425,0.9719126717669023,-1.172889051676217],
#            [-0.24677668776793213,1.2370393210385238,-0.5393240791744124,0.9108139854947905,-10.145264786819906,0.5099134684811591,-0.12150335660672158,-0.9291497003513693,-0.08895971668078342,-0.5095278220690714,-0.054321528225908425,0.3777235308232704,2.8471562383863653,0.4872582412640646,0.698646098975504,-0.21376263498568446,0.8937581290160505,0.31700174105822565,0.2901313950968266,0.07895350299962643,0.07482637339924057,0.27121290036390383,-0.44615087761575256,-0.2597979881539513,-0.22399588636627812,-0.19360921831789968,0.45184284795927165,4.16464886894586,-0.2141532645616985,0.19012064581793292]
#        ]
#    },
#    "hobias": {
#        "DIMENSION": [1],
#        "START_COLUMN": 0
#    },
#    "howeights": {
#        "DIMENSION": [20],
#        "VALUES": [0.8382927631462634,0.5509725808457056,-0.011268771125322655,-0.5787180903329805,0.6062412806226684,-0.7024995791189661,2.2641161160796277,-1.8309993848341004,1.5536440870319894,0.8077288406185964,2.3536496522434796,1.653902139284681,1.3390417210378118,-0.6700484604478805,-2.0640469067351535,0.13587867502675147,-1.0208197562125068,1.4837210931486084,-0.7942299251971081,-1.2069564187342978]
#    },
#    "ihbias": {
#        "DIMENSION": [30],
#        "VALUES": [-1.7049655513934865,-4.039077786649094,7.958966950221022,-0.7830885655453929,4.500799853890532,-14.731009442714042,-2.6990629618255033,-0.3373424671392214,-0.5944097025554079,-0.6516222530497179,0.33235927409583,-0.25895163279456596,0.8494614778887192,0.2685539876643115,0.862753259657624,-0.06756953256765061,-0.07026227442600333,1.4950801296341532,0.8211722639611172,0.7571747415143868,-0.4088834782956523,1.362351909852635,-0.3551985851705309,34.63747499721807,-0.6114814562484668,-0.29709981688878045,0.40220815248871644,-0.1451655406933524,-0.09437506738663089,-0.362671198374846]
#    },
#    "ihweights": {
#        "DIMENSION": [30],
#        "VALUES": [[-0.07577591681658019,4.268355417922375,4.7823450133982615,3.792371725316928,3.9191012840089754,13.906800781582906,3.6809889031950656,-1.2184741783312858,-0.5058331108735103,1.2434579131193304,-1.8273812697496807,-0.3164718426190889,1.1383892325119818,0.16998045674588805],
#            [-0.013122135679507417,-8.864457475011859,-1.3538396719278394,-20.965837010178845,-2.05745095860557,3.430503094567422,3.6190636799963825,0.1689100297731257,-1.4531769658061795,-5.993217389476666,12.348524868399947,-0.6733159555217825,1.02288236558931,-0.0508011678311331],
#            [0.03929458467341075,-25.078309234116936,26.807852694217075,-70.51348443807133,3.0938320712814837,8.847492335980307,6.879429938709328,1.5770202605587524,0.9137390607440603,17.839103728615687,-4.233965139366036,16.51029964494076,-22.793458011681306,0.13092448641884555],
#            [0.10859466343686973,-0.2544403375667475,0.9872126673261168,4.225210394189466,5.784713569849023,0.6615150437481747,7.3646848969273995,-0.07391157513470498,0.33483149515453153,0.7197978657045234,-4.77131470076837,-1.4824901510634556,3.802751390413183,-0.12049640721793506],
#            [0.05080970862755796,0.1569503803156621,6.5433329618919345,4.874531787697349,1.0597797498168342,-1.2108224234389857,-3.717456527759218,-0.769107059287884,1.2014209781168466,-96.90865154648986,8.60842146981159,-0.0691922905252361,0.18223441103756913,-0.04575598995663655],
#            [0.15818172161897326,21.408828830510142,-2.781210020291553,-5.527175329262798,-1.8490703490143774,-2.0249254174041127,-0.7867851614487484,4.50166697496369,-1.6752553065145337,-2.4526049236771956,1.301998062582789,17.024311827582764,-2.109689741250263,-0.08286651662969172],
#            [0.0029767766924804055,-2.921848598126158,-3.1319829079979966,-5.167345471810333,-9.76621685032674,2.0560189720847295,-16.662743847277365,-0.7820503432234955,-1.4771729682796058,-2.736156317703644,8.795375966974458,1.4689150911493682,4.18709163522343,0.0014924184976081568],
#            [0.01978199501728532,-1.101795597718076,0.5514897581129784,0.7635997275682856,-1.0487634716768648,-0.6906952011895668,-0.41117387910851194,-0.6139767016712173,0.17606336998272062,-2.777682331558576,0.6657060829422755,2.084833260913422,-0.8586983609825646,-0.04489757936677659],
#            [0.08278863424395376,-6.344862394178833,-0.011198429237550878,-2.001072556310409,-4.294427893895717,5.5089145670556166,19.962780162766126,-2.9323224419280693,-2.1775573573359512,19.427372229024893,-1.2289121030568615,4.436177759886336,-2.5546494333602,-0.19639184566414605],
#            [-0.09032042329738016,0.0669112376286231,-1.507788342521113,0.21447672762543424,-0.9341752592334065,-1.178689883009572,-1.8596909223684066,0.8631166089465279,-0.314000941578329,-0.33006128587779626,0.9768088360513862,0.28630153936413827,-0.13032905428891547,-0.008921420328294412],
#            [0.017016650332696264,0.3584081737217361,2.8051856899583627,1.5460790177554018,3.24972039899145,1.4267008628660502,2.0989704778086287,-0.6376102018592711,-0.11737495314726604,0.9907515864017127,-0.37881635752702114,-0.7088961729661888,-0.3116652537993464,-0.2330979631780368],
#            [-0.3174615487935534,-9.762489769202457,-3.9254029729302107,-1.5988561989495782,2.1394003289263996,0.5843716342400513,22.210268135469942,-5.446017882416598,-0.545569193719287,30.278299717889258,-0.3029426519722308,0.08035170706069013,-2.0610060175436415,0.9424383772200886],
#            [-0.0228932265038391,-2.0363423990143854,-0.33396181365265826,-1.7127003956029723,-2.6474598556199207,-2.140063543133824,-1.0513291062727061,-0.25916488275143706,-2.8649638109603517,-2.3121597059668515,0.16342561422347274,0.18374957267022707,0.7890809965824641,0.00637225974734328],
#            [-0.12164433384961892,0.17532640363328755,1.4351024383634219,0.3015016416330907,0.8730539634519884,0.11340349975079163,0.8116161542656551,-0.5429835699657257,-0.14208843380738692,1.1385697850657124,-0.9844432382798368,1.5227657883946295,0.4682184293611317,0.18083733566179716],
#            [-0.006637971143174012,-2.0881374760713998,0.25732318159797923,-0.17213383522505893,-2.025262352424552,-0.7883808723330138,-0.5852299853641687,0.961252544039975,-1.1331616697384477,-4.140747377850154,-1.3411973612309054,0.3620933253692543,1.29731375717,-0.032650649920165184],
#            [0.04481901935620654,0.9378163386232782,2.0170633883882574,1.1211371704262783,1.75511365607878,0.5935272632661059,2.61036588573599,-0.5408956318257221,0.2240574986861977,0.45254174845941064,-1.0618508755849314,1.9937539556775168,0.10300659458672212,0.0745865905330377],
#            [0.0026209511483113864,3.329210414750308,-2.441011844328497,1.9193252327714794,3.062320313241694,-1.906502759664728,-32.623961977004974,1.077220227758692,0.24339069689220816,-12.633432023923854,4.870515499814224,1.2584765682416055,-0.1046491596145121,0.11305028540493885],
#            [0.12769799044631894,5.196709384604499,0.7832810173911887,18.38679596425518,-0.26562298935279577,-1.887047791223954,15.023936999852225,-5.10605150629226,-1.913300407280567,18.76468224171717,-11.925570338071122,13.546080596993304,0.597201078391461,-0.07499170702635871],
#            [0.1556135015488217,-2.8074666483183823,1.6304043083089679,0.9227107304401119,8.450493167959166,3.5604686346334686,10.869962444397444,-1.8664332433545947,-0.635403306640054,1.043504169321558,-4.234308640685672,1.4336902724575078,2.0183655549492063,-0.005383541283238985],
#            [-0.359080804405761,0.6471756099478775,1.4084982377987252,1.893845686051652,3.9832536802323917,0.5651414731020026,3.572680993987956,-0.796231892086531,-0.05910516364608206,0.1187041992216261,-0.04811723750065566,0.5394242456382424,0.43143107263720876,0.17007474802375322],
#            [-0.05956459372398987,-1.939995842893305,-2.5332929219579405,-1.0112816965213136,0.8666706836340647,-0.8219789024056444,1.3447723714323874,0.6632291041022128,-0.5800554451990259,-2.6821946938627725,0.28323667341507847,-0.4409277295777702,1.5534839796392066,0.01091425762026934],
#            [-0.03580845342139121,7.3475064349592305,4.3356422814485684,8.093164396240319,1.1549639273836625,2.016969114126043,1.973478703061004,-0.5803395397685787,-10.57408545999346,-1.6680786155366354,1.9900877414133438,0.2992966780498806,0.5242380357849862,0.02619588361982586],
#            [0.3472738298546965,4.259117191405385,1.1104730661405615,0.7950479096423211,0.6270452589555046,-0.7410426851388968,1.520047896407198,1.420748578547892,-0.29983220798752,0.8032528051864782,0.9716326550911927,-0.9016648903765424,-1.1804849940794264,-0.220089300709851],
#            [-0.35018049815907015,-43.11431400732197,-6.6529963630958475,-85.36133784497034,3.3559417338517075,-3.27333947524409,75.34374284253175,2.454550246051546,-1.4830102693704925,-1.9097996915641124,2.097450176514332,6.663470685491295,-51.549909162445296,-0.022033938929583777],
#            [-0.3307725716083031,5.12590660982576,-0.904093210138957,-4.016126649220656,2.169347263222863,-0.24168321280121963,-1.9725952507631939,2.9561140868340283,0.9703921358868755,1.6807104615473467,-0.53666291985289,0.09698184438190569,-0.6684092491943174,0.5412484486448371],
#            [-0.027453837905834055,-0.49033899331932346,12.765959433939528,0.37393281307930637,-3.8505961776843662,37.30071902131088,-9.988094898539108,-1.6795528136887192,1.0854491068003078,5.422390434975273,-3.7822161530929805,3.2859669440985133,-4.6181834457455295,0.3902716954547095],
#            [-0.16993057197197023,0.1823389799964005,3.114060139010953,0.3127492699162663,0.0713412466383287,0.39095009985543155,-1.0193419375735546,-0.8009912224291104,0.5529709388339447,1.3675641483932983,-0.5075451161948178,-0.9901357504005242,-0.29382496866502045,0.23275123750269508],
#            [-0.037460437339276086,-0.2095676565199126,2.837128999262956,-1.8354681898391925,-3.260630270628023,-0.9147557401156737,-0.5137268664350152,0.12882957178842552,-2.9861651835302156,-1.7661928146098762,-0.44773279117513415,-0.3044693404655418,-0.7316165389003079,-0.011130990861750673],
#            [-0.08915164382813145,27.151677701657455,22.98062025372754,-38.11579073297457,-14.189768483956493,-14.973312648427239,53.04813785306565,-20.85474177613989,9.211324253872608,-38.47801540419164,-19.126436111218915,10.619406195396133,32.86231534947365,0.1303439916978139],
#            [-0.0329449503539729,-0.23087375876847185,-2.5411556723413975,-0.8725455184124555,-1.4000955678514506,0.05746779764216562,-1.9659160747195197,-0.09806198111355002,-0.3696931523484503,-0.5276552980071976,1.2330334368294105,-0.23550082197061284,0.039139217971305144,0.10427481461529116]
#        ]
#    },
#    "inbias": {
#        "DIMENSION": [14],
#        "VALUES": [-232.94999999999996,0.1480821917808219,0.1499801725792742,0.7641372141372141,0.14967742626374878,0.5126778584105744,0.562251177209798,0.15,0.15,0.1497169726942329,0.15,0.15,0.15,0.14999594117001167]
#    },
#    "inweights": {
#        "DIMENSION": [14],
#        "VALUES": [0.11666666666666665,0.0019178082191780822,0.030437922391570393,0.0014553014553014552,0.010752458115377216,0.008439660627948604,0.006910098368476977,0.05208784560833943,0.08360144152477479,0.037346192417298016,0.014514897283522003,0.03038211240173109,0.0065380331939763805,0.007777831951432167]
#    },
#    "outbias": {
#        "DIMENSION": [1],
#        "START_COLUMN": 1
#    },
#    "outweight": {
#        "DIMENSION": [1],
#        "START_COLUMN": 2
#    },
#    "two_layers": {
#        "DIMENSION": [1],
#        "START_COLUMN": 3
#    }
#}
-0.33105540321007976 0.1675437564660096 20.313613410279363 True
