#{
#    "Notes": "Converted from Lmax_OPDyn.net",
#    "hhbias": {
#        "DIMENSION": [20],
#        "VALUES": [-1.7566879250779373,0.6167308638955651,0.1942550216871712,-0.29591874129861284,-0.2550817032388783,0.05358858310550239,-0.256524109315455,0.21570834188304175,-0.06644860594426366,-0.38768974725678196,0.3781690379111563,0.2244576847827998,-1.0058449062172006,0.14739328890864414,-0.21051337914062165,1.9722606512045153,0.3405346402681922,-0.15623434475944117,0.06397089675832407,-1.4755120024998265]
#    },
#    "hhweights": {
#        "DIMENSION": [20],
#        "VALUES": [[-0.3123992349142131,-1.9049643969469343,-5.850639717013327,-3.954819583723359,12.351906359914572,20.564553450042407,-1.2861865748956294,-4.966543600821013,2.360894210211995,-3.5761188306852683,-18.88080107783211,-0.6183398648524391,-4.294771224279532,7.287980180828141,-1.501680874048249,-3.642950013528686,-32.17112265187437,-4.626704357494304,1.993975941419238,-4.940815500846535,3.693185031821643,-11.10957497686277,-8.152136704226361,8.915175776401227,-18.77140352942369,6.2974173941213625,-6.356680102582078,24.861225588976044,0.3977939912379173,-3.0863236977230835,11.610890350955733,1.6603214962294623,-7.9764714290371685,-13.421494454710775,15.911183190359365,-1.17257592107016,-2.5618306451600126,-0.18193487484621196,-8.807997486838623,9.602599213366975],
#            [0.6192033988568043,2.972191621735153,-4.914837841358951,-0.42932266521618784,-2.032914477884452,-1.1555562893939941,2.1616964683775697,2.145385233507051,-0.9660196745956809,6.229897226253974,-1.7947220786225337,0.2508925674918022,-0.0012129508194560522,-0.5038221468046111,3.1164842869115845,-2.087371855247137,-3.9516059207405267,1.7460256183394247,-4.451843848463112,0.3030877680525796,-0.5080642772629124,2.2126623215243213,-0.11106950763642429,-4.037193591468858,-0.117183533211942,3.806550791303288,13.465520736962286,-2.1026328045544416,2.9318924387064564,-3.4723075212806167,1.9846807926564833,-3.727648481924543,1.644063582927486,0.7625881363042931,-2.6419518525990755,0.4782149592804971,-0.27300321591663856,0.07244124068555105,-2.2422656240778776,-1.7560056066730845],
#            [3.9911989376556085,0.9999193793808392,-2.159885889710494,-1.3350171721888306,5.055486321019219,0.8278671372406491,-0.6256441204942064,-0.4456033699941458,0.8984588724541,2.2584668458571127,6.259425189501289,0.2035214095693036,-3.569150386828822,2.1590583520546125,0.07778819882441734,-1.5291937630831853,4.770738042098778,-0.24412081978736908,-10.230350123757988,2.617052987300327,2.7260849583656417,-0.5353243214281744,-0.3814774749111121,-1.7739687838662053,-1.14943072963615,-0.7229898092234774,-1.6538494875848804,-1.7437644743970218,0.4185372945456302,-1.5642406763310326,2.8496279227273624,0.9729407889571285,1.6517922795252902,-1.804871361239015,0.9193687879425461,-1.5037910107363581,4.798182396432889,2.4719267595315437,-3.995753848401814,-6.59680061770467],
#            [0.2933342835514355,-0.13904234382520342,0.5437598545230105,0.8547567066481201,-0.46520156684644415,0.11564380284427228,-0.2797484342332792,-0.30829180505142023,0.6823922093595141,-0.18876955660751957,0.059622530407052995,-0.7317365263745076,-0.018775526430407908,-0.846161618858119,-0.5434812883064836,0.5522359176701557,-1.921619614317642,0.0019128251149953851,0.5092259480285599,-0.17366485900381104,0.2823659756513604,0.18337724653993756,-0.5178353381553419,0.8762661661412846,1.0242361128213229,-0.6206991104083909,-1.3764053139496188,3.2380393979252133,-0.3927423364205899,0.6161204811302,-0.4336360447104427,-0.308010085334291,-0.21150746495318162,-0.4169831247173077,0.22912930092654926,-0.4603745902077373,1.030941749803982,0.6473132079812095,2.2266017584259186,-0.97406807168498],
#            [-0.7426674691769769,0.9322160939208374,-0.4843718709883626,0.3854499446471858,0.8323177870702606,0.3556130363566107,0.7704413836742133,-0.5241367239458029,-0.2146304907131081,0.6974657543341088,-0.015694537522803805,-0.5431316548200665,1.5277978555742948,1.923067407681307,-0.5212763314226593,-0.64503785642909,-4.219082463455368,0.43376377347856715,4.121433315477293,-1.187386793144268,2.2192127063778266,1.6075585932910603,0.31068642756098264,3.0290743001296487,4.498569342651778,1.2427701520350989,-5.801980573138323,-1.9681189606914045,-0.41817809430646347,-1.4664034369037597,-0.5583332856551587,-1.9528856792803213,-0.028461083559232603,0.7777019189392893,-1.3854941430736927,-0.7183789677650604,2.5221459029284166,-0.8470766180123537,-2.0656176754922897,1.1172157658261306],
#            [0.0856486899101936,-0.12450195459633992,0.22507461465345285,-0.2341768291227682,5.881685542966652,0.008704668924588804,-1.4638909699312035,0.2882097626343749,0.04039403438161764,-0.3489577323487304,2.006807084024268,-1.709022400248141,0.2818165659037744,2.0049373525735827,-1.7113789973496496,0.3083652488404112,14.242378990605678,-0.41880391452953464,-1.8877968281940747,0.3717579142251382,1.959018025918572,-1.0993134045262694,1.01325026318446,0.3869255476210317,3.303030428903327,0.6464719172269142,-10.241895125784445,2.3685129849619395,-3.74592266296812,-0.6815649234064215,0.8519288424170123,0.2969896789382339,-0.4321332989452425,0.3149100358870148,2.91925681859562,-1.581003737153857,1.9347398131978926,2.0073431503813666,1.7558503745778422,0.7470772064197897],
#            [2.1632086973741504,-1.5221354356854337,-0.8707154546836617,-1.7059431536362306,3.635213339628181,0.9604652890175551,-0.24920791615938562,-3.4280699713176768,0.5007205230359999,0.16660941961371453,-1.7611235624242962,-0.4524625540027467,2.4463646809201376,0.9975470091022646,0.6379700820355343,1.0419532382636054,-12.24882131440629,-1.3353201812000166,-1.7649825270686845,-0.14501083320399344,-0.9769163231786173,0.6861106262874963,-1.6926301280104923,-2.1837181470164806,-10.183231909952067,2.3711777476817724,-5.8134988435760695,5.738736991528072,-4.025921283283489,-1.105616589859012,1.1932962295742837,2.455691314567346,0.7840369377093795,-3.1450040966289947,1.8416827528774917,-0.46144200761987325,-3.8568153888149244,3.6622639579452416,-3.9886147708023048,-0.7847736930462236],
#            [0.09317697841891763,-0.8980265079891773,0.8902944889554802,-0.6586908676837319,-0.2198630257993387,0.060410507913616664,-1.532787392846153,-0.3200705759736666,-0.613196900803494,-0.9285762698114051,-0.47867202635793166,-0.7775900889529846,-1.218339469353583,-0.7728115398502154,-0.3399488160641558,1.4213366893105663,1.9716492117580653,-1.6142132047565754,-2.229484699619187,1.3172664462841388,-1.2941657335273222,-1.006317403910115,-0.18695349553776375,-0.584789817748695,2.191064155452927,-1.2366430550602638,-4.521289016024255,0.29425026077653027,0.940636107181959,0.8291462584471813,-0.4867923808038675,0.6471266592779639,-0.35978144453273014,-0.9344728263544292,0.2819022830922396,0.3602347268532874,0.41823200335698785,-0.023103407500069992,-0.7802507715774681,-0.37359955254287214],
#            [-0.14724831067766825,0.07407198278256377,1.3686516698895106,0.777303194514998,0.9856667137963712,-1.4713829065278201,0.15016334045672292,0.697280146220452,-0.29605185711906995,-1.0929049279830807,0.096743034879241,-0.49216931239007583,-3.881830611507558,-0.4918139946889397,0.004450804107716714,0.7397300388781748,3.4588782524274824,0.8871707207973605,-5.699466550304373,-1.0945057205408906,1.3624636821926293,-0.7034181757317481,1.1589503625027868,0.6397736399358087,-0.5573545744964573,0.8568667557432479,-7.535464433469502,0.8103431046633204,-0.51004913167911,0.083667634549987,-1.1160980196539902,0.19250765974156248,-0.6019030252036327,-0.6699829444579544,-0.616480507801384,-0.424419972561887,-0.15816489265802786,0.9244723111158721,1.738179873493851,1.478071085658161],
#            [-0.14670928841558495,-0.09222347160834378,0.7672015114966316,0.11448758495767909,4.301586025118832,1.6016962650306683,-0.5588162032907129,-0.46797857044331703,-0.5452522916237588,-0.7916257608267656,0.5065210880233665,0.04373968770384809,-1.9186115214354285,3.9858179622033667,-0.12243077715536718,0.9555894739831798,3.45201160457693,-0.6163198971662743,-1.8980893251405957,-0.25528057820873634,-0.015829846238024237,-1.5414192927239778,1.6966329100992494,0.42639596064691737,0.9966965261991284,0.028146441276082297,-16.63791425924278,1.3938264112103178,-3.007684943777238,-0.06592975201983375,0.5865177233362038,0.21873580424346495,-0.7776771928250189,-1.3344706533800959,1.052296254776831,-0.5645755791267143,0.009789127942479993,0.5605736362817557,0.4084862902816343,0.31854512441433236],
#            [-0.6319832562957354,0.07585905155183167,0.26167698013890894,0.9157680184936823,-2.500681896382675,2.3064479477231994,1.2918578972571018,1.091415912946571,0.19330544354667661,-0.21272912742585187,-0.09027453505892002,-0.3380333510302954,0.5620918665678036,-1.7635444462274386,0.7423251105483921,-0.39069966278008733,3.350529289314548,1.6197975553639512,-5.056249646760332,-0.25900182222293505,-0.7545348618950326,0.07876388977745773,0.48846616036018786,-0.33809806586523905,-2.4686327478219092,-1.1712527668605455,2.4899607652270968,3.2517493692039037,-0.09087614121909081,-0.01761654841105789,-3.184441390260926,-0.49736308939861235,0.3165334127192791,1.1272672059395517,-0.4623879208220011,-1.9635763842137735,1.0296244354047173,1.2546874759441868,3.653457470373071,-1.4726223604059046],
#            [0.08727858900762969,-0.6613912518704158,-0.965457850053937,1.1166690175803067,-0.457899524012413,0.2616408005059426,0.8885525199521455,0.8682434167002514,-0.5886458501183861,0.09696486953230955,-2.1865044911680314,0.48973437968644684,1.1329041730771623,-0.31684510280389555,0.505086732756691,-0.6949919392364384,-3.868908791074116,1.543956280551014,0.11798974839035838,0.1349532270216033,1.2827877577121216,0.9739840786460653,0.32075225107242866,1.2415828287785153,-3.3309106024203965,0.39310850871390823,4.952375028268237,0.3681906351932342,-0.8411211499812191,-0.6628955420855471,-0.37879879254547655,-1.0525836912002162,1.013352676615031,0.8693335657599052,-1.5733371099064735,0.6627015411423329,-0.4860394933421361,-0.2921513658556114,1.4992504732088578,0.3775905906154441],
#            [-2.07374059010183,-0.3963668156983544,0.017224608722890555,-1.6897780690712154,8.765854602622838,0.9864090615501608,1.15168532788775,-0.9774378351319242,-0.9394935609158056,1.1825398759222019,0.33512921596503314,0.7476443336714299,-0.24355052718652942,1.7205965026584877,-1.3933903594520796,-2.0976591718616455,-6.479255361093061,0.3881765518749521,1.9511621016624503,-0.6020645217314846,1.1460228927192866,0.32142382406082354,0.11280505838106468,-1.268387363259239,-2.5663938746999637,0.8612500391839775,-11.465944028963388,3.1830807830074144,0.619645367321691,-1.0735971696842772,-0.32845296338310215,0.07091727408538948,0.028361154285363642,2.2851939998553403,0.05143947062215882,-3.0562874035594856,-1.08074844042019,0.019957651133135794,-0.6460527203160179,1.4315814299465202],
#            [-0.26047591115164187,0.31297102908751484,-0.3769518219440098,-0.05692458015146593,-0.7502681083884701,-0.7194022874501579,0.9501418399598501,0.04897473068322799,-0.26794795748779165,0.39685369587781333,-0.05495566572592045,-0.46040609076061795,0.37024401515490846,-0.23585241374566354,0.1420422440132312,-0.6267737858574138,0.5088603264665028,0.24125343788569342,0.3663292330851986,-0.4195060248411995,-0.42832006811966633,0.24246474522785724,0.20991368770932475,0.0363513191915038,-1.1235098824591312,0.046364552955071164,3.3044130974375916,-0.1193022805660989,-0.28516153588265686,-0.36216522674084506,-0.9469272461719188,0.35417084165039797,-0.21975345534349985,0.19820340978590748,-1.0078895651486637,0.5486500436055517,-0.16049224998789696,-0.6931637404603644,-0.10231597339728427,0.18423244574765926],
#            [0.2809172841577443,-1.7599588893197544,0.029870997264455183,-0.3639233316967407,4.73503343612475,1.2888430158894137,-1.3294501337615485,-0.8554909567896665,-0.5958616071976659,0.0686900235971389,-0.1181520737755305,0.1326468221706351,3.0463692008147456,2.502349336130275,-0.23066047334437162,-0.5018141130786362,8.30245994506004,-1.248881581026379,3.096320235579985,1.3759199381312603,2.6310326308732055,-2.2414593116483053,0.5289165999490822,4.862222234445191,15.40411520058536,0.8034600110848732,-5.74105494466446,-3.080930836352178,-2.6982429755000896,-0.22535092964875314,2.873783779441746,-0.3112871748946554,-0.7558926724049897,-0.9586086516737468,1.8193284546111768,-0.07455231513551641,-5.063134314310273,-0.5229453188541037,-3.055930486681987,-1.0015604575396073],
#            [0.43673151931032245,-5.690639197262884,2.214006526791332,-1.3356901879932903,-9.220713738977636,-0.5365848437452146,1.072797266338759,0.7653040937848745,1.6149574367921538,0.12369893188938692,-9.716050958228408,-6.696953512743721,-10.666545856353107,-3.569845688239022,3.257899622668239,3.644636974137072,1.052053497042125,-2.390021932447039,-13.727520266461255,3.2784034132080744,-2.841165950672133,-8.937846085789932,-4.40934557838903,15.715529327589437,3.909010720082541,-4.475781477456884,13.018692862180215,0.004143358612330143,9.79826569739756,7.833187427144109,-1.3931450746339136,-2.5906010416951517,-7.116521395230165,-6.767513686187689,10.019478696563016,1.9081904088758275,-4.022968383167181,6.063602937299722,5.538491656707074,4.447670507713601],
#            [-0.20748779751808977,-2.215760100322294,1.6605043010663036,-0.030018362078701136,-0.7146743922833052,-1.5843799761453257,-0.4490421287743259,-1.9255026245626212,0.21124256736297764,-1.5649378776385974,0.9817868817150923,-0.24047684241084072,-3.6258594110902607,-1.1831747135904571,-0.22276894125754526,1.917979596927331,7.259548354193185,-1.4053769104611264,-1.410877680982984,1.7344236961234587,-3.7184436937827963,-2.9088223502123656,-0.3814973906417578,-5.266699686646252,-4.189504056660119,-0.7083741123984106,11.024912829073747,2.043587721217251,0.3648021315406566,1.0287363780370495,1.850531499372419,-0.4910866662328598,-0.6662548158351681,-1.2993835743723978,3.124242436263132,2.7329337534989993,0.4773109836509023,2.9015966519803906,3.9203850765815886,-1.681447930998709],
#            [0.15333540631338555,1.496407368900293,0.035338998226187614,-0.341887686027407,7.754122857394112,-0.04972499487056432,-0.8660401838702774,-0.967980873973562,-1.9964887908526847,-0.9214933819904968,3.1748830259485974,-0.07624537571604446,-4.793512401397689,-0.4048355163813133,0.053771533476701404,0.7583284738201752,-1.4786612619831825,-1.389090352378347,-6.664536361744969,-1.3472213044008718,-0.568532061445794,5.338066859650485,-0.7847404691555853,3.3657126048512933,-0.38370378466885985,-1.7334799500795146,-1.0858076280452644,-0.56924812663669,-0.3626063272005886,-1.1251613737491717,0.9360849134634068,3.131145745465061,-0.7241179033457567,-2.9307370285555296,-0.8173110365020322,-4.010690105370304,-0.8114654420058197,0.6902124609562598,-3.568523567589806,-0.6290776806569889],
#            [0.0007577664969132327,-0.31576200761765294,1.8606943124424784,3.293270531413327,-11.283855403367966,-2.398273645770284,-0.5575751323360961,0.14596099273611932,-0.9608118073714573,-0.6418671916438382,-3.6468880418394725,-0.519761172233959,-3.017256584126204,-4.713336194689884,-0.0869198510277083,1.8180192875143582,5.18873911157849,-0.8974245785531221,-6.881180286898736,2.3781607859181495,-3.8795885965555823,0.04235613443162692,-0.6386469083752664,-6.838730264502148,-1.2050356929962236,-2.366681730109282,14.962665209504845,0.8943261211211324,0.40578650961285523,2.8361117615670595,-0.8643823175342801,0.037421651433034595,0.8903297259079725,-0.08372347249858932,0.09990138066033336,5.228049540424835,-2.5919431976170038,-0.2814747073061459,2.5875688220775355,-2.0682518183073535],
#            [7.2398142349229335,28.150852548542094,0.43641745165451296,-28.221617010192247,42.07930306426301,-100.0,0.3334999671396827,0.6076444501440417,-37.0008983447247,8.359613184851069,1.465585556364634,4.950834878531258,-0.878926776886696,32.24084411798699,2.4679645911239647,19.410684299609123,-46.21821002283819,9.22418985002073,-53.807144245951456,-74.00774693748664,-100.0,62.29516494241684,-16.470556974312192,-100.0,-100.0,-28.00063622048795,77.65766039368236,16.042903216914137,-14.596841008150191,-4.065401265956966,22.025024873320643,2.8174611824712237,-44.48768709225717,24.700219914115422,-30.607967756470693,99.97417670877226,-1.9115354352185099,-55.9362000058974,-16.887700111902458,-23.10848827563175]
#        ]
#    },
#    "hobias": {
#        "DIMENSION": [1],
#        "START_COLUMN": 0
#    },
#    "howeights": {
#        "DIMENSION": [20],
#        "VALUES": [0.1693208947957664,-0.5194571210430834,0.5726923754819667,0.2715836390158208,-0.1995848854649159,0.3432091917102425,1.3229454524336612,1.1015713874386701,0.22882250442229604,0.22669944237921708,-0.08564266082151245,-0.43533435318266545,-0.8343328546502209,-0.5577106067797268,0.032099548847517555,0.26326619942227225,0.19131180065284503,0.514106595751508,0.22940923228310586,-0.17022018839819084]
#    },
#    "ihbias": {
#        "DIMENSION": [40],
#        "VALUES": [1.1661023628244342,0.8519244251394482,-0.9932181107273002,18.374861001345767,2.918292896520369,42.97434228277906,1.441704571581785,0.2661417592931337,-2.1225720157439336,1.1534835822950487,-0.0447718844563427,4.201844330084542,0.3559515213947755,0.7671937475675658,-15.033363970638167,-0.3982510048944687,1.159333913243433,0.6343846997363551,-0.16414410404053084,-0.4720742707244969,1.2957766435569138,-0.4011701188220627,-0.824360621626195,0.15402415157083355,0.9402997242631026,1.0691505658758256,2.362967747626533,-2.244276875296665,-2.1956247597614094,-0.7756227032252186,0.28785873099861053,-5.566242431065906,1.0236336109531685,0.051115318577327845,-0.4134571026928853,9.125102253885627,-4.866647309783017,0.9418377308541847,-1.4055790564503647,0.3189651236299429]
#    },
#    "ihweights": {
#        "DIMENSION": [40],
#        "VALUES": [[-0.5606259791386389,0.31443343213583697,-0.9103615220441357,0.5603676066554334,0.03792371421895717,0.5986032048518712,-1.0863544606959117,0.07662475958891658],
#            [0.6478615116584447,0.49979828630130235,0.7722124162206004,3.4544694376515444,-2.6801765494754792,-0.7648770760906597,0.5375027597189237,-0.237658301568512],
#            [-0.77918099879873,-0.21911377188393166,0.006844271147071687,-1.5094873981503518,2.1584991719247952,0.3772862731848214,0.4594187331342959,0.02972969691899517],
#            [0.5306659458871812,-4.572071033576211,-18.136222892380804,-1.8236089372064685,2.3649509425826793,-0.7522240858856868,-0.03469504250218188,-1.2923347374112515],
#            [0.27955798048890573,-0.1457534954909578,-1.2153483297918646,-6.579795950359821,1.333162134117745,-3.1024620342017135,0.06475401824286864,-0.13666971556019974],
#            [-0.057138879679323275,-0.3483407055734003,5.128469675117713,14.107050073512479,-41.232132445498706,-47.93574131000008,-1.002289480793462,-0.1264573977369055],
#            [-0.6713915542241967,0.11978183528419453,-0.8608731124029365,4.020957552549271,-0.5087908382235904,-0.6526159632208645,0.26899479733295345,-0.039377274756794436],
#            [0.7925280155959566,-0.16711327151468533,-2.0363161140125605,5.101813591645315,-0.16073524976305786,-0.46341558560256313,0.4791782015452763,0.14082857029279813],
#            [-0.6341207747558251,3.2132164811578776,-0.18396446252208937,2.8477172764734533,-3.125072195318345,2.041786175732089,1.8732332238553442,0.9202442091112307],
#            [-0.06050426919192407,-0.4222782506672983,0.5524420130517468,0.8218644130179812,-2.0176193767501833,-0.004386655269011683,-0.23690048123710875,0.3761035674191553],
#            [0.3009423204488881,0.4531444150191506,-2.737334147129341,3.090866843270245,-0.7066865736674462,-0.27866258671530536,-0.3861893260283117,0.7415522326752229],
#            [0.11849671151435479,0.5862876076850011,5.4742355470256285,-7.865971956962611,-0.5387806753593337,-1.0326365049621162,0.6970004150454361,-0.3919323718044167],
#            [0.593191604336246,-0.38934259479791755,-0.006511205145610944,0.8526319602562206,-2.4085698680914946,-0.32919972523896374,0.0689120884056111,0.15466888362881656],
#            [0.36792019059529774,2.1618225527613335,-4.145111949922851,-15.682413734204598,0.07486972298675208,6.557046463048281,-0.5917677458610138,0.19977444106655978],
#            [17.76710199903608,-10.919479234410016,-22.20843610852335,-35.847234017115056,99.34594056765533,-24.98269124322005,20.2052404165574,100.0],
#            [0.29688591954462623,0.48478283381448734,-0.6200524422299675,-3.5469523986247613,2.962304938378986,-0.01555520360819223,0.25102873172200185,0.18129253699638198],
#            [-0.12319225896371992,0.46447219889960606,0.1950649522821003,-18.98183023959457,-0.24601175189534885,0.017230403441835757,-0.12478479520580635,0.24372424199267093],
#            [-0.30411921478030307,-0.36104331774032705,-0.9545665033399079,2.629387345192492,-0.9880773156733438,-0.004835185304088164,0.09545594208091177,-0.10486356587886023],
#            [0.16474987705998784,-0.4600773631140926,0.8376742311933822,0.8884228359453459,-2.6492890527055404,0.37897071359684753,-0.28131311430241057,-0.20833194805237712],
#            [1.0320032320035208,-0.4963024943050079,-0.4729144279068176,-2.2659374512023818,1.1116111372967903,0.38135229172907664,-0.09600589617205811,0.3510490903374558],
#            [-0.5312331014397329,-0.9179269405946149,0.8933094052162113,3.2025658189063866,-2.847826048681935,-1.0962787507523541,-0.06470710144975902,-0.4360503537560849],
#            [-0.3905887942606878,0.2853763031774347,0.7371900123903113,2.2896202909192254,-2.0641327163694885,0.724233556739805,-0.11017275999669021,0.19947559976970747],
#            [-1.23475754945153,-0.19301521150134057,1.7571217053259887,1.8534199992068008,1.7457726588393199,-6.866268177234554,0.23148096439607468,0.025824563393441267],
#            [-0.20905002046845417,-1.1373936547165218,1.320225118486314,4.092508124549429,-3.1512698203846736,-0.8444521322896529,-0.05742766557339221,-0.30462241932605616],
#            [-0.02778043346352262,0.2732629583148459,-4.416113001619083,-13.262047234111742,4.023646413590528,-0.21110769369410376,-0.21155720910802328,-0.01641280747802125],
#            [-0.07028154134849583,0.5810794018444119,0.28820577648138723,-1.5685426507336249,-2.556534810558062,-1.261164206601969,-0.2405166670761563,0.17237549469853738],
#            [0.06413303363797576,0.18438384036879,-2.41576086813488,-8.00939615972831,-1.9679490293927262,-0.7079067699047532,-0.03450732371380566,0.1296711535383527],
#            [0.10340763111384534,0.20501649992961038,-1.9374210735706392,4.459087443634595,1.7056068772974398,0.08854580896031176,-0.37255104239455683,0.37718915596464603],
#            [0.1649813705141538,1.3029227525774736,1.2949723730641258,4.890673257217748,0.9894503673149018,-1.0065593510943716,-0.3769105104878022,0.28306956402041245],
#            [0.19586196459329647,-0.9299783784848039,-0.35782449900575997,-1.1292332247956707,2.2715263284662104,0.3713984396893949,-0.16236094260074369,0.09126446289859831],
#            [-0.5484067084810691,-1.4496632849177853,0.7320365317791936,-2.9470387413558075,0.7765027109932588,-0.7484753608799891,0.19120993597777491,0.1897110518888045],
#            [0.16184310703133103,-0.8484154794190559,3.4962046862730967,38.27836133117544,2.9046602821811427,-2.7376799706801918,0.3487074002265088,-0.319706266390393],
#            [-0.2664154052394124,0.5448250149790018,1.1096523125503166,-2.677007499000814,-2.4148781214916575,2.43440710680284,-0.7260922808021892,0.047495163162203174],
#            [-0.6043205557312258,-0.9077631535794115,0.2156762768152371,0.722129479413815,-1.2825108390627706,0.7517065219689844,0.5765802746977875,-0.2719892896955056],
#            [-0.3394652242377234,-0.8590899089663555,-0.476057804671191,-2.553175218380603,1.4122079574167192,-0.06045380071499461,0.08586969338976724,-0.2953482866910161],
#            [-0.5026399516655953,-0.5153114036319048,-2.922812603629754,-9.544396891117797,20.223768051286058,-23.356140157474687,-0.2703992346601615,0.3800879213981485],
#            [0.11815629184550214,4.465401630452122,-20.45164358888752,-99.77013777795544,46.469135777938256,7.199828540731995,0.9836233215608614,0.22411960330749847],
#            [0.05154199094609999,0.46848901076679444,-1.6927269378941485,-2.6739955346037045,0.16945742398928162,-0.19851818387281195,0.37556032595323285,-0.22059722561549971],
#            [0.11974352781517464,0.024916877457141447,-0.7901568461114363,-0.4415067293934251,1.712595284874014,0.2779916528167085,-0.7267914869002304,-0.3777538439352578],
#            [-0.022935596488379367,2.033126964509817,-0.9666978121292448,0.45751525534850335,-2.485757932096012,-0.32047881219872715,-0.47713945464348045,1.3642190445439202]
#        ]
#    },
#    "inbias": {
#        "DIMENSION": [8],
#        "VALUES": [-232.94999999999996,0.1480821917808219,0.14995442340305598,0.7332551703948524,0.07122103788376495,-0.900015928156399,0.4414722268364786,0.1499530465144554]
#    },
#    "inweights": {
#        "DIMENSION": [8],
#        "VALUES": [0.11666666666666665,0.0019178082191780822,0.03043910579393641,0.005837241480257379,0.015755792423247008,0.003500053093854663,0.01581151250358145,0.0077783085592722555]
#    },
#    "outbias": {
#        "DIMENSION": [1],
#        "START_COLUMN": 1
#    },
#    "outweight": {
#        "DIMENSION": [1],
#        "START_COLUMN": 2
#    },
#    "two_layers": {
#        "DIMENSION": [1],
#        "START_COLUMN": 3
#    }
#}
0.2586692744923211 3.7326149576149428 8.796379410158595 True
