#{
#    "Notes": "Converted from Lmax_T01STORM.net",
#    "hhbias": {
#        "DIMENSION": [20],
#        "VALUES": [-0.789417205544528,8.743241611149573,-2.0187863319854773,0.10426206706714183,-0.36531510672947937,0.8415326782874337,1.5904565815519855,0.9199299278294326,2.848722385613193,-0.1427228927439011,-0.742111531431134,-0.04642631999922791,0.8950766087509656,-0.8769278763645347,-0.9359541836556854,1.1416134426396654,1.0587285455968871,1.284794053864854,0.19598397278124158,-0.5171286922685399]
#    },
#    "hhweights": {
#        "DIMENSION": [20],
#        "VALUES": [[-0.2453862684878327,-0.818179884085046,-1.101120315418161,-1.2630351532038753,-1.5771687644428787,-1.1693123298435604,-0.918643923925523,-1.291530501460687,-0.5635424561207314,-0.9454561909215962,0.26192586287418507,-0.6291265911552998,-0.7778095339462021,-0.4660235672528269,-0.6025155640823099,-1.2856826379317687,-0.8782464603741821,-0.6185694413962509,-1.2325295356360728,0.439960922385036,-0.3296433735938929,-0.8176938646146443,-0.43230193891806323,-0.33027223140198275,0.028208859050491124,-2.026317907034624,-0.5135760313747483,-0.38681162806974373,-0.040578056797430685,-2.125475152434692,-0.7492323985463147,-0.6795616547549714,-0.9010755480651972,-1.8811441424980484,-2.0182025250066546,-0.029870173020744493,-0.36880390013007497,-0.5637843711347303,-0.12902650095789275,-0.6912071548426354],
#            [3.9918894505595173,3.419209208303289,18.211546583066557,16.854970611194677,0.34229324234273845,20.572351536928164,28.00719986651768,24.769019599406164,-1.6528825556344706,14.206266735715001,-11.814930843523925,10.416594050972405,-2.233574453695991,-1.866605162977316,10.219283120456526,16.022962603132044,14.413107287870702,-6.021339220734494,-1.5238372043822854,1.4857746479082663,8.140530156443214,-3.3018422614392757,-3.3592137729261133,8.040106643358378,2.689127190398659,10.66293426550973,4.361389091540886,13.440800388698873,5.044105711216355,1.365028603640101,2.312789481340131,15.430024959338093,-0.7026109204506429,5.18063459961461,14.824097610611311,7.618074657170943,16.770532233502795,6.184513602773893,4.866749113530737,25.929893935370018],
#            [2.1576714322475645,0.006926392392649956,-1.9665248168690024,-2.0834705987690447,24.433815153931317,5.974723452392022,23.660138254047546,-5.013006408202157,4.66084506765531,-1.4128811655540858,0.34203634072053457,50.91985334403522,-3.4363937901893378,-10.79455414867444,-0.6922808796994006,-3.6050448542551634,31.555557187847644,-10.083145068215416,4.67602339673957,1.1379860692189805,-0.4688035247036031,7.506823657984888,-0.7316202307423146,11.329963430697902,11.612654735051944,-0.08139855607837594,0.02321182254939719,-5.28854137866104,-6.7836604602182184,0.20511611493124618,3.395440641503976,-1.8379581430784317,10.890252266562616,-1.1483422328326776,-3.6805261291301252,100.0,-13.030900069027032,33.05056996379719,-0.29561169181680474,-2.1202753867110933],
#            [-0.6790319545315219,-0.12547521725775335,0.469878999541346,1.068236636370386,1.2549857575183054,1.365119320039885,0.8685502275950419,0.7955276887379231,-0.2867043245234585,0.7234143225472629,-1.2486015832421122,-0.7112592690826277,-0.8708058532525058,-0.8046630522213603,0.6090127631390438,0.7464636354301004,-1.298138341982877,1.4522211597886445,-0.8426679826665567,-1.6232364428796906,-0.11620605476402567,-0.15592953175217816,0.5006292663152625,-0.009505340782125157,-0.9501609733450149,-0.7029558862970084,-0.4745335284680901,1.6039262511399723,-0.5987510884570935,-0.48237835814136903,-0.46354886286658775,0.7994223816633225,-2.0386454027388985,-1.1630965082663947,0.07680304793854494,-0.1969062559535185,0.8231904225247623,0.5656928464855608,-0.4550744588072012,1.0175511549730005],
#            [0.23563236337994214,-0.29310291310946124,-1.2391013826062438,-1.127323986365911,-1.4833564008852347,-2.1476804458031125,-1.969982070168676,-1.9133979031957058,-0.3389265865822217,-1.1155054475143502,0.28104214107542413,-0.8644285370130962,-0.17921654963496525,-0.09974425538758218,0.27548122454862356,-1.1516283913118293,-0.6285997812320685,-0.5140625728577547,0.28610340503837645,-5.874096749325545,-0.6727760570285808,-0.4068603517520383,-0.015770049868787536,-0.23555185636916445,0.3097792805143515,-4.868290469558121,-0.46613307514788277,-0.783040951883838,0.34074576529962974,-5.195848479485378,0.2666404741341017,-1.0890769547165933,-0.2349672811204382,0.6931685398880879,-5.877650089677218,0.019488994469004588,-1.2478888338480594,-1.4421374639610498,0.0006965922514699018,-1.9620742829248643],
#            [2.5722534782776227,-1.7983071495357363,3.034545956575208,2.9576376864622516,-1.0385020852271367,4.494486304672023,-4.388278808208019,5.245344165297137,1.5926752120867516,2.0997633228479087,-2.8804243399289744,-0.6698417193991562,-3.0402288422129713,-3.0637469819219443,0.0018606893516236282,2.6843735486456737,-0.4696161458894581,-1.0432143076710299,-5.496699920241459,-4.486878836329947,-0.924404435002076,-9.604862376395399,-17.730677651757762,-6.456134446185166,0.8261535748581949,4.536226436784265,-3.150951795012996,8.57912226064447,10.174558396615598,1.633899985687431,-0.9962791464849623,2.1008749664341355,0.779358488935786,0.3126592671367561,6.976847549308637,-1.6630555484372174,2.449725325926779,-0.1301295397174775,-1.3072211555642768,5.269120588479225],
#            [3.2341897226967253,3.1875289308376153,2.1582271503222503,1.5988859711304881,1.1143929928268839,2.2100692996125537,3.9364539525086144,2.7437023008100794,-0.04391708815966739,1.7675170911910894,3.1765241043191463,1.0065826096387593,2.5977626199878285,3.9412084659663638,0.23953867894177505,2.139032809793507,0.7226864329304327,1.2169666059622264,3.3149207890971413,33.8995739742647,3.3040559623047514,4.256054422775158,1.086580862724005,2.4764870543444046,3.5541310023147656,10.172210830592105,4.062342087244331,1.534797529142257,2.575771413419807,19.000676727931697,7.8837847481851755,1.2050989204041813,3.66196138513177,9.533950104199093,2.415996805025054,4.237514669560421,2.0796138960436052,1.9654507360214308,4.5323477797586245,4.56887472042242],
#            [-3.9473555050656786,-2.3246745342718445,1.1765428533462523,0.9890480224774224,-10.18101190930963,2.3361819922075204,17.294721875374165,5.918321001527453,-100.0,0.7050019617586638,-0.7562624512984246,-6.644786170150334,0.6253650976723235,3.408023224589559,0.24458120551244983,2.5383762421151395,14.101761051888072,-27.966691176670828,-1.6213574095901806,-5.032143722735938,0.757796848323544,-6.097791061515896,1.4888156123491145,-8.954711781850092,5.004115381528482,1.477811921479209,2.4796388205862807,7.031135697344697,7.924254974238503,0.2310513700877306,-1.5240761633829407,0.830594452612354,-48.67039859888479,-1.5332241843856553,-29.814890922811088,-4.208156704719082,4.04319775110122,-11.382409836462912,0.30503875106413997,3.598185609400928],
#            [2.8030941362866244,1.8480163094136945,5.12448176526435,4.395207412790092,4.253284612418078,6.981282135384499,9.775872262891392,5.927283090156207,3.1239121787420823,4.197178985525454,0.0869740688574106,4.637388410088427,2.7971831769091895,2.3975335767433674,1.9917907683484584,5.136961400876918,4.028741048841238,3.1957621061826322,3.0307497582321705,14.84263030799661,3.113262692577531,4.672295825201142,6.686588857352254,3.488079711543441,3.224181896148353,13.29195954566603,2.4271034375190452,3.4853284227871346,4.02707176008813,2.9441986909605222,6.401652230840099,4.72963607904681,3.2838788367066925,3.6038714283096462,13.245981389705221,3.117267713082492,4.626170483654772,4.5406415019320985,2.6560204946219965,7.861742144080572],
#            [-17.211403717457372,1.038690588325274,-0.9508593253799059,-0.10815633097930541,-15.730612716142153,-0.5470658238179924,2.6281188665623016,-1.5650533940767815,18.651104705673493,-0.5246365287344826,1.039334048492194,-0.5242419614481784,1.229175826950601,2.9481897502625967,-0.4509222617682907,-0.49298756004598276,14.711085844243563,-19.653247182963312,1.8370851287307255,2.113681654991263,-0.052311888550885054,3.318299060275571,-0.5089586305024174,-2.8298015181921667,-0.2831699878212901,0.05792087436032376,0.05866928488084384,-4.352696344210143,6.3378692343779495,-0.5532763223324788,0.7665515217917385,-0.8537947173964376,-14.540223483793513,1.2458486323832592,-2.564853031645604,6.10574953153492,9.199266522295552,2.5948455987045675,0.6741170561369985,-1.7071877781587173],
#            [-0.8492268954409292,-1.49086239005485,-0.42077397071701267,-0.5808381161664605,-1.5103782467195686,0.47393053118926776,1.1990650075020766,-0.5134204050285223,-0.05343317206159384,-0.6389482946602132,-2.122227017720539,0.0409685844834975,-2.337838045388521,-2.115104889108167,-0.0826103216951372,-0.09975794048325418,0.6189736099926724,-1.7494098632474895,-1.7128684883950005,-1.4484114992330153,-2.1935471348812183,-1.5376678678554532,-0.3507018469924029,-1.40915149093431,-1.7181033889110915,-0.4705850938180805,-2.1946069129333874,0.6985494487917253,-0.6640422131788302,1.0348097906261613,-0.48804762334493607,-0.6380393923948102,-1.5614011073227236,-1.6969535994137759,-0.5268830045218178,-0.7974975509726232,-0.2968499758560094,-0.01928957659412277,-2.456347083988647,0.06732490645365564],
#            [0.07035685191276066,0.7827290578079555,-0.6354068664146326,-0.3434312111847609,0.17598548853989404,-0.16893822367123185,-1.0311467326574357,-0.577394344257301,-0.3554446154633917,0.008162296082509388,1.286502090907873,-0.5875153645167686,0.811751507632091,1.2726774314551108,-0.4925020357512019,-0.36838625788733176,-0.5811981377760312,1.595279503293314,1.156447263783507,2.8397059115495913,0.3782832400878458,2.5531322842600095,3.91745412590132,-0.13732211937854735,0.06046892926619638,2.0488460406720597,0.10695859644769394,-0.20405393616451806,-0.3400624769016749,1.8659114238394316,3.7593095414916546,-0.267066503554948,0.6129920352998698,5.093200305014555,-0.7823948377560129,-0.6624314253187271,0.372217367423215,-0.4989489174186202,1.1259927215661036,0.007309245706288393],
#            [-0.9884647577511471,-0.7100146929938816,0.45073289171749276,0.8538057526729518,-5.075705626895317,0.3945536708614375,1.4822739317598659,0.426541119952521,0.7156168242388197,-0.0968049410393119,-0.33555889827353236,0.9352392602500802,0.3382923550537171,-0.1288932228228974,0.33473497450088713,0.16290458926441198,-3.40403444413804,0.5830705368167812,-0.16267614061870767,-1.601972920273631,0.14783594788513243,-0.7709563895302888,4.6563141627724765,-0.31175105379332363,-1.4980613871907587,-0.7233856911271547,-0.7267465159984223,0.9019132933014306,2.616330078128224,-2.673823778590959,-1.4904336414581332,0.5666170547208293,-1.5109836065128497,-3.5279714103875044,1.0240537949597204,0.2822940934616281,0.2008853997748805,-0.5396432036700024,0.12034237337512602,0.04003667409704755],
#            [2.390685455944372,-1.4183883399364337,0.011187182440028242,-1.2110071062691135,2.012843453306103,1.323452926939009,7.89637079864208,-0.25116905905992537,3.3639227518420265,-1.7298393087527923,-1.209990418681564,-0.792987550823881,-2.0869338269496396,-2.1447070648747357,-0.7845016938597007,-2.3026579354563195,9.935018787103186,-11.523610254200818,0.3209593270313207,-0.36869284243020606,-1.1563894191814286,-2.7486004940317335,0.044939368859453765,-2.7833148852165808,2.6334905376217725,0.997559362254856,0.3923706313732466,6.343706293049547,0.01754442306570708,1.5948317218567765,0.13872282995620236,-3.5318111577167315,-1.4409990374395618,0.4034299911931463,-0.45667761532643186,-18.350526692625223,1.0674451628432036,-0.681307822873491,-1.3508117718980461,0.671667042845961],
#            [-0.21729543344626862,0.11073561871985599,-2.032607844628179,-1.4601130330147167,0.09075173305703749,-2.6298959241147655,-4.421572514740365,-2.4467730550542814,-0.04212241352891413,-1.8898193024551393,1.169495882617583,-1.3477447776145188,0.3891372421803526,-0.27001330362354853,-0.07728794339241898,-2.092024651047634,-1.7301521083081857,0.864761151247083,-0.21722011008911105,-2.8696843714450013,-1.0513296663718081,0.5911770270241598,0.3116970759136457,-0.9302556143033618,-0.1055169764252189,-9.08208725797111,-0.3179231318605748,-1.568828765615049,-0.16188351934872328,-3.586373339772121,-1.7340179932038773,-1.3494882000783364,0.047174983484390434,-0.6462260840596237,-4.301103147293905,-0.10709911648906134,-1.922571263757505,-1.030929952912743,-0.81820886381019,-3.6530370330114645],
#            [-16.72572391472375,-2.21510176405251,2.793586088738934,2.8044997603488673,-3.017884565783915,-0.026710750232310374,4.279719919556756,3.017992724256271,-10.939839876613181,2.008858665773759,-2.5654655626155565,0.23381082198745332,-0.8319656025129437,-0.45247226041536587,0.23038615321994996,4.757250259315041,0.8300569260674187,-2.235799078852083,-6.015776661626251,-2.768492415161173,0.2455701250114948,-2.12953881315231,-3.386661385757134,0.9941588841922493,-0.4972130302406491,1.5957035429557052,-0.24234817666483827,-1.2310059865980545,0.13459916364015556,2.79398667949466,-2.404319299466637,2.5165003013812313,-0.7937790771199722,-4.395104312488496,-0.07585503442752163,-0.874433006126062,1.8336509918274888,-97.058338590419,-0.9490345241690314,3.435600034186903],
#            [6.243919300343759,17.134692955697666,-0.4930227802821257,-0.5385882126805885,1.2909761666689628,-0.689892792426551,-28.11089299859458,0.5687585663383,-5.219419335104457,1.0685094995836217,10.293645242267369,-9.80990346068305,12.121998851976178,16.65059918373731,-0.09442441946814172,-6.146385333327454,-15.025291193011522,8.604153008571208,14.082000291735946,16.04573413631838,11.670449217626476,5.854128659447491,3.5981729969264937,17.493724682486064,1.914309334139451,2.6326747943889903,2.7029770963257533,0.6143806363957464,-0.36206517932349225,-5.2067506782877615,21.48896315269839,0.19596952331346731,16.956260476123195,-2.872142009060951,30.322769689800666,3.7618405619997777,2.484107041154343,1.8380744831930345,13.258920448232647,2.7429884081844116],
#            [2.1834042542639702,2.295161704778141,-0.35451632057881477,0.16705834456939972,1.3197971558882229,-0.3152867015542257,-2.816405882258549,-1.062713820407445,0.9441215874242818,0.2924634210471139,3.871483043934186,0.20434770886281606,3.3865196010165444,2.9357469322769596,0.9090894691909865,-0.2697040263565285,-1.6637345378422521,1.561386526408369,2.470781238882208,-1.42772063591485,2.7138237682951902,2.0083710686977314,2.7071071736242573,2.2344148299459126,1.252873908529756,0.2875734021230533,2.577338721242969,0.1133608633519945,1.132970974653217,-1.364302640891088,1.7249437932194382,0.34852474105674824,1.4027034043210846,1.7190397636101922,-0.8253155049515482,0.7818596824376687,0.2623569062737213,1.3896852454587212,3.1951760717864786,-0.8305786013425372],
#            [-0.04458588993783758,-0.08899439895695484,1.061731613648666,0.6847282688029704,-2.1093146639137093,1.0222372793333196,2.142233320056934,0.8439687498089596,-1.3238339217387733,0.7928289906348942,-0.9455006989839124,1.2558629912011001,-0.2859602679601743,-1.040638201665463,0.5468795701274604,0.6666390404936896,0.7789757034276116,-0.13022618473558176,-0.7651810987950888,-2.2741025542490125,-0.5011424738072188,-0.7065796161279597,0.314746456659711,-0.3549554834917599,1.5502558333126761,-0.8227215969765054,-0.34090852589072435,1.258189983303806,0.21552275181105454,-0.9338042418117322,-0.5340149564111343,0.6893530143716118,-1.4555179666361215,-1.5289000978179943,0.23903314352118807,-1.8979089633010766,0.11247708422948487,-0.3526265062399488,-0.5307891210959269,0.7774858169098666],
#            [-10.471620925316245,0.7737558954806975,-0.6817559400437441,-1.2854253543435903,-0.013861816484856253,-1.3398766616622264,1.5885348511443815,-4.582964009542571,-0.0822501835256099,-2.073904265755297,0.5318431757572522,0.34425539478655914,0.05535591198319736,-2.0433124178465927,-0.194184783665639,0.6029452124087004,-1.4420711985768784,0.5828500856320422,1.9639567659269168,0.8086748051100274,0.14709898608259978,5.0480930756570634,-1.101842273809433,4.187076809702133,1.4438146148205455,-0.4207694953999858,-0.33176448643847267,0.3007350524227336,-0.44287564209011465,0.6155646126610769,2.6279502268470454,-1.8687170083111178,-3.1888721492211967,1.1696554865653956,-0.7411716110023158,-0.29771308090585064,-1.0581306997070863,-1.0486998379747097,0.4999655750584079,-1.2810215915135326]
#        ]
#    },
#    "hobias": {
#        "DIMENSION": [1],
#        "START_COLUMN": 0
#    },
#    "howeights": {
#        "DIMENSION": [20],
#        "VALUES": [0.5831092800583114,1.051980230347153,-1.3394967065067807,3.1905325402987095,0.7686853116672386,4.592694330880997,1.3888373529623477,0.47733215106570587,1.01540353231171,-0.1307313417439024,3.1440215602521158,0.3689482512029474,4.085971501619743,4.970685700395052,0.9686983713791939,7.238965814615722,-2.3195347977980325,-4.228271144166452,3.5044803095530264,0.7658594685151182]
#    },
#    "ihbias": {
#        "DIMENSION": [40],
#        "VALUES": [0.3047101855686656,0.10804544975334526,10.441792382741665,-0.010897439596524075,0.23657465880988765,-2.0696540371499084,-1.6819714704609325,-0.5403080565442535,35.24656131940173,21.710405154038842,2.9548389614261694,4.376479808543318,1.0435803747251362,1.7125891504018935,-6.379076152987588,-0.7451191297817306,-4.970167773200628,-6.7348267239949715,0.7272881777776172,5.637932183357466,9.474818947955157,0.24215612227229932,-4.904156283649116,0.9713134104865798,-5.379407101426641,1.284920058092803,1.383818701789086,-6.533764885964616,3.8570956297096752,12.769348336256641,1.3421871272107013,-0.19713083022672695,0.37759529087139376,0.195129786295921,0.6062922498443254,-2.88934191227706,-4.798798019686988,-3.3577292873879894,1.7597089347254278,-7.033718213069341]
#    },
#    "ihweights": {
#        "DIMENSION": [40],
#        "VALUES": [[0.039190457152963896,-0.4924364583075317,1.9731422697979926,-0.0898320448415997,-0.26888847994321946,0.6514794553191889,-2.736235720457924,0.2523998082970773,0.047730328423244574,0.019600509915354176],
#            [-0.18494359535950303,2.5451135479248626,15.34894308853327,1.0647645315789653,0.534730975045329,5.866830625052543,-4.718311173230946,1.1690517005135603,-1.8741148544040118,-0.0947206471950514],
#            [14.431893246812152,11.507150517197438,8.20184857984309,2.9424025409973873,7.454393658808407,8.369653900166826,11.99033773228681,14.552628509084183,13.770272063499192,-5.9887593316948085],
#            [0.22543038522816228,44.83524191484049,20.034831246418893,-11.723850219049456,-1.5055599046616779,-3.5227476408409215,3.235254570731479,-1.559120796047688,-0.7505719210778202,-0.015031393649478052],
#            [-0.0086326650975424,10.179732214333795,1.1457146773554268,1.0384663880761769,0.159059018177876,-13.965301486559255,-0.2452124737849937,-4.114269028034181,0.35560479894600244,-0.029142166414431802],
#            [-0.012660320856619202,1.3552153597077112,-1.3820379602308088,5.238922311168654,0.5545855794343533,35.24225130953626,1.4811106394053892,-3.9165762626621263,-4.170861521831286,-0.172198768203548],
#            [0.009952251720569915,-4.144335138576347,-7.524037787784661,-0.6342144425434132,-0.936564214788845,-2.4802159919861797,2.1817373090632612,-0.8333781709665521,4.083766005335514,-0.03872100141345056],
#            [-0.23595103496092903,-0.4534722506143004,-1.977244677976477,-0.579518273828906,-0.036508585688150554,-5.139286126524756,1.8232599348021172,-0.24646441812092595,-0.18867630267462698,-0.07729964516570904],
#            [0.14837137761166036,-32.28953069623296,-3.639448294850155,-24.357982186721113,0.028166046681925364,-100.0,-0.45607022170855577,-1.4574346276108612,-4.573829718190693,0.5602600063844264],
#            [5.084907600058779,-65.367535989494,100.0,36.780544747990454,54.66782200886637,-70.34352555297212,-5.630362336025394,-35.313555673803855,-1.8202893830664577,-25.73912336981489],
#            [-0.09285647971236517,6.1023401461207865,10.076433626361608,-0.22568997192381687,0.3508867763097045,-2.4810609826700523,-2.204884031427448,-3.0237182359709203,0.7004706695490229,-0.199099420013548],
#            [-0.040819310701094506,-32.321976684717505,-12.320673140540912,0.02593853854750231,-2.3244966919761882,30.290807220033766,5.621348112377212,-10.18318137303342,-4.228692003106384,0.14386470690168127],
#            [-0.036834728164187334,0.35094601529874236,1.492119576356918,-0.08042020837034389,0.8968069757680752,4.955399761500626,-1.989434357045987,1.1407873913108606,-0.14839599627730465,0.10341222578875604],
#            [0.17294428436163872,-0.29769515012910736,0.17533563646196196,-0.6309850350107877,0.743431083597508,2.589226054890733,-2.4202714781051133,0.3780741796789455,-0.6085454567631521,0.08148568180646899],
#            [-8.209629134627217,-2.860693999143021,-35.10469144862307,-10.014985617286822,-8.595594317168636,-18.809112946363626,-5.9288590509612495,-8.035992993472,-6.144111664458342,-6.527652235262288],
#            [-0.1923844877673469,0.3692406727015616,-0.32533710571468116,0.20237650901186055,0.1524891581019264,-2.1519986212485014,1.549749069843707,0.28834102619906754,0.39879662966785784,-0.3157361452532463],
#            [-0.06339497357557916,-11.486260546583868,-16.319973752813066,-1.9102243135873027,0.14812545813482283,7.830104624256971,1.7182148764846763,3.758259637938584,7.487092570294783,0.09598583735064191],
#            [-0.044885035292208726,-5.105653753078468,-12.126188835497658,-1.3518526927733112,0.9542877098047325,0.35531237356384054,-0.5396039730878022,2.8485518262423066,11.062438946446182,0.05623750661319201],
#            [-0.07394223780765696,1.052592284518348,0.9281664362971431,0.009812596249968168,0.291886292758578,7.330108346335101,-1.9836869584961547,0.05373758173270371,0.14200613608767343,-0.07708187123740132],
#            [10.61143233595824,-13.696780741713685,48.387076365877746,5.3415500867484935,5.501919431158286,12.37823736291702,1.0506033059307154,6.402626570603019,-3.2747294478742486,-3.673075057554153],
#            [1.9289940390378582,7.976706798421569,12.743907161883183,4.688479902571048,8.812955196431737,7.350980970107549,5.161738023309788,6.1264127356672615,5.1952155497569805,5.208794532118878],
#            [-0.16975449942096074,1.4161741898275282,1.543640520540143,-0.3250514946329964,-0.24418783890572193,8.938845015269678,-1.8806401824077672,0.9386131542207953,-0.07159577088339344,-0.22261828042713472],
#            [-0.34614753557484995,79.36113435623568,8.328122087739937,7.404649232669318,5.370201134213402,16.326811242726013,-19.759875303109002,1.663030033338805,2.2017478896408713,-0.2600503492331972],
#            [0.34255328819718694,1.2725969603945357,2.174606277187474,-0.936206800230809,-0.7686845162117799,9.67011168820747,-2.2839419306870687,-0.3491995684930114,-0.37395556471677616,0.34189201100679434],
#            [0.014504929434184213,25.587885988835836,27.011808702728214,4.497108107069307,5.544922581698268,-29.81178427209381,-4.4647683079249,2.8596249848633493,-3.3555501068639195,-0.07957063089022798],
#            [4.29752593900579,42.34868730135346,27.153233949361837,3.111651160410902,6.140348251516848,29.066745149004863,4.548273341072738,5.657722529958421,6.559661504602323,6.527678486827485],
#            [-0.2315633707378906,-0.70706041596865,0.5333150909225709,-0.8565292727816367,0.6150977450831107,5.980488979574536,-1.8978181155369878,-1.9796727913476464,1.1724586570987203,0.16661485407902332],
#            [0.0188346856030943,-23.015157242518526,4.058527552897,-4.540440563614461,-0.8984535849133881,100.0,-1.1087944875997766,1.0518905620713557,-1.725530424732807,0.1610551893461676],
#            [0.05968533985888957,15.603219477529409,-0.122324368910878,-6.07000785514927,1.2491403632252425,-20.313327400110808,-6.3269737741363965,-4.1705199551565615,8.418009180417673,0.012539862188087642],
#            [20.639210729984583,29.01208640440896,18.83464135267922,9.543848494500011,2.97260363686738,19.09199799821812,7.879236888931346,10.749175032807653,12.267570017793926,12.34107460778436],
#            [-0.03645307758706227,5.568546188889285,11.905484241594547,-0.6550588289679168,-1.6153818639868114,13.66340174681586,-0.9699324442510083,-0.5396965241011874,-3.6752285695628,-0.11170474532909105],
#            [-0.018508391677729146,2.534906522142857,-1.3037768941330181,1.1711613858114849,-0.2897946716447121,-0.1822176598251195,1.9242585103403775,0.46142042903889724,-1.1257777022617808,0.5680326529581551],
#            [-0.06113312503479912,3.1128440439456524,3.600380509280655,-1.3146358844455708,-0.11027426454062053,-1.560895149020071,-2.0663904587553,0.12868429581574323,-0.24007083356986555,-0.14384577421272765],
#            [0.07805506247361306,-5.05362872639027,-6.174858739212585,2.410945592205805,-2.3102978200437936,17.524696158883557,-3.7603427930780664,1.6079406593169527,6.722528662277168,0.10563984199723768],
#            [0.022121542765524256,3.1747333106856015,-6.1083954812845755,3.813760709774948,2.2033922949537033,-25.56652108418838,8.116207171036898,3.1220639188994803,-10.59280794835695,0.007155598366614503],
#            [0.047466007747702516,-2.320447372289568,-18.27706838879979,-4.600594432696504,-6.245935314533254,-4.840428679649206,2.4500811956516357,-4.512781829439896,14.785314637745243,0.2766625252972466],
#            [0.1423704448911891,-12.795027900178384,-14.183155583972502,-0.9209601895928331,1.846804025339575,59.21493050359376,-2.905528631424878,-1.3496377511764166,7.656946729452635,0.17057442503344353],
#            [-0.1969820223981121,-32.65283061226806,-25.090620324165524,-2.838184376857007,-0.08890858290818289,58.23469191076812,3.440002192468742,11.544037240152662,-20.38843755747024,-0.308189683735561],
#            [0.0019034582739982286,5.9566820342739,7.025689843439794,0.03184758805198429,1.518156044935594,2.7150707550150126,-1.6604585864366233,1.924849201204936,1.8474768752465014,0.22944814328518898],
#            [0.2161819936227534,2.0744964712397107,-2.6916502902559105,16.71108893441378,-2.7592926732783103,0.08171049005538203,-0.23215028111443492,1.6888210291820513,2.75021802253658,0.15701893690228266]
#        ]
#    },
#    "inbias": {
#        "DIMENSION": [10],
#        "VALUES": [-232.94999999999996,0.1480821917808219,0.1499801725792742,0.7641372141372141,0.14967742626374878,0.5126778584105744,0.562251177209798,0.15,0.15,0.14999594117001167]
#    },
#    "inweights": {
#        "DIMENSION": [10],
#        "VALUES": [0.11666666666666665,0.0019178082191780822,0.030437922391570393,0.0014553014553014552,0.010752458115377216,0.008439660627948604,0.006910098368476977,0.0036533964129510745,0.0030460688431971357,0.007777831951432167]
#    },
#    "outbias": {
#        "DIMENSION": [1],
#        "START_COLUMN": 1
#    },
#    "outweight": {
#        "DIMENSION": [1],
#        "START_COLUMN": 2
#    },
#    "two_layers": {
#        "DIMENSION": [1],
#        "START_COLUMN": 3
#    }
#}
2.2448312836109654 1.0404711481891584 12.377781694841644 True
