#{
#    "Notes": "Converted from Lmax_T01QUIET.net",
#    "hhbias": {
#        "DIMENSION": [20],
#        "VALUES": [0.9717493900459959,0.27509372829141115,17.890902503176108,-0.15111452969206518,-0.3209564506430703,0.2630567197045489,0.996028300127851,0.38127918859945625,0.6925593913839302,2.13980554325974,1.846493828841904,-0.14626607706632927,-0.2242152408658135,1.2520340331671942,-20.528654270906085,-0.10257069074290329,4.83593218945847,-0.6234278793897791,-0.25675441775699764,0.19059191612024756]
#    },
#    "hhweights": {
#        "DIMENSION": [20],
#        "VALUES": [[64.69940486066199,3.234981965821814,-10.775236575189528,14.178731054235568,-5.059708747968605,3.0670373299767437,-3.379330491239179,-7.821140335941408,-4.727696153643601,100.0,-6.566670588765024,54.03002818591827,100.0,2.130123011347177,12.794404991033323,-16.93256037807325,3.083423036740168,13.00295617435382,-5.822065276783777,-4.064072078835747,40.98391246349903,32.87496515032166,-4.4334938667757156,13.586861344899798,-27.106608141195515,-3.746399177971725,33.42407723596065,-0.13893531135823967,9.772428954193126,-14.796909472742406,-15.148174028874312,0.7284453913671234,-3.3605657506695787,7.609187087057675,-13.918368399849843,-14.492225361785488,2.044535257121929,13.915859289518412,-18.86152014527046,-26.20309940093192],
#            [2.552502351823564,-1.5666234793452694,0.34470079293814754,1.778303826487184,1.0706946641902695,-0.47643903286764544,-0.6533585620642397,0.8344777567839788,0.14488337453269054,0.20092282013106136,-0.5463192999066591,0.34685732205734304,4.480084615984571,-0.08903222148209627,-1.6517574348498174,-0.4059223064792655,-0.41229572322130215,-0.09653626599634152,1.0475592999033683,0.010621564785329798,-0.9820378461406878,3.0238920258931774,0.11978904184778813,-0.4827111627495056,3.547315663316658,-0.30667091402166446,-0.17669795393350265,-0.5580498674468722,0.34630612943893097,0.8034611564274448,-0.4673457878925563,5.169815844452921,-0.5070599322613556,-9.637341001081762,-0.4164017756309993,4.33847898614481,-1.7311487612064742,0.9608479553501267,-0.9774328824716473,0.35174150087406897],
#            [14.153470819007689,56.46404344732745,-15.504677429590727,2.2280256941108827,-1.0862371783111688,3.3262559336490605,35.40077077861984,3.316203677903104,33.24100708895411,100.0,-93.0554744924657,-88.35325313524665,-85.90355785121633,-4.097574677446969,34.79614706120231,16.77438907268136,45.79347709482662,10.916525437474462,100.0,40.393305066692285,100.0,-99.99655455791252,19.32693271000198,54.62025613420109,33.25233363330822,99.39703861644729,-40.78720283128223,12.261510491303532,60.671553592589,54.21475361198434,-100.0,100.0,-62.70263115191585,-62.37798961849952,-42.97279498406318,100.0,-11.838941012297086,-87.02875489789061,38.2508721932257,-9.480790361481843],
#            [0.7277170420732203,2.051489546304493,0.6530866521896578,-1.758307907637887,1.0268312415228238,-0.5628376143166103,1.9156559636603274,0.460115958387665,-0.3861706961119046,-6.896606565622065,0.1751582149151473,7.635381151532789,2.322872082708638,0.9854400686352228,-1.2727345583954603,-0.8461857612311077,-0.2024549124671661,0.2248402706446516,0.39394394474783956,-0.6280257412998737,-0.0247379854426803,-7.1181289600308535,-0.05458649436216057,-0.4359140333180811,-1.6124285164571956,-2.5897057195881272,0.6244562543130365,0.41741402260169985,-0.2409174586289935,0.441477615304651,-2.7969062274513172,2.371797272555356,0.30685388663066315,-3.2696278365795868,0.46003406842264305,1.350698225608738,-0.9548451117066634,-0.29140096774925606,-3.0465833887222824,0.4904710214396017],
#            [-0.03865916544226715,0.47448965869605375,-0.31474294006888315,-4.175737259375177,-0.47845765395651135,0.17377300527531545,-1.1079231956134288,-1.471878528509421,-0.09493129352707477,-6.90205352481172,0.054471655529447924,1.5827185657898126,3.974488681081248,-0.6634995304264487,1.1881894369183985,-0.1563227494412807,0.6159088389104664,0.3095178228015073,-0.3206556648112465,-6.413194977096719,0.8949261021175098,2.6072654543901943,2.7262102278841187,0.666445776520284,10.606979445422438,-0.42670970940284353,-0.13001186374767668,-0.1212679804715214,-0.29166635935436885,-0.5488086400433801,0.9116599746387347,0.6177540943178887,0.7134973055063798,5.507245428695597,-0.050781808910731974,10.220125471091873,0.05429942917080098,0.05448115827416821,0.9576431396993083,-0.3006495374707375],
#            [2.0279771036843446,2.599844743443667,0.7300430182689996,0.22073685498919696,1.126120648272103,-0.33878997431382646,-0.9371184852108775,0.5782278368036219,0.03517168451839119,-11.9654267177879,-0.25485335127277264,-5.01585810067096,-2.5465847421332537,0.16792245215753535,0.871361212310193,0.9155739921587348,-0.7698695599812053,-0.1365106526047017,-0.22555080573525987,2.0606579847945,-0.7322599868621799,-4.578482499659898,0.4030697796938671,-0.12196817348241985,3.323348280894209,-0.5859713158696543,-0.05686428815120219,-1.5977039462902871,-0.047798810201399436,-0.06516581424922162,-0.4107386851857382,0.9542522733275034,-0.44075226831285796,-0.37786315241622803,0.43206622671157086,1.1398861037701218,-2.6279820523354696,1.6219406539332797,-0.4842322203028251,0.21143853166546073],
#            [8.308772197432921,-4.528262672940714,0.9354322799731961,-11.027928553344474,4.91436311156963,-1.7783167409795095,-10.66221927764181,1.271272305980683,-3.1207329833017874,-55.49394230831073,2.6971753714154465,-20.652209758728503,-3.135445303613061,1.7283381235623123,-26.303871044496013,0.3643283391996887,2.842404017584818,8.412399278723463,67.9929057889579,15.673005659483147,16.739623504699473,19.59550251842665,-4.256505126936528,-9.422570919608175,-1.92956840450143,1.9041122811897238,-7.039808696497671,8.930678976115198,12.323814137887139,4.322019579172049,-11.509043756901196,4.556591991124048,-8.494445822962177,-10.770305946194318,-5.296886182947495,68.12525156776601,12.731430539008276,-34.53279584603727,-11.503240162106083,1.6603796867815017],
#            [0.04815667323170715,-1.1062827903349417,-0.8861323468149968,0.30651549004547896,-1.7158873262912415,0.7539894464470973,4.817127330037843,0.1705365381942113,0.4468491825851594,4.397743104005427,1.104732706292174,-6.113355406824023,-1.2701425058395892,0.5724889937380023,-1.9159098982963358,-1.6341584255242518,-0.7357604843030744,-0.05191645867819712,-0.0832818798500695,-3.6130198904002,4.507442379936416,2.1965288772265477,-0.9784149155963512,0.5244497458987987,-8.154678161712622,-0.5538323874398555,0.07726631925067967,0.649911156246959,0.6604185316863903,-0.20939205868844415,5.873557126998743,4.065888342958527,-0.21910107311514482,3.39563797329396,0.20036712835008857,-7.555109155138734,-9.745368348098973,-1.8902932878579792,-0.9095393561578682,0.3055407622230068],
#            [9.96893394312431,-8.228220070080651,0.30958464961393045,-5.47728434061523,0.7188510626466098,0.9736731343624396,-3.5554412587786106,0.7736140433304317,-0.9301386499743979,26.050088236613266,0.9494397059749644,-8.361873066876443,-6.4226865437785845,3.125926882353055,-1.126592553782367,3.231149400422066,1.7349898041963452,-0.8023995378658577,0.5111376572162651,3.329318485655719,-1.9221796246866447,16.62817297729425,0.45176747364084247,-1.4954751756359586,4.341904423240647,1.2500964169798503,-0.24540297503844402,-0.8338592710098843,-0.605531588064849,-0.08699038323930228,0.7473530547889098,-5.711592744806632,0.5803921632031324,5.092531482724376,-2.8642528745975,-17.364772994732363,-1.87152683065013,-0.29637386564396256,0.9628168243304142,0.8991793268539297],
#            [64.1159066906489,42.67613640255205,-2.225798942283712,-4.170137043391773,-1.2572926579390389,1.295296063270887,-29.30675529059812,-2.3404652514716453,6.644449369114961,-25.542639325752504,-15.45350853374329,15.267106401698538,23.692779460524676,1.9122326551840003,16.305467832296998,2.07100657750918,10.693863107594549,2.506213249626903,33.83177424836966,4.453309660523445,5.685927175975326,-21.751173238985164,0.47559181041091236,1.0719622492325742,2.563364257967615,-4.116290056515362,4.9254247875677715,-0.8519220623868362,5.023147413407074,2.157045320624988,-24.96169526813833,99.99280069949272,-1.8181867893207047,18.43458156657295,0.6264160115149011,60.26232021354821,-3.529013351064614,-33.92789154006255,5.729961371982999,0.005768009807574369],
#            [11.801446725515165,2.517583337701121,-3.588881109244521,-4.3750330057676186,0.2520648028299344,-0.32209793091411687,-4.635030034438241,1.1686526660945633,1.0093304122432967,0.27605646742164025,-2.0557855303686234,-12.335206289334916,-18.498768183142676,3.502359256947381,2.9293618439075617,3.4322355381232383,3.6088336314240363,-4.160785009994885,-9.966349326928695,-1.2818788454730963,-11.973286803767579,34.3165094855991,4.629164469097821,-5.660142276336487,14.931239348476058,-3.024372098665723,2.3395042656837917,-3.633329437999163,-5.824618246074286,2.3559241783412337,4.748602969594284,5.722433235820177,-1.6372393132227652,22.66196031666571,-1.9579122731565215,-28.397049619668767,-6.420355017591051,18.468772100282447,1.910929540982435,-0.03976589607466518],
#            [4.396202433187291,-28.5373473464806,-4.579145130587654,-5.510536302061218,2.1361474348320626,-1.8646874495524781,-2.3836892955872875,-0.0702531386604264,-1.7931760688576728,32.78927010778293,-0.28082521468167015,-7.358116774053521,-77.87927941613565,-2.416969475657752,2.2541728102368563,1.0589265022733325,-2.065599633085108,0.47952334673945646,-6.3094000904317795,1.3719188000991134,-1.5086465333130512,24.748947061083864,-1.1076136667368428,-0.07440534155732212,6.148140067992189,3.6755135243363255,0.04698867920668172,-0.6934885694889394,0.28559120416858497,4.177212698330079,1.0349384861923296,4.94682791381745,-0.6635331528652888,0.28643271528886244,-1.7256615929730386,-42.307729476385354,-1.0133441968497408,7.914717291565962,-2.8808827879734036,-0.012914748909543255],
#            [-0.195335595707289,0.7318628773011926,0.10251986996826566,-4.2424870158904495,-0.0008686998884469797,0.2807584086148207,0.08643424956477139,-0.20607312916398013,0.315989227385087,-6.276139342807081,0.6218730840940544,-1.2656468932086424,3.404653345170446,-0.9249374598940518,-0.6296245037834908,0.2526720298177508,0.9738977372953714,0.48424295461725975,0.13687135525055186,0.7116967605076095,-0.1470369786291352,-0.8708839300595989,-0.16368832816776532,0.4789005481661274,-0.849416073001105,0.6643306773343444,0.026982148335346803,-1.1482533953102079,0.9158488704719673,-0.2938692862468735,1.7978817098211004,-0.8077156954250856,0.4279801000448024,-9.744971754525043,-0.04565730279383486,2.2391108467245915,0.21788790391571577,-0.5039265009926618,0.9398936203565775,-0.6255353044106198],
#            [13.37335123027701,69.11594139443007,0.2810777044318274,-7.728366669530729,3.8926942221094376,-1.0204291956102052,-6.09665988457357,2.0112152189178207,7.809044539666392,26.58120607053926,-5.653547458955307,4.257243838346411,-0.6777930530879275,-0.16992041976530767,-5.627117757050282,2.125152058881218,2.481178855772476,-0.7281370220168463,-2.943219939018689,0.1785110531584234,-7.52209481382614,-18.79118619267289,0.9107269405425391,-4.681068186990608,16.00881976355334,-4.32247277487666,1.2782747217415873,0.3445636625345798,-1.6912348392941985,3.393726761171181,2.1821155543633735,4.700908396274744,-2.207095893315116,3.615565780151663,3.98271027982883,-9.930796690780696,3.3029077882547706,5.822506772472577,0.08783508151935528,-1.3321945814344764],
#            [-4.33357626340459,-2.6827301487712476,-4.1946028185293045,3.0312871469915805,-2.3742819215379325,2.5874155632430806,-1.3898512268987822,5.530042097023216,-1.9752141787415918,-15.596694980858647,-0.17806524315295447,-4.828046680608578,26.33091471865658,-1.0945993227265167,19.32293981102625,-1.342506507949453,-3.4931829643637773,2.0211943719017693,-5.9958368139475215,-5.68774861994387,5.0451727865466065,-16.52395832463767,1.3736975647129939,3.0538181259514046,-2.4638616863407057,25.051238276683584,4.333898799968881,13.921987539364359,4.5571751094609665,-3.6719574382703097,-4.898009721493771,-9.739108275100666,-1.9478619970124091,5.704892231034251,0.6041638044236175,22.130138275328086,3.7812014880553697,3.5936666123338497,8.151895164931812,-1.109463037167073],
#            [4.906416367532984,0.3144817595720177,-0.21721384762185353,0.29057722701972727,0.7481787697876884,-0.14103212128899445,1.0972249515052204,0.0970858293704678,0.2998308882260917,3.034636981508108,-0.37271334419664637,-0.4137716533478141,-2.5960681967837624,1.132795858383786,0.4047077604291362,0.3266494222517101,-0.8948508862170041,-0.09726225288388284,-1.2024787464054576,-0.5539380005529786,-2.0747316898626247,2.2554484054375163,0.4225354985787559,-0.24079776122704946,4.331059258959177,-0.5865364447935503,-0.15531984896310216,-1.0342279759737334,-0.632307261462064,-0.21368576031374006,-1.9957020371758665,-1.05279403067491,-0.9229696636619721,-2.046357437975806,0.019331833376864522,0.3928400398818864,0.632409319853545,1.4400004658171428,-0.6958722077745035,0.14278002806185902],
#            [-2.0505357045955472,-5.2394093368954096,0.21812497222854127,-8.284301880493635,0.5611544995964762,-0.08045654620013629,15.61761948131472,-0.8492890826996825,1.8456082213022689,33.71719662809881,-5.702873964886437,2.0981140267338128,-13.062645399780223,-11.68017359439843,2.1897853039122483,-0.6981345529131303,1.2564335273400298,1.0233668216602365,10.142577788177055,-10.36387421883069,9.89565892527306,18.00422380299435,-3.8894039824134383,-7.9008143161433955,-4.332853035873682,10.399718052783111,0.8039226255987842,-0.6444465008130905,4.967952126905729,8.463296289585688,6.38097119271145,100.0,0.2759087526658033,-7.885168489730324,1.2209523744672752,-59.73427929388491,5.5517993450936425,-6.627737769228281,2.446535156454082,3.0642649459310047],
#            [0.6709342991092634,-1.710992483505806,-0.3663976751084778,3.4147888314506525,-0.7800163925756387,0.10340526320219554,-2.51819223619694,0.27167486517167466,-0.8580325191051831,1.1931327633887003,0.1759401431743201,-5.786035119326545,-0.721527643281782,-0.27766405193471844,1.4498153168052346,-0.12015096605856818,-1.7815058143234177,-0.1190400032226861,0.5130145384589463,2.251541898573732,-3.664702188921453,3.440047250377143,2.3058702618933555,-0.3798289433686295,-1.0329584136517895,-0.04429358950124791,-0.23640058097429273,0.2531698884589392,-1.2677641825423038,0.3014838085612342,-0.4995457396171188,-1.375951776957203,-0.7189393496057424,1.8318634506321394,-0.6221582762210238,6.170502628274,0.01916764182584285,-1.513890248992507,-0.7453772475359691,-0.6594258896530206],
#            [-0.26061425417047057,-0.09983197642321477,-1.881586205316185,-5.46062773937423,-0.2768486861251581,-0.002709598397226881,1.085213563262471,-1.4077139894313513,0.20807784109741873,-0.6780597624379033,-0.10237770380145565,-2.703899718677799,0.07670425706817972,-1.5752865575255948,0.11370175341413834,0.4569688029308937,0.7271848351285258,0.1326473856449648,0.4823815962187467,-0.8952528024137683,-2.91209323847552,0.8234120030927873,0.06353073992541876,0.5140110437884613,1.2426350184890962,0.8040787855222356,0.7404894894185307,-0.33791362896341803,0.04038622495472546,-0.4510852760955702,0.9012634116499182,0.3654471823124209,1.1075662713473164,-0.7139350031737367,0.21087508852041148,1.7699062942522805,-0.06781468092865793,-0.6241179089963984,1.4364825591977624,-1.1700851862353403],
#            [-1.6510037233581187,5.572099542017516,-0.3154104286994463,-0.49801608200719044,-1.694146273464605,0.6007659409786471,1.937263814730289,-0.18951971150789704,2.403921794927646,1.6871473425815167,0.5725155021012295,1.720366067880053,0.4746269834540383,0.26888790206388824,-0.320165632085116,-1.1814406925510696,-0.07930237905610661,0.32311961320433297,-1.8862743103312638,-0.6837627481219114,2.4397186665118924,-6.642942306076029,-1.0384394696230725,0.9576691094497365,-8.22152584774999,-0.1222233533883843,0.36882694728369025,-6.9553816639305115,-0.22924153783584256,0.27863967935933365,3.4739093390026836,-2.168773421045615,0.3061638348220684,4.6020434609745555,-1.0558415897610893,-3.99505280162275,3.3025648076766405,0.2656225053973468,-2.687632535687646,-1.6444566252795074]
#        ]
#    },
#    "hobias": {
#        "DIMENSION": [1],
#        "START_COLUMN": 0
#    },
#    "howeights": {
#        "DIMENSION": [20],
#        "VALUES": [0.15235261990851212,-0.7734976286489177,0.24054336634409093,-1.8368906481661205,0.5781420591866697,-0.8203317948729392,0.5228237711448914,-1.3234737051087513,-0.7309118427206174,0.5586103396549154,0.15194718200339946,-0.49247044523682193,0.5691001292543356,0.40057291899705794,-0.30488236505226113,-1.092844181548352,0.1864252435218774,-1.8738793161845457,3.494520428484771,-1.0559094808419593]
#    },
#    "ihbias": {
#        "DIMENSION": [40],
#        "VALUES": [0.8071504534705666,-14.398398678538829,3.7504077522756716,0.07905471639127616,-13.897035669417376,-23.039946418572676,-1.758188193478001,1.1889375771021462,-5.98798512284341,-0.5873853679740269,14.900283864573161,1.0697397648527993,-6.291690592675707,1.4214742648928695,0.3364560237381838,1.2739491188813763,-0.4070050027850437,31.666777068470005,4.269209379662123,1.1331330660053933,0.14871534266873343,-3.512859052606321,-0.973088742257321,1.1174352605353484,-2.729707235220881,0.6761271321308224,-1.6640035715763508,-21.405834629737736,0.06070335029299412,0.6434878376306812,0.2398536427364396,4.7232812528760775,-5.763553865344885,1.797931697846033,4.388332780484402,-1.609421014533481,6.00260139790822,5.692762406182146,-1.0128326063467121,0.8790059856431671]
#    },
#    "ihweights": {
#        "DIMENSION": [40],
#        "VALUES": [[-0.019884059864727254,-0.20300699370448733,1.1386908786988337,-0.14627966365661726,0.2826799835205256,-8.592110755934835,-0.11261647238057369,-0.7306252449311791,-0.3705822420925789,-0.08018012715634937],
#            [-0.07863975696290408,-0.37304461888324547,-0.5184542558761922,0.5063180764955276,0.10287821752679426,0.4742867639767791,0.19466107652212514,0.3687445587846633,19.6047237879755,0.03331366714514522],
#            [-0.07205814793232804,5.2639220996254465,5.4548132360732815,1.100214508579033,-1.2084353435483428,4.179316800117956,-5.352654198752395,0.25616438453220575,-1.1789796696360075,-0.0824965807190106],
#            [-0.0012121152124355361,0.4125606351641134,1.044796449395021,0.23550553955004488,-0.15573497909858602,-2.8815923687527287,-1.7210958268345202,0.47193417964253925,0.2980902366275011,-0.0045833199281369655],
#            [0.06587429601796911,6.147818229842949,1.2442944820097648,0.5721131257709119,-0.8800816907831112,-8.842573020911694,0.5034909192333472,20.07830438796274,4.7508190467027305,-0.17839915356176347],
#            [0.46261167480193716,-4.6021721936654325,-0.9894469938560234,2.150241412181977,-0.2811509947982894,18.772773077834245,-0.09139565903877853,13.427751688578793,20.234531634230766,0.1242905521431674],
#            [-0.09349181154752052,-1.4261848642777524,-2.414449008048811,0.7760509176903907,-1.2969358574883074,6.910840250288677,-0.015922272847401588,-2.7370253914456746,-2.706591745964991,0.05530668877672282],
#            [0.013836650106966546,2.04633167982346,1.3640674772528,0.46059373738084175,-0.569072837564838,3.5826218689395986,-2.791983092857305,-0.7163915208133785,-0.22756425230665395,0.3153530985816547],
#            [0.05464404783210728,-0.8558793169779717,-0.7479137043675087,1.4949559230829654,0.025255276465578864,4.888412366805337,0.5100455588887586,3.4409144010498736,8.571047382274726,0.091881075609485],
#            [0.03935664408910036,0.030145778584124372,-0.33972218568431073,0.15736119906660856,0.02764061183098954,1.872408750601496,0.3002472025904948,-10.233779582919517,-0.07339947913317271,0.046834663993503806],
#            [-0.03416094591300344,2.6605962020375964,1.3324597429173433,-1.9182679358505028,-1.0242986903334004,-0.25065101261533773,-0.8364173902215418,-16.459221130691343,1.4525248900107377,-0.1105653978587236],
#            [-0.09840573175586818,-0.6758732113173697,-1.385865463988652,-3.849673035942194,-0.4130731650860113,-1.548096193222057,-1.3583303131961706,2.0779157074337014,-1.0710380637671004,-0.46021411070181606],
#            [0.15260369659809198,-0.9512684688254616,-1.7659039544191724,-0.3516334176746692,-3.9104748288387254,6.326040530434724,-0.7661277797582604,-4.181871616538065,7.1456988249187114,-0.3494084411400538],
#            [-0.06509831826360417,0.6498726958139512,-0.5487746699882107,-0.03063428108370253,-0.82555467442782,3.4191497576039556,-1.9036395880262975,0.7101022182964392,-2.6357349513444976,-0.048979354656313666],
#            [0.007000055800894093,2.184357493125313,-1.1051255926104164,-0.751933593471981,-0.5235384141027386,3.4136661156307744,-0.6736070701092942,-0.9144319352639361,-2.6185875703141757,-0.07188904577217009],
#            [-0.09995377539080187,2.4096714895263105,-5.220720342297596,4.444295808880901,-1.3504361471428854,-2.967429438182524,-1.0252519524424095,0.5947959308908503,-0.7970467935550627,-0.012490310803485479],
#            [0.14206040957667448,-0.44467071331889213,2.3876547139985385,0.8170689660112955,0.3009084705327371,0.2696804886336553,0.9855710456529403,-0.7046719492374512,-0.3208142744157848,0.25168186442771845],
#            [-4.544465782054833,30.313606859303015,-67.04222856536909,-19.42889206557927,14.532107748561698,-88.37346026462255,10.44275896503156,83.38489083742347,100.0,-16.92184446825664],
#            [0.008078011238117076,-0.19123762952923468,-0.41259059084492067,0.7487022643562553,-0.5299067652509121,-0.26019750218628124,0.7038543790879951,-10.544513876583656,0.39569490159698983,0.12190266204826553],
#            [-0.11967170724590205,0.692868946260851,-0.7250769513030974,-3.884559825411824,-0.039757860914794385,1.4296192949986486,1.2343531861197075,-0.38496582496406684,-1.025539602180504,-0.14922711222528304],
#            [-0.1347361893851659,-1.7455520874162307,-2.280276305089641,0.8152009274868142,-0.4004401874715507,0.8477133488336147,-0.3361412358822292,-0.9607526898776203,-0.549542446162152,-0.28253927446153215],
#            [-0.025036575682387426,-0.34168820356598517,-0.20230896224852976,0.08923967192647614,-0.10704122456827003,1.3649829919426362,-0.07673159265059006,3.8079788293295334,0.573857286489242,-0.014932617086218496],
#            [0.3739561461355009,3.792305368624952,9.428550399469929,3.230573660563893,12.037208291329515,-9.90801604057613,-0.9017271657971105,-0.9529473777244881,-1.1102982132730956,0.28131211477470974],
#            [-0.45715192027912444,0.6946037740799385,-0.4440035990904759,1.9635593846146944,0.6702696171615774,-6.732919310045897,4.1226088986529685,3.9542377251782828,-0.9755895689032984,0.3398402348393349],
#            [-0.10596441772005248,-3.9432323263150444,-5.656772849303536,1.0190550319270766,-2.2894370096476315,5.0515060670798295,0.9968587221855898,0.10456673663438003,-0.32810496639975645,-0.061209536660302766],
#            [-0.027505700622921105,-2.026839705069557,0.3754166316029604,-0.0403388769090843,0.523944019008276,-1.6260216897841437,0.4397830046252817,0.5725831823564738,-0.4165519065990667,0.006726365574896161],
#            [-0.8105591448866797,19.14962491880729,-5.756192442334153,11.709527103228398,3.8069066002097434,-5.474242837554898,7.6990075834393155,-1.6683433274765525,-9.06647103041301,3.4570582388104643],
#            [0.033188895018375936,0.30246286463876076,-0.35223512691227854,-0.21510507235064363,0.6704767311545873,0.3800398437656205,-0.9204239139848118,7.269194942773096,34.88927503334829,0.16748504153719837],
#            [0.08701891554481192,5.543365085776702,0.3380319466740991,-1.9474488057731818,-1.0820240997199673,-3.1427705846569087,0.2907943087958581,0.9571763909962725,0.8420195778001347,0.05825580876588316],
#            [-0.0737915528860271,0.11545866526773496,1.3145991026877488,-1.342120340016004,0.5350194511643778,2.934821480317806,-3.348628768412575,-0.6740713541754296,1.418372845881502,-0.21776135502751198],
#            [-0.10240289371223517,1.1067574719915785,-1.5620796995522461,-1.9773294096296357,-0.14856434107503086,-0.008158155783127936,0.4230535564607661,0.21169517516495315,0.6497278356122255,-0.19717338347269403],
#            [-0.03470306266641138,-0.4839173024765206,-0.4495100656230843,-0.4575255199467995,-0.8207204045142635,2.4111329858766477,0.5404182835734999,-1.1393720636348745,-20.911866723481083,0.23670565474538047],
#            [0.037154265847943714,1.7561955917936294,2.7249147096058435,10.592723192012159,0.7768805914205085,3.673519223135587,3.1258969347005054,-2.8325912487444387,-0.18713227841198787,0.883858216503647],
#            [-0.018850263888402573,-6.033974213028693,-1.2830988596983552,-9.270572548976087,-1.7443475255602758,5.505978667335657,-1.69777820881827,-1.367167043548404,1.3041062846943225,0.4205783772963996],
#            [-0.06741616978481195,-1.1005483211672533,0.208518052922428,-0.5799481165662492,-1.2631838479963033,10.142831475992095,-0.24164491646479924,-0.8930049051991554,-8.59314138433907,0.21749785236141353],
#            [0.03141785604553698,-0.19828946804585917,-0.6418517790260374,0.26727513105252576,0.4533492823181568,2.557597782276126,-0.19998504239585527,-3.76451285006818,-0.16854137321719054,-0.02863418950434029],
#            [-0.020641319273155948,0.30576556817797995,0.2728571708067773,0.20993989806580918,0.40141625927940483,0.7356159524326982,-0.199985528865318,7.841784287482989,-24.586395921064437,-0.05192767672511289],
#            [0.0680558624440241,-0.5736848306684355,0.0010706140223923606,0.9784589361252711,-0.25640061176063494,-0.1276806759658241,0.652662013620932,-12.400634662248285,0.549744931479472,0.1575604984208981],
#            [-0.1695872189847685,0.6820838099314435,-0.6646864789200239,-1.1396622901588065,-0.051445407218769994,-0.4226149822769061,2.3321933455858854,0.0022330978437082338,-0.5162001995311878,-0.32848711143515313],
#            [0.15171433087730196,-2.524891326275651,0.4604308901854455,-1.6800117964048473,2.8833288625217763,4.3767651179153795,-1.7499190168013563,0.07978754438188955,0.08848190994524296,0.016360950217803972]
#        ]
#    },
#    "inbias": {
#        "DIMENSION": [10],
#        "VALUES": [-232.94999999999996,0.1480821917808219,0.14995442110269497,0.65,0.0721695892174693,0.46828952161057746,0.5595977939978736,0.15,0.15,0.14995419307312557]
#    },
#    "inweights": {
#        "DIMENSION": [10],
#        "VALUES": [0.11666666666666665,0.0019178082191780822,0.0304406421291693,0.01,0.1556608215650614,0.061805478463292866,0.05808044120042527,0.0635826963488181,0.05471890609547856,0.007778295819716611]
#    },
#    "outbias": {
#        "DIMENSION": [1],
#        "START_COLUMN": 1
#    },
#    "outweight": {
#        "DIMENSION": [1],
#        "START_COLUMN": 2
#    },
#    "two_layers": {
#        "DIMENSION": [1],
#        "START_COLUMN": 3
#    }
#}
-0.22784506638276963 5.376468236816553 6.581484462541161 True
