#{
#    "Notes": "Converted from Lmax_OPQuiet.net",
#    "hhbias": {
#        "DIMENSION": [20],
#        "VALUES": [-0.07126177852486269,-0.4545453835575537,-1.4293520977344634,-0.7524819272755866,1.9281148326677784,1.0781662377455086,-5.7052843619561,-4.7959923605206,2.787374485733592,-0.04761116265480015,0.7838515447368595,-0.027634056461448085,0.47342745370511996,0.5282922403257959,1.7433002386058265,0.1135720239370402,-0.08457229866489162,-0.28385501352581977,-0.8272169606947133,4.144413282002608]
#    },
#    "hhweights": {
#        "DIMENSION": [20],
#        "VALUES": [[16.864852476920987,-3.9699774766378773,7.4960533621464345,-13.200589768715265,-19.518228854283773,11.22664346422925,-19.026944211639734,-0.8616350019254313,-2.260608980480407,0.6929008253096485,-0.05802073753374797,2.733215693341584,-2.52151592820649,-25.26237974319877,22.398126894502663,-6.515161513822404,-1.3266084962366942,-5.7577630609300625,-3.5326535714283236,13.81468225351876,8.334888543573275,-0.1824176657948615,-1.4742523110179897,-2.6117132193401895,-9.176477013628686,-5.228783340747562,10.130593917387289,5.727881471882573,11.85086745481346,-0.9706811189363517],
#            [0.0657198729798643,0.22335415543992004,-16.21078125804777,-0.4812896538875953,-7.340245521996709,-0.18257612603367926,-2.326467453945312,-1.5454814414812248,0.10840391342848409,0.6055592012776766,1.944794171572029,-0.9155064287133845,-0.3576416752430903,0.255036353094214,18.34844245760605,0.04885596775851002,-0.31111745764493265,-1.1635452415974743,0.09966076289957472,0.37069147130999497,2.540829714105193,-1.1072957929510359,-0.026176130432404986,-0.8462147377052984,-0.3307425133509306,1.59093566924477,0.6194913006468474,0.630907027528971,-15.302107585689512,-0.5019790360463385],
#            [12.182501853469388,-11.067348988690009,-3.5011482650298373,-3.359931377589077,50.20905652661517,1.178521460626158,9.213647273981078,-1.645600813602966,22.92777092849833,1.7068534051707975,-3.7202725111157844,-2.8594956092139605,3.032767450809575,-99.97894196687078,100.0,-5.376026691873869,-4.400883189048065,-79.10784308391847,-10.078438689683109,1.3541478802746292,-20.614932488164836,-3.823686056526212,5.868255576201684,-2.3237206007931217,-24.152765390977432,4.86088591832307,12.9010048554007,-5.38636382210475,-44.34050283590799,1.6362721428183882],
#            [0.5531938791926033,-0.7973274348968532,0.3925820078045682,-0.6011052177404538,-0.09882122211571705,-0.18207523753804178,-5.7807600756572235,2.9992915689884945,-0.9365454223874461,1.8847281383273902,3.464807643731175,1.024199921919628,-0.3584272477328844,12.717784374829954,100.0,1.7656767542247758,0.5413708699069116,-1.5078054028096897,0.2239973367144884,1.0039812625962607,-1.30902870473999,0.02850187390886147,-0.045786095141485836,-0.5567970698591109,-2.948976010437281,-1.7865508860007577,-2.1455512687303164,-2.109217036162835,23.943882889235926,-1.18827835689163],
#            [0.21195436229282275,1.5610862291190777,0.7843059273103893,0.6427683346623727,0.03347133749773372,-1.2655455293267772,2.973531397558299,1.2845087750325024,1.3079715836364592,3.1674290619274394,4.099624186307307,-0.38403083921825787,1.8166470648033162,-0.16836079175306623,4.916624844886348,2.145630474562741,1.1931661618054825,-0.4901451452124163,1.0596327172869777,1.2403035648266527,1.5324468860970266,-0.714123083200245,0.40867996055450284,1.7336286637364817,-3.8392770453605034,-0.05521768684005647,1.7752593039482745,-0.5799277967471735,-0.899625241013312,2.1646094337158623],
#            [-5.041785165041979,3.1272222599376973,-8.39587778693557,-76.61902695019988,4.956372379293125,-7.321600842535137,8.801709544548093,-2.700648476542511,2.705383781494489,-1.4668896663816262,-2.9191801483497293,-2.5501875447334186,1.7799637577807288,0.6634937723122853,-100.0,3.453593891936503,2.490690117158646,-14.035770886191804,1.9012800068835292,-3.7746315110740976,1.633488430747145,-4.109774617434131,0.8853055959927256,1.9831877733000447,-32.44811247374289,23.72783467169459,-6.133196599408543,1.1609400093247109,15.2927122012025,1.4557580798547276],
#            [-6.1645975631520775,1.0232452929982843,-15.568759081604892,0.8597933216732396,-3.9853858448168618,-6.826130200433206,-1.41563134905004,-6.874437950697231,-6.01533199481832,-6.996334729672009,-8.647759582248165,-4.816827064352388,-3.1716668078829247,-1.6761068755174378,-7.6536931718418275,0.7376810363072327,-6.2319721793710565,-1.1114746741878239,-4.487124457213965,-7.589872170844822,-6.103018730070385,-3.838735279332841,-4.995222718107802,-4.3908885070956565,-3.3550605864738117,-5.5542111496429465,-1.7315540830003635,-8.001686493012519,-0.40759922301947715,-6.2604352508164425],
#            [-8.954158687854518,14.107308606924851,-50.63670066972067,10.011726204856522,-26.789861608628048,9.27101611328768,6.813851622131,-5.1640184183175775,-7.645283582120885,-4.918754773905507,-1.7582537053061775,3.973116297174085,2.3716128538141774,-2.9529249220133487,3.4835994791867666,14.167960895770188,-7.073848869505419,15.626856352120294,2.1970882954545647,-15.238238733337795,-1.1659125309441873,4.936067580854096,-3.5657250294429037,-6.501315079372555,-15.77420690676733,35.566548432718236,34.82086240349884,18.314394118321406,41.874129060917085,-14.725649354165322],
#            [-3.8414365817939173,3.482075446267686,-27.90063471628446,-5.323143963675976,68.42459231788341,4.403150209995535,6.34229764285939,2.7619701252804916,2.515982545824081,2.844786079850115,3.5109972110830507,6.080333703329282,-0.5992273692896343,21.566267376870606,3.1552934620610285,7.282732845392224,2.398640306243718,-10.677720820081143,2.6939832051127373,1.4324723546265739,2.697948170718985,-17.617437603579134,-0.13699163999459835,-3.451081689060176,-12.774593941934146,-10.76580373711324,-4.710973842538872,24.9266374650156,-59.012852877343235,5.606752818656379],
#            [-1.425310035697421,1.1312326076609358,5.414779057677864,1.7269681272719872,-33.186735192159155,-1.04841512204151,-1.0609281289209351,1.3901121170016537,0.48750914318462174,-0.42069416279403493,-1.3334380490566005,-0.5632847785506223,0.05593786215027056,-5.353050674930225,0.13328012438125675,1.1627173432383273,-0.1550532306842982,0.7862842186179636,0.2167965004630923,-0.4814821631086179,-1.8261171834338428,-0.2929112162245876,0.5718303410512526,0.39330884948307443,1.964947546981168,-1.2356406767794652,-1.2419761148286539,-1.1587586352188082,-46.52825179442019,0.023633757272245204],
#            [-2.577922657707129,1.5904133268755407,7.841156065708923,-30.507502454755418,24.40691040804229,-2.1429498363892465,4.019906555572959,0.9772677775044916,-0.8657602748311403,-0.6934536767012123,-3.717543533435302,-0.18665752243917122,0.6281173193781222,38.90848570006506,54.06966377619635,2.073679170293145,2.210175749181927,-7.7730233579087855,1.2201372929821175,-2.564719996523746,-3.354815897032531,0.27374205241905,1.423411006547797,1.1426484417865514,-7.3421100639037045,7.399569545466021,-5.574592014993821,-7.275042009608885,18.83668902289198,1.018035261187463],
#            [0.7485548669901295,0.11702401785364316,-42.839082477802634,-0.1133600763713523,76.63144636633895,0.025045946702436917,-0.41794309072396735,-0.8792731665922923,-0.0009594705133354556,0.7996053468820343,1.5798772503061376,0.19083032363521557,-0.3903567616834115,-13.820540827246719,8.40389512836612,-0.8312154377373857,-0.7133129052986552,-0.5977836676170611,0.037141301024862614,-1.01458215109578,1.103779072405044,-0.303672947645543,0.3493873507377019,0.17582709802137994,2.2976112269648916,1.1505208286265274,-1.534243755219092,1.3003459667999884,20.069937944117182,-0.04882501654264272],
#            [-3.3004294950797846,-0.12022279944232017,-4.928066610144804,-17.39979985904356,46.12288434970343,-4.031578372773109,3.764545851783235,0.7337181888405049,1.338555655172745,-2.1280593611404766,-1.558405164647196,-3.663970558533494,0.19546473501975484,-21.582167461177303,-30.02014741054217,1.7773839819466632,-0.19446903188197867,-9.470527720455994,-0.520993029955463,3.272693407604811,-2.8025866747085426,-4.270148226181368,-0.46768765224581815,0.6949390180735532,-23.274799368033367,7.161996065865446,-0.6773298900542479,4.641523752120672,9.257603151661598,0.2880151666491829],
#            [5.80020659290952,-0.1437637839224921,3.7794646284743676,-5.768463867403135,65.67001862831458,-0.7902628295375365,2.710310148341546,1.1279435736528267,0.27289701207238604,-1.0093594777545851,1.3160278404011887,0.9048270778613249,-0.5257749652540107,-18.093249095389705,-31.90132916365706,-1.0802272169956544,-0.04513855251394036,0.3240551459223974,-0.10509049976879711,0.09021044256499122,-3.5818413379523224,1.109482290367477,-0.022376222423932227,0.9999981840185977,3.248449733131288,-4.730356324321681,3.887467621978593,3.0384136925481253,-5.934473762691696,0.9329275597262139],
#            [-23.48280574942388,-8.601977265635202,100.0,-24.333597502107793,-90.42590994481039,4.220856649250624,100.0,1.6229441009235364,2.0239748495235266,2.3092843277016355,0.630370929495351,-2.9852066036721867,4.172576555631762,24.769801098155053,36.03821045288142,-14.209074990108414,2.225999076588711,-10.865185564383685,4.04047126079073,4.171138077367963,4.766607749310967,-9.176033019242476,0.10283851753356983,1.7632013306272243,1.9698237028077579,-18.96931845877649,20.870427461875252,60.060133299286974,-21.730366683312212,5.954113028373661],
#            [-5.323276037018165,1.298973569681907,8.028624869031354,-0.5503826543282307,22.995060351895894,0.25122837492789324,5.25673050345782,-2.606911326186802,0.6926551270352826,0.4948152226762151,2.400893475585393,-2.973219136121892,0.1780835397809915,8.270609019446029,23.69235571364854,-0.5180570650868352,0.3795521101776019,-2.4407594461979905,0.18571537399424493,2.4110592608563843,0.6464755332331399,-2.761545428742907,0.5482622053022209,0.4825192673769028,-2.8179299696305833,4.649865450255036,-1.1398556990837512,-6.53128157386311,-3.030065694038997,0.06535695208286019],
#            [-0.385587322746081,-0.6418603844467524,-19.073838549366627,2.8454287277944705,-2.281385794606557,-0.7179752482854559,-0.769311248851952,2.1265737091922263,-0.3758297392656781,-0.6588879120598742,-1.8271929577325225,0.9010557538650111,-0.12752718137818164,-10.48964239742646,-12.434008340037654,0.6050286792248777,0.12217393050923876,1.5471626634827051,0.03113235568541396,-0.40022738401597807,-1.3759712168915654,1.1420900769678424,0.6521001111981484,0.08991917485672288,1.3545289907192053,0.8127146033114492,0.6902410278856833,-0.6868865700483673,-0.18833733364773314,0.5347515266556855],
#            [9.244381822692423,-1.2757453656888,-12.993637239912761,6.150517255418721,3.1833325404584443,2.6194757931709867,-4.376898098934885,0.22620062651971937,1.5860217876681146,1.2678731541458104,-0.4874310701774579,0.11615246683411729,0.08416901213039672,-5.695784110819437,42.1642933417196,-8.849784168381165,-0.3675396632031648,-1.0633998849441582,-1.2795928433646166,2.218371946609712,-2.5283307907036754,1.193372367830382,1.1915606625064004,-0.25843652709136783,-24.315728906477073,17.289908130640207,15.384964703044957,7.587424237923974,15.114712292417357,-0.6061288290523474],
#            [4.585636763577069,-1.5606028514766346,-12.139352838238567,-5.915074465516706,-10.572175507472304,4.000238051392432,-7.4169461857376,-1.1347360797902435,0.1991731672459124,0.46160330712467884,-1.0590894712681032,4.8677040106166904,-0.5666632515326622,-15.26172699365021,9.329345757447213,3.983513719088114,-1.9501014038054654,0.7075129342201869,-0.9557767369650085,2.1463262121309805,-1.762292223332683,1.8387545612749516,-0.5063400842602258,-0.6908629626577353,0.7565128288483838,-11.809909507484637,0.06966156131210308,-3.640032734665176,-61.19809416846505,-0.19934153007377253],
#            [-6.340567463060784,-3.226663890530505,-8.169446913428759,-8.537767305706495,100.0,6.133392808762754,-8.785595919325592,6.365176120383044,-15.651840055005687,4.417024321794349,4.713999240594387,1.4644289293751565,-5.4046224601401995,-19.40440612510158,40.2852977394306,2.3589481160241945,-6.640842730594368,-11.252664791260544,-2.7940402466635628,9.495342205499135,19.06950242641762,0.6770095538795526,-14.1155142143264,0.49750054414688216,-4.35295081867123,27.5348420647137,-17.0798485935756,10.204032594869815,-100.0,4.620785148638077]
#        ]
#    },
#    "hobias": {
#        "DIMENSION": [1],
#        "START_COLUMN": 0
#    },
#    "howeights": {
#        "DIMENSION": [20],
#        "VALUES": [-1.1776298126173326,-1.6044188345262809,-2.6603163320836836,4.270962361206636,-0.2532379098617146,-4.120741470464816,0.17804901266122608,1.0549898063856704,-0.6651214464638583,1.7446136131081824,1.0847024612851328,-0.5679117905567773,2.456914218461368,1.517789125609297,-0.7377110437537004,-3.5437951730480757,3.297682610905487,-0.8726922695075676,-1.8406930788377494,1.4018408930283337]
#    },
#    "ihbias": {
#        "DIMENSION": [30],
#        "VALUES": [1.9664107693796038,-1.205260615421977,-0.35056010351997935,0.5849827742186112,-0.8198276532459123,-1.4836558735129934,-3.0431695001071506,-0.38572059490311456,-0.4388942967375643,16.34137780245554,-12.810746043978341,1.8806317251415052,-0.5745947992880838,2.1998768124552144,-0.5961719021745299,0.009256273362440318,-1.9998615499431616,0.7651072925670077,-1.6770499631872362,2.04753187347091,5.895763307277456,0.9636725069882689,-0.7134129124358511,-0.13821156019091285,9.12859742030656,5.365281577213508,1.6167206854130072,0.35506701801009255,-9.334397487774426,-5.043306949280113]
#    },
#    "ihweights": {
#        "DIMENSION": [30],
#        "VALUES": [[-0.02171491946448631,-1.7639593777075468,-0.4324802423161603,0.17396842806275994,-1.459644341026903,0.2731121652972584,-1.138028285422532,-0.02212578155270837],
#            [-0.09881835113910065,-0.2866126410991806,0.36538638932218737,-0.2921284656622575,0.7142774482824689,1.2933896253424242,1.5079936914361511,-0.23524450218765114],
#            [0.012985742120723953,-0.23274790612556914,-0.11113426058003632,-0.1173214514358804,-0.2159515589086855,-10.824074931951737,3.3288383228744527,0.0033404932121693185],
#            [-0.0021161275738077905,0.3358451884568782,0.20627820589685736,0.2842462168237895,0.9390603367120215,1.6218465488121017,-9.185103682110245,0.029329998765692464],
#            [0.10041489426993701,-1.3648149706537853,-0.6107032805086522,-2.424563099798251,-4.758525203748837,0.3837061564151091,-1.0149437814168887,0.5813286595601856],
#            [0.03095708937965159,-0.0877613303520369,0.19405070600425767,-0.09068383252611342,0.26629352422868724,17.50378108654251,-11.055074965340518,-0.024634532843948988],
#            [-0.006369329581177333,-1.4122152651427344,-0.2743750492191397,-0.11799580005147876,-1.170187169225172,-0.7011290858376856,8.84100752721276,-0.013845506183160668],
#            [0.002087719582994255,1.866063214011691,0.8384280165324052,1.1083009022402173,2.9991353391954205,2.7880179616160854,-2.3783103637793,0.005512459748392057],
#            [0.02839926788620151,1.7968231003662016,0.25761446879779815,-0.0013595485028632531,0.8331290979199164,1.6041473582299959,-3.8296401678220953,0.07428901642308723],
#            [1.9549470698342735,75.66187806359234,-29.67121283199728,70.10786115614223,-46.17645736889926,68.6217672035028,-12.789612769779321,-19.831979944480327],
#            [-20.025027758500162,-5.278498676166102,-25.84637376592378,82.52973696486279,79.4764699116709,0.23514727570181115,52.25544811726903,-31.096002581597183],
#            [-0.11876960585867798,0.4436700148249772,0.10324647657311366,-0.9212651389371314,-0.21161871735813131,-0.2062700327883474,-4.331128348790056,-0.18490013568781252],
#            [0.11369935634848723,1.445465240289146,0.03688168757814456,0.14143797581804077,1.9207683470484553,-0.22083810833394674,-0.0008380369329278574,0.5499891281888049],
#            [0.008453420475171681,-1.5601846065646958,-0.28033521979599435,-0.1283961031379605,-1.3250241259491007,-0.9421633755763117,-4.505792315055427,0.020942696198070303],
#            [0.025235920816610195,1.3082340337627594,0.3289561497488306,0.45651293485213623,1.3533226950446557,1.2971203951999273,-15.983514923661007,0.021904599769108996],
#            [-0.007994935776559575,-0.8978396320513986,-0.2780809665359094,0.053630213818421625,-0.7198917218434974,1.9520438987320612,1.8153273810682706,0.03131321020051088],
#            [0.25011088619678545,0.7751225209392334,0.6881964790993611,-0.7543002916785017,0.43517264745150297,2.1607158593150464,-0.8545168431859387,0.8453575228025302],
#            [0.04389050928388518,1.0405756272558728,0.23452832453035627,-0.21105774333895225,0.40376596091790967,1.0146352743478815,-7.711807606467677,0.04619375608282448],
#            [0.04199452325891676,0.8715925888451024,-0.45722665044685945,1.1754145593880756,-0.06540601979572866,1.705560990517476,0.25661861108466266,-0.01436906299420344],
#            [0.03397580734588199,0.42356877138638077,0.1770223254105172,-0.0926354091641385,0.6861893496158987,-6.774866037768165,3.9768865780536338,0.019319427899515764],
#            [0.01928249385668375,0.987908616898688,0.26526371534136267,0.3015476083936404,1.233571504690495,6.059854990582566,-17.63980562468322,0.04248980302942607],
#            [0.19701301237090937,-0.5042736373106499,-0.015195978010858695,0.5223565694240296,-0.09174325785035392,0.13258118664649282,-4.665885751733703,0.2537873621908085],
#            [-0.031153156025733222,-0.0016452696768304567,0.3892016692201617,0.9634907724587669,2.217789745912613,1.1707425722601754,-1.230722260269452,-0.4423613687634392],
#            [-0.30385916333382557,-0.06085971463564981,0.048568176848829095,0.34066575839097357,0.3885700161414682,0.022799244721425985,3.0399290274089266,-0.749837604759576],
#            [0.025686358795765953,1.5784825736760073,0.30967432933870664,0.40912657548173165,1.2333409374963051,-9.575452818705617,-17.909777048276034,0.008128683098440902],
#            [0.03311359053973831,1.3833382824414115,0.22437158920484662,0.3891015277767756,1.0465088433870935,-8.500309350094708,-10.548328287550754,0.029701717132779196],
#            [-0.006305664104703947,-0.56048309911485,-0.11742832142432233,-0.1481947239902787,-0.7336825732096524,-2.3313343767051675,-0.19149956952496322,0.07588999424874922],
#            [0.026669769974814454,-0.606899347864041,0.02521774929003635,0.21760291544965296,0.19714445659803084,-5.616137403502312,2.6374745791237006,-0.02011444635379975],
#            [-0.6376699732813107,5.617021993956631,-0.0436604602422092,-3.8381082047934605,3.580534012924115,-0.007008005544284606,-0.7659248718110891,-1.5805381473846574],
#            [-4.1739197853863566,3.3492603533608154,-14.328181346984328,16.737048585508234,18.309517996842853,2.4247783999132886,17.794538130237108,-5.2832384731509086]
#        ]
#    },
#    "inbias": {
#        "DIMENSION": [8],
#        "VALUES": [-232.94999999999996,0.1480821917808219,0.1499801725792742,0.7641372141372141,0.1492954128179152,-0.03137494215054393,0.562251177209798,0.14999594117001167]
#    },
#    "inweights": {
#        "DIMENSION": [8],
#        "VALUES": [0.11666666666666665,0.0019178082191780822,0.030437922391570393,0.0014553014553014552,0.007045871715856394,0.0007456699378156667,0.006910098368476977,0.007777831951432167]
#    },
#    "outbias": {
#        "DIMENSION": [1],
#        "START_COLUMN": 1
#    },
#    "outweight": {
#        "DIMENSION": [1],
#        "START_COLUMN": 2
#    },
#    "two_layers": {
#        "DIMENSION": [1],
#        "START_COLUMN": 3
#    }
#}
0.7485034020555258 8.939186532911148 1.5447620383131166 True
